{"learner":{"attributes":{"scikit_learn":"{\"_estimator_type\": \"regressor\"}"},"feature_names":[],"feature_types":[],"gradient_booster":{"model":{"cats":{"enc":[],"feature_segments":[],"sorted_idx":[]},"gbtree_model_param":{"num_parallel_tree":"1","num_trees":"700"},"iteration_indptr":[0,1,2,3,4,5,6,7,8,9,10,11,12,13,14,15,16,17,18,19,20,21,22,23,24,25,26,27,28,29,30,31,32,33,34,35,36,37,38,39,40,41,42,43,44,45,46,47,48,49,50,51,52,53,54,55,56,57,58,59,60,61,62,63,64,65,66,67,68,69,70,71,72,73,74,75,76,77,78,79,80,81,82,83,84,85,86,87,88,89,90,91,92,93,94,95,96,97,98,99,100,101,102,103,104,105,106,107,108,109,110,111,112,113,114,115,116,117,118,119,120,121,122,123,124,125,126,127,128,129,130,131,132,133,134,135,136,137,138,139,140,141,142,143,144,145,146,147,148,149,150,151,152,153,154,155,156,157,158,159,160,161,162,163,164,165,166,167,168,169,170,171,172,173,174,175,176,177,178,179,180,181,182,183,184,185,186,187,188,189,190,191,192,193,194,195,196,197,198,199,200,201,202,203,204,205,206,207,208,209,210,211,212,213,214,215,216,217,218,219,220,221,222,223,224,225,226,227,228,229,230,231,232,233,234,235,236,237,238,239,240,241,242,243,244,245,246,247,248,249,250,251,252,253,254,255,256,257,258,259,260,261,262,263,264,265,266,267,268,269,270,271,272,273,274,275,276,277,278,279,280,281,282,283,284,285,286,287,288,289,290,291,292,293,294,295,296,297,298,299,300,301,302,303,304,305,306,307,308,309,310,311,312,313,314,315,316,317,318,319,320,321,322,323,324,325,326,327,328,329,330,331,332,333,334,335,336,337,338,339,340,341,342,343,344,345,346,347,348,349,350,351,352,353,354,355,356,357,358,359,360,361,362,363,364,365,366,367,368,369,370,371,372,373,374,375,376,377,378,379,380,381,382,383,384,385,386,387,388,389,390,391,392,393,394,395,396,397,398,399,400,401,402,403,404,405,406,407,408,409,410,411,412,413,414,415,416,417,418,419,420,421,422,423,424,425,426,427,428,429,430,431,432,433,434,435,436,437,438,439,440,441,442,443,444,445,446,447,448,449,450,451,452,453,454,455,456,457,458,459,460,461,462,463,464,465,466,467,468,469,470,471,472,473,474,475,476,477,478,479,480,481,482,483,484,485,486,487,488,489,490,491,492,493,494,495,496,497,498,499,500,501,502,503,504,505,506,507,508,509,510,511,512,513,514,515,516,517,518,519,520,521,522,523,524,525,526,527,528,529,530,531,532,533,534,535,536,537,538,539,540,541,542,543,544,545,546,547,548,549,550,551,552,553,554,555,556,557,558,559,560,561,562,563,564,565,566,567,568,569,570,571,572,573,574,575,576,577,578,579,580,581,582,583,584,585,586,587,588,589,590,591,592,593,594,595,596,597,598,599,600,601,602,603,604,605,606,607,608,609,610,611,612,613,614,615,616,617,618,619,620,621,622,623,624,625,626,627,628,629,630,631,632,633,634,635,636,637,638,639,640,641,642,643,644,645,646,647,648,649,650,651,652,653,654,655,656,657,658,659,660,661,662,663,664,665,666,667,668,669,670,671,672,673,674,675,676,677,678,679,680,681,682,683,684,685,686,687,688,689,690,691,692,693,694,695,696,697,698,699,700],"tree_info":[0,0,0,0,0,0,0,0,0,0,0,0,0,0,0,0,0,0,0,0,0,0,0,0,0,0,0,0,0,0,0,0,0,0,0,0,0,0,0,0,0,0,0,0,0,0,0,0,0,0,0,0,0,0,0,0,0,0,0,0,0,0,0,0,0,0,0,0,0,0,0,0,0,0,0,0,0,0,0,0,0,0,0,0,0,0,0,0,0,0,0,0,0,0,0,0,0,0,0,0,0,0,0,0,0,0,0,0,0,0,0,0,0,0,0,0,0,0,0,0,0,0,0,0,0,0,0,0,0,0,0,0,0,0,0,0,0,0,0,0,0,0,0,0,0,0,0,0,0,0,0,0,0,0,0,0,0,0,0,0,0,0,0,0,0,0,0,0,0,0,0,0,0,0,0,0,0,0,0,0,0,0,0,0,0,0,0,0,0,0,0,0,0,0,0,0,0,0,0,0,0,0,0,0,0,0,0,0,0,0,0,0,0,0,0,0,0,0,0,0,0,0,0,0,0,0,0,0,0,0,0,0,0,0,0,0,0,0,0,0,0,0,0,0,0,0,0,0,0,0,0,0,0,0,0,0,0,0,0,0,0,0,0,0,0,0,0,0,0,0,0,0,0,0,0,0,0,0,0,0,0,0,0,0,0,0,0,0,0,0,0,0,0,0,0,0,0,0,0,0,0,0,0,0,0,0,0,0,0,0,0,0,0,0,0,0,0,0,0,0,0,0,0,0,0,0,0,0,0,0,0,0,0,0,0,0,0,0,0,0,0,0,0,0,0,0,0,0,0,0,0,0,0,0,0,0,0,0,0,0,0,0,0,0,0,0,0,0,0,0,0,0,0,0,0,0,0,0,0,0,0,0,0,0,0,0,0,0,0,0,0,0,0,0,0,0,0,0,0,0,0,0,0,0,0,0,0,0,0,0,0,0,0,0,0,0,0,0,0,0,0,0,0,0,0,0,0,0,0,0,0,0,0,0,0,0,0,0,0,0,0,0,0,0,0,0,0,0,0,0,0,0,0,0,0,0,0,0,0,0,0,0,0,0,0,0,0,0,0,0,0,0,0,0,0,0,0,0,0,0,0,0,0,0,0,0,0,0,0,0,0,0,0,0,0,0,0,0,0,0,0,0,0,0,0,0,0,0,0,0,0,0,0,0,0,0,0,0,0,0,0,0,0,0,0,0,0,0,0,0,0,0,0,0,0,0,0,0,0,0,0,0,0,0,0,0,0,0,0,0,0,0,0,0,0,0,0,0,0,0,0,0,0,0,0,0,0,0,0,0,0,0,0,0,0,0,0,0,0,0,0,0,0,0,0,0,0,0,0,0,0,0,0,0,0,0,0,0,0,0,0,0,0,0,0,0,0,0,0,0,0,0,0,0,0,0,0,0,0,0,0,0,0,0,0,0,0,0,0,0,0,0,0,0,0,0,0,0,0,0,0,0,0,0,0,0,0,0,0,0,0,0,0,0,0,0,0,0,0,0,0,0,0,0,0,0,0,0,0,0,0,0,0,0,0,0,0,0,0,0,0,0,0,0,0,0,0,0,0,0,0,0,0,0,0,0,0,0,0,0],"trees":[{"base_weights":[-3.4084596E-2,-5.9868044E-1,2.5941932E-1,-1.0135627E0,-3.1086332E-1,-2.9472736E-1,3.69899E-1,-1.6132347E-2,-1.5964842E-1,5.568779E-1,-4.1972393E-1,-6.6043043E-1,3.068916E-1,7.018063E-1,7.167195E-2,-3.5884003E-3,-3.6889314E-6,1.2327002E-2,1.5949452E-3,-4.57408E-3,-1.4429369E-2,3.4549713E-4,-1.27338525E-2,9.277894E-3,-9.918207E-4,1.1686015E-2,-1.191098E-2,-6.0091997E-3,5.2582966E-3],"categories":[],"categories_nodes":[],"categories_segments":[],"categories_sizes":[],"default_left":[0,0,0,0,0,0,0,0,0,0,0,0,0,0,0,0,0,0,0,0,0,0,0,0,0,0,0,0,0],"id":0,"left_children":[1,3,5,7,9,11,13,-1,15,17,19,21,23,25,27,-1,-1,-1,-1,-1,-1,-1,-1,-1,-1,-1,-1,-1,-1],"loss_changes":[3.2468967E1,7.6854076E0,8.006652E0,1.2560749E0,4.1067114E0,5.0429864E0,1.0639942E1,0E0,3.799609E-2,5.0941944E-1,2.0095582E0,1.8231468E0,1.0870917E0,6.5128593E0,7.7797003E0,0E0,0E0,0E0,0E0,0E0,0E0,0E0,0E0,0E0,0E0,0E0,0E0,0E0,0E0],"parents":[2147483647,0,0,1,1,2,2,3,3,4,4,5,5,6,6,8,8,9,9,10,10,11,11,12,12,13,13,14,14],"right_children":[2,4,6,8,10,12,14,-1,16,18,20,22,24,26,28,-1,-1,-1,-1,-1,-1,-1,-1,-1,-1,-1,-1,-1,-1],"split_conditions":[-3.668263E-1,-1.1158049E0,-5.570191E-1,1.4211742E0,-7.9267526E-1,9.8861927E-1,-9.7958535E-2,-1.6132347E-2,8.201626E-1,2.1973443E0,-4.6974957E-1,1.0982355E-1,1.0241215E0,3.0645235E0,8.201626E-1,-3.5884003E-3,-3.6889314E-6,1.2327002E-2,1.5949452E-3,-4.57408E-3,-1.4429369E-2,3.4549713E-4,-1.27338525E-2,9.277894E-3,-9.918207E-4,1.1686015E-2,-1.191098E-2,-6.0091997E-3,5.2582966E-3],"split_indices":[4,4,0,2,4,4,0,0,0,0,4,4,4,6,0,0,0,0,0,0,0,0,0,0,0,0,0,0,0],"split_type":[0,0,0,0,0,0,0,0,0,0,0,0,0,0,0,0,0,0,0,0,0,0,0,0,0,0,0,0,0],"sum_hessian":[1.94E2,6.6E1,1.28E2,2.6E1,4E1,2.1E1,1.07E2,2.4E1,2E0,4E0,3.6E1,1.3E1,8E0,5E1,5.7E1,1E0,1E0,2E0,2E0,3.1E1,5E0,3E0,1E1,4E0,4E0,4.8E1,2E0,2.1E1,3.6E1],"tree_param":{"num_deleted":"0","num_feature":"9","num_nodes":"29","size_leaf_vector":"1"}},{"base_weights":[-5.6897175E-2,-5.261044E-1,3.5712597E-1,-1.0171491E0,-3.5950017E-1,-6.3713026E-1,5.1124483E-1,-1.2578002E0,-7.117897E-1,-1.7966729E-2,-2.2776623E-1,7.627455E-3,-8.7044287E-1,3.2964382E-1,1.1533937E0,-2.1365836E-2,-5.081496E-3,-1.5475273E-2,-6.343224E-3,-2.3096844E-3,-2.367597E-2,-8.392238E-3,-2.4252443E-2,3.930143E-3,1.2315876E-2,1.849197E-2,-2.0691347E-3],"categories":[],"categories_nodes":[],"categories_segments":[],"categories_sizes":[],"default_left":[0,0,0,0,0,0,0,0,0,0,0,0,0,0,0,0,0,0,0,0,0,0,0,0,0,0,0],"id":1,"left_children":[1,3,5,7,9,11,13,15,17,-1,19,-1,21,23,25,-1,-1,-1,-1,-1,-1,-1,-1,-1,-1,-1,-1],"loss_changes":[3.6903526E1,6.915436E0,1.5802329E1,7.2138214E-1,7.236435E0,4.184667E0,9.881901E0,1.2015743E0,6.727624E-1,0E0,5.736527E0,0E0,1.8805714E0,2.1114278E0,2.1182709E0,0E0,0E0,0E0,0E0,0E0,0E0,0E0,0E0,0E0,0E0,0E0,0E0],"parents":[2147483647,0,0,1,1,2,2,3,3,4,4,5,5,6,6,7,7,8,8,10,10,12,12,13,13,14,14],"right_children":[2,4,6,8,10,12,14,16,18,-1,20,-1,22,24,26,-1,-1,-1,-1,-1,-1,-1,-1,-1,-1,-1,-1],"split_conditions":[-2.3139462E-1,-1.1158049E0,-5.478565E-1,-1.7564241E0,-1.2930667E0,-1.7524323E-1,1.4363545E0,3.0645235E0,2.566234E-1,-1.7966729E-2,-2.553839E-1,7.627455E-3,-6.7484725E-1,2.1810849E0,2.1973443E0,-2.1365836E-2,-5.081496E-3,-1.5475273E-2,-6.343224E-3,-2.3096844E-3,-2.367597E-2,-8.392238E-3,-2.4252443E-2,3.930143E-3,1.2315876E-2,1.849197E-2,-2.0691347E-3],"split_indices":[3,4,4,4,3,3,3,6,7,0,3,0,4,4,0,0,0,0,0,0,0,0,0,0,0,0,0],"split_type":[0,0,0,0,0,0,0,0,0,0,0,0,0,0,0,0,0,0,0,0,0,0,0,0,0,0,0],"sum_hessian":[1.88E2,8.8E1,1E2,2.1E1,6.7E1,1.3E1,8.7E1,1E1,1.1E1,8E0,5.9E1,2E0,1.1E1,6.9E1,1.8E1,8E0,2E0,4E0,7E0,5.7E1,2E0,9E0,2E0,6.2E1,7E0,1.7E1,1E0],"tree_param":{"num_deleted":"0","num_feature":"9","num_nodes":"27","size_leaf_vector":"1"}},{"base_weights":[9.1934286E-2,-3.723703E-1,5.308341E-1,-1.0543814E0,-2.5392783E-1,3.1617725E-1,1.1192261E0,-2.447335E-3,-1.1150539E0,-8.3008754E-1,-1.1492278E-1,1.33121805E-2,2.398243E-1,1.8432606E-2,-9.422636E-2,-6.4097177E-3,-1.8148053E-2,-7.1108188E-3,-1.5221552E-2,-6.452939E-4,-2.3439212E-2,2.5333334E-3,1.1899711E-2,-2.0536154E-3,-6.647765E-5],"categories":[],"categories_nodes":[],"categories_segments":[],"categories_sizes":[],"default_left":[0,0,0,0,0,0,0,0,0,0,0,0,0,0,0,0,0,0,0,0,0,0,0,0,0],"id":2,"left_children":[1,3,5,7,9,11,13,-1,15,17,19,-1,21,-1,23,-1,-1,-1,-1,-1,-1,-1,-1,-1,-1],"loss_changes":[3.769377E1,7.0023794E0,1.1644854E1,5.2101994E-1,6.1515546E0,2.8842196E0,3.4410858E0,0E0,2.6551342E-1,5.0524044E-1,6.594768E0,0E0,2.3787866E0,0E0,1.0890899E-2,0E0,0E0,0E0,0E0,0E0,0E0,0E0,0E0,0E0,0E0],"parents":[2147483647,0,0,1,1,2,2,3,3,4,4,5,5,6,6,8,8,9,9,10,10,12,12,14,14],"right_children":[2,4,6,8,10,12,14,-1,16,18,20,-1,22,-1,24,-1,-1,-1,-1,-1,-1,-1,-1,-1,-1],"split_conditions":[-2.3247597E-1,-1.220963E0,1.5760368E0,-1.0160797E0,-1.1158049E0,-1.07898936E-1,2.1973443E0,-2.447335E-3,-8.0625653E-1,-6.389586E-1,-2.553839E-1,1.33121805E-2,2.1810849E0,1.8432606E-2,2.0463045E0,-6.4097177E-3,-1.8148053E-2,-7.1108188E-3,-1.5221552E-2,-6.452939E-4,-2.3439212E-2,2.5333334E-3,1.1899711E-2,-2.0536154E-3,-6.647765E-5],"split_indices":[3,3,3,0,4,3,0,0,4,3,3,0,4,0,3,0,0,0,0,0,0,0,0,0,0],"split_type":[0,0,0,0,0,0,0,0,0,0,0,0,0,0,0,0,0,0,0,0,0,0,0,0,0],"sum_hessian":[1.83E2,8.9E1,9.4E1,1.2E1,7.7E1,7E1,2.4E1,1E0,1.1E1,1.4E1,6.3E1,7E0,6.3E1,2.2E1,2E0,2E0,9E0,6E0,8E0,6.1E1,2E0,5.7E1,6E0,1E0,1E0],"tree_param":{"num_deleted":"0","num_feature":"9","num_nodes":"25","size_leaf_vector":"1"}},{"base_weights":[7.309372E-3,-2.5658074E-1,7.470932E-1,-4.268481E-1,3.2391202E-1,1.1231217E-1,1.0340699E0,-3.5653517E-1,-2.1308463E-2,6.020419E-1,-2.8707874E-1,-3.3170408E-1,3.8465777E-1,1.8155986E-2,5.9523886E-1,-1.2963597E-2,-3.1732547E-3,-2.3071765E-4,9.923647E-3,-7.96304E-3,8.099791E-3,1.3103544E-3,-7.751998E-3,1.209356E-2,1.8867863E-3,1.0649347E-2,-4.999912E-3],"categories":[],"categories_nodes":[],"categories_segments":[],"categories_sizes":[],"default_left":[0,0,0,0,0,0,0,0,0,0,0,0,0,0,0,0,0,0,0,0,0,0,0,0,0,0,0],"id":3,"left_children":[1,3,5,7,9,11,13,15,-1,17,19,21,23,-1,25,-1,-1,-1,-1,-1,-1,-1,-1,-1,-1,-1,-1],"loss_changes":[3.786946E1,1.4272237E1,9.174398E0,7.249216E0,5.7806807E0,2.1833322E0,1.9877815E0,7.5461645E0,0E0,8.5561085E-1,2.5045993E0,5.881111E-1,1.0990734E0,0E0,1.5149231E0,0E0,0E0,0E0,0E0,0E0,0E0,0E0,0E0,0E0,0E0,0E0,0E0],"parents":[2147483647,0,0,1,1,2,2,3,3,4,4,5,5,6,6,7,7,9,9,10,10,11,11,12,12,14,14],"right_children":[2,4,6,8,10,12,14,16,-1,18,20,22,24,-1,26,-1,-1,-1,-1,-1,-1,-1,-1,-1,-1,-1,-1],"split_conditions":[6.252615E-1,9.418006E-1,1.346903E-1,8.5421354E-1,1.7090791E-1,-4.4161695E-1,9.685981E-1,-1.2927505E0,-2.1308463E-2,9.6780604E-1,2.3709261E0,8.0846995E-1,-7.361576E-2,1.8155986E-2,1.1863781E0,-1.2963597E-2,-3.1732547E-3,-2.3071765E-4,9.923647E-3,-7.96304E-3,8.099791E-3,1.3103544E-3,-7.751998E-3,1.209356E-2,1.8867863E-3,1.0649347E-2,-4.999912E-3],"split_indices":[3,4,4,4,3,4,4,4,0,4,1,3,4,0,3,0,0,0,0,0,0,0,0,0,0,0,0],"split_type":[0,0,0,0,0,0,0,0,0,0,0,0,0,0,0,0,0,0,0,0,0,0,0,0,0,0,0],"sum_hessian":[1.92E2,1.42E2,5E1,1.1E2,3.2E1,1.6E1,3.4E1,1.04E2,6E0,2.2E1,1E1,6E0,1E1,2.3E1,1.1E1,2.2E1,8.2E1,2E0,2E1,8E0,2E0,2E0,4E0,3E0,7E0,1E1,1E0],"tree_param":{"num_deleted":"0","num_feature":"9","num_nodes":"27","size_leaf_vector":"1"}},{"base_weights":[-2.4977585E-2,-2.3689114E-1,7.3655236E-1,-3.3052438E-1,3.8969365E-1,4.0333542E-1,1.116246E0,-9.8018324E-1,-2.6087287E-1,5.9898955E-1,1.8280591E-1,7.073702E-1,1.5016873E-2,1.7633371E-2,-8.01301E-5,-1.7509077E-2,-9.796026E-3,-3.3767982E-3,-1.621607E-2,3.753999E-3,1.0690348E-2,-2.4263596E-3,4.0184143E-3,1.3097873E-2,-1.0862301E-2,-3.2243228E-3,5.6995237E-3],"categories":[],"categories_nodes":[],"categories_segments":[],"categories_sizes":[],"default_left":[0,0,0,0,0,0,0,0,0,0,0,0,0,0,0,0,0,0,0,0,0,0,0,0,0,0,0],"id":4,"left_children":[1,3,5,7,9,11,13,15,17,19,21,23,25,-1,-1,-1,-1,-1,-1,-1,-1,-1,-1,-1,-1,-1,-1],"loss_changes":[3.2611565E1,9.398533E0,5.1166725E0,5.988758E0,7.9981685E-1,2.9409366E0,1.3367538E0,3.328514E-2,3.4515228E0,2.1813679E-1,3.9515373E-1,3.955604E0,1.0888181E0,0E0,0E0,0E0,0E0,0E0,0E0,0E0,0E0,0E0,0E0,0E0,0E0,0E0,0E0],"parents":[2147483647,0,0,1,1,2,2,3,3,4,4,5,5,6,6,7,7,8,8,9,9,10,10,11,11,12,12],"right_children":[2,4,6,8,10,12,14,16,18,20,22,24,26,-1,-1,-1,-1,-1,-1,-1,-1,-1,-1,-1,-1,-1,-1],"split_conditions":[7.502448E-1,2.3709261E0,2.0463307E0,-1.249533E0,-2.2287403E-1,1.1009258E0,2.3019185E0,-1.3128322E0,6.8410525E0,-1.0236646E0,-1.0887825E-2,3.0645235E0,1.5760368E0,1.7633371E-2,-8.01301E-5,-1.7509077E-2,-9.796026E-3,-3.3767982E-3,-1.621607E-2,3.753999E-3,1.0690348E-2,-2.4263596E-3,4.0184143E-3,1.3097873E-2,-1.0862301E-2,-3.2243228E-3,5.6995237E-3],"split_indices":[3,1,3,3,3,3,3,3,5,3,3,6,3,0,0,0,0,0,0,0,0,0,0,0,0,0,0],"split_type":[0,0,0,0,0,0,0,0,0,0,0,0,0,0,0,0,0,0,0,0,0,0,0,0,0,0,0],"sum_hessian":[2E2,1.57E2,4.3E1,1.37E2,2E1,2.4E1,1.9E1,1.2E1,1.25E2,9E0,1.1E1,1.3E1,1.1E1,1.8E1,1E0,6E0,6E0,1.21E2,4E0,3E0,6E0,2E0,9E0,1.2E1,1E0,7E0,4E0],"tree_param":{"num_deleted":"0","num_feature":"9","num_nodes":"27","size_leaf_vector":"1"}},{"base_weights":[-3.9185337E-3,-4.4172713E-1,4.382207E-1,-1.0258473E0,-2.7962503E-1,-5.4060125E-1,6.0008556E-1,-1.0599118E0,-2.3286992E-3,-2.2876735E-1,-2.313932E-2,8.194736E-3,-8.578568E-1,4.1671118E-1,1.7479407E-2,-1.698333E-2,-9.031119E-3,-1.26356E-2,-1.9361317E-3,-8.250496E-3,-2.396975E-2,-1.21284695E-2,6.991376E-3],"categories":[],"categories_nodes":[],"categories_segments":[],"categories_sizes":[],"default_left":[0,0,0,0,0,0,0,0,0,0,0,0,0,0,0,0,0,0,0,0,0,0,0],"id":5,"left_children":[1,3,5,7,9,11,13,15,-1,17,-1,-1,19,21,-1,-1,-1,-1,-1,-1,-1,-1,-1],"loss_changes":[3.968234E1,9.465918E0,1.648497E1,4.8789597E-1,4.914209E0,5.641118E0,8.635143E0,1.3551712E-2,0E0,4.7849936E0,0E0,0E0,1.8549986E0,4.491192E0,0E0,0E0,0E0,0E0,0E0,0E0,0E0,0E0,0E0],"parents":[2147483647,0,0,1,1,2,2,3,3,4,4,5,5,6,6,7,7,9,9,12,12,13,13],"right_children":[2,4,6,8,10,12,14,16,-1,18,-1,-1,20,22,-1,-1,-1,-1,-1,-1,-1,-1,-1],"split_conditions":[-2.3139462E-1,-1.1158049E0,-5.478565E-1,2.3709261E0,-2.553839E-1,-8.717627E-2,2.0463045E0,3.0645235E0,-2.3286992E-3,-1.220963E0,-2.313932E-2,8.194736E-3,-6.7484725E-1,2.4272989E-1,1.7479407E-2,-1.698333E-2,-9.031119E-3,-1.26356E-2,-1.9361317E-3,-8.250496E-3,-2.396975E-2,-1.21284695E-2,6.991376E-3],"split_indices":[3,4,4,1,3,3,3,6,0,3,0,0,4,8,0,0,0,0,0,0,0,0,0],"split_type":[0,0,0,0,0,0,0,0,0,0,0,0,0,0,0,0,0,0,0,0,0,0,0],"sum_hessian":[2.03E2,1.02E2,1.01E2,2.1E1,8.1E1,1.4E1,8.7E1,2E1,1E0,7.9E1,2E0,3E0,1.1E1,6.7E1,2E1,1.6E1,4E0,1E1,6.9E1,9E0,2E0,2E0,6.5E1],"tree_param":{"num_deleted":"0","num_feature":"9","num_nodes":"23","size_leaf_vector":"1"}},{"base_weights":[-1.6525168E-2,-2.5165385E-1,6.7000395E-1,-8.468059E-1,-1.3052633E-1,3.8519207E-1,1.7086707E-2,-8.8488483E-1,2.1758258E-4,-2.6270896E-1,2.574402E-1,-7.566153E-3,4.9461335E-1,-1.5697747E-2,-1.0200772E-2,-2.6386874E-3,-1.9001048E-2,7.815361E-3,-5.2228253E-3,1.1517881E-2,6.5291015E-4],"categories":[],"categories_nodes":[],"categories_segments":[],"categories_sizes":[],"default_left":[0,0,0,0,0,0,0,0,0,0,0,0,0,0,0,0,0,0,0,0,0],"id":6,"left_children":[1,3,5,7,9,11,-1,13,-1,15,17,-1,19,-1,-1,-1,-1,-1,-1,-1,-1],"loss_changes":[3.100034E1,1.0198238E1,6.108017E0,7.999859E-1,6.221525E0,3.3644133E0,0E0,4.978752E-2,0E0,7.620309E0,5.130067E0,0E0,3.5410357E0,0E0,0E0,0E0,0E0,0E0,0E0,0E0,0E0],"parents":[2147483647,0,0,1,1,2,2,3,3,4,4,5,5,7,7,9,9,10,10,12,12],"right_children":[2,4,6,8,10,12,-1,14,-1,16,18,-1,20,-1,-1,-1,-1,-1,-1,-1,-1],"split_conditions":[6.252615E-1,-1.1158049E0,2.0463307E0,3.7298021E0,9.407144E-1,-1.6390806E0,1.7086707E-2,-1.8295885E0,2.1758258E-4,3.948379E-1,1.17306836E-1,-7.566153E-3,1.1009258E0,-1.5697747E-2,-1.0200772E-2,-2.6386874E-3,-1.9001048E-2,7.815361E-3,-5.2228253E-3,1.1517881E-2,6.5291015E-4],"split_indices":[3,4,3,1,4,4,0,4,0,4,3,0,3,0,0,0,0,0,0,0,0],"split_type":[0,0,0,0,0,0,0,0,0,0,0,0,0,0,0,0,0,0,0,0,0],"sum_hessian":[1.9E2,1.42E2,4.8E1,2.3E1,1.19E2,3.1E1,1.7E1,2.2E1,1E0,8.9E1,3E1,3E0,2.8E1,1E1,1.2E1,8.3E1,6E0,2.1E1,9E0,1.7E1,1.1E1],"tree_param":{"num_deleted":"0","num_feature":"9","num_nodes":"21","size_leaf_vector":"1"}},{"base_weights":[-1.779985E-2,-9.808821E-1,1.3315159E-1,-1.0443622E0,-1.4608097E-1,-1.1285424E-2,1.0790704E0,-1.2481564E0,-7.3655486E-1,-3.5027717E-3,2.1595001E-4,-1.0321817E-1,5.6845516E-1,1.7161814E-2,-2.152446E-3,-2.0042902E-2,-7.639529E-3,-2.4525833E-3,-1.6837766E-2,-1.9434866E-2,-9.540071E-4,-2.55045E-4,1.0091571E-2],"categories":[],"categories_nodes":[],"categories_segments":[],"categories_sizes":[],"default_left":[0,0,0,0,0,0,0,0,0,0,0,0,0,0,0,0,0,0,0,0,0,0,0],"id":7,"left_children":[1,3,5,7,9,11,13,15,17,-1,-1,19,21,-1,-1,-1,-1,-1,-1,-1,-1,-1,-1],"loss_changes":[2.7897926E1,1.2252617E0,2.2692041E1,5.861702E-1,4.5457006E-2,7.7867603E0,1.9138107E0,1.6507912E-1,2.4705715E0,0E0,0E0,5.870051E0,1.2328963E0,0E0,0E0,0E0,0E0,0E0,0E0,0E0,0E0,0E0,0E0],"parents":[2147483647,0,0,1,1,2,2,3,3,4,4,5,5,6,6,7,7,8,8,11,11,12,12],"right_children":[2,4,6,8,10,12,14,16,18,-1,-1,20,22,-1,-1,-1,-1,-1,-1,-1,-1,-1,-1],"split_conditions":[-1.1158049E0,1.4211742E0,1.4363545E0,-1.7564241E0,8.201626E-1,2.7173042E-1,2.1973443E0,3.3425793E-1,-1.6712861E0,-3.5027717E-3,2.1595001E-4,-1.3128322E0,-2.7689373E-1,1.7161814E-2,-2.152446E-3,-2.0042902E-2,-7.639529E-3,-2.4525833E-3,-1.6837766E-2,-1.9434866E-2,-9.540071E-4,-2.55045E-4,1.0091571E-2],"split_indices":[4,2,3,4,0,2,0,3,4,0,0,3,4,0,0,0,0,0,0,0,0,0,0],"split_type":[0,0,0,0,0,0,0,0,0,0,0,0,0,0,0,0,0,0,0,0,0,0,0],"sum_hessian":[1.9E2,2.5E1,1.65E2,2.3E1,2E0,1.44E2,2.1E1,1.2E1,1.1E1,1E0,1E0,1.25E2,1.9E1,2E1,1E0,1E1,2E0,5E0,6E0,3E0,1.22E2,3E0,1.6E1],"tree_param":{"num_deleted":"0","num_feature":"9","num_nodes":"23","size_leaf_vector":"1"}},{"base_weights":[5.586404E-4,-1.0047863E0,1.147992E-1,-1.0591738E0,2.1432995E-4,-7.613364E-2,3.729372E-1,-5.2126193E-1,-1.69118E-2,8.189402E-3,-5.657532E-1,1.0000974E0,2.3760356E-1,-1.407606E-2,5.476232E-3,-2.9229904E-3,2.8420342E-3,-1.0113827E-2,7.1495497E-3,1.5902042E-2,2.0972425E-3,-6.480854E-3,5.8135693E-3],"categories":[],"categories_nodes":[],"categories_segments":[],"categories_sizes":[],"default_left":[0,0,0,0,0,0,0,0,0,0,0,0,0,0,0,0,0,0,0,0,0,0,0],"id":8,"left_children":[1,3,5,7,-1,9,11,13,-1,15,17,19,21,-1,-1,-1,-1,-1,-1,-1,-1,-1,-1],"loss_changes":[2.2511324E1,1.1236343E0,8.7029085E0,1.1014366E-1,0E0,4.215827E0,6.128065E0,1.8215202E0,0E0,3.2761831E0,2.0178943E0,5.2322865E-1,6.494384E0,0E0,0E0,0E0,0E0,0E0,0E0,0E0,0E0,0E0,0E0],"parents":[2147483647,0,0,1,1,2,2,3,3,5,5,6,6,7,7,9,9,10,10,11,11,12,12],"right_children":[2,4,6,8,-1,10,12,14,-1,16,18,20,22,-1,-1,-1,-1,-1,-1,-1,-1,-1,-1],"split_conditions":[-1.2927505E0,3.7298021E0,3.2266724E-1,2.4272989E-1,2.1432995E-4,2.4774484E-1,8.2611567E-1,-9.7958535E-2,-1.69118E-2,-3.668263E-1,8.201626E-1,8.201626E-1,9.418006E-1,-1.407606E-2,5.476232E-3,-2.9229904E-3,2.8420342E-3,-1.0113827E-2,7.1495497E-3,1.5902042E-2,2.0972425E-3,-6.480854E-3,5.8135693E-3],"split_indices":[4,1,4,8,0,4,4,0,0,4,0,0,4,0,0,0,0,0,0,0,0,0,0],"split_type":[0,0,0,0,0,0,0,0,0,0,0,0,0,0,0,0,0,0,0,0,0,0,0],"sum_hessian":[1.94E2,1.9E1,1.75E2,1.8E1,1E0,1.01E2,7.4E1,3E0,1.5E1,8.7E1,1.4E1,1.2E1,6.2E1,2E0,1E0,4.1E1,4.6E1,1.3E1,1E0,1.1E1,1E0,1.1E1,5.1E1],"tree_param":{"num_deleted":"0","num_feature":"9","num_nodes":"23","size_leaf_vector":"1"}},{"base_weights":[2.7451474E-2,-3.4407225E-1,3.7706652E-1,-1.0687327E0,-2.4849366E-1,2.1119618E-1,1.6489085E-2,-2.4302315E-3,-1.143203E0,-2.0134063E-1,-2.2524972E-2,6.4970784E-2,4.638156E-1,-1.9473033E-2,-8.7923E-3,-2.3552561E-3,-2.040768E-2,4.3912055E-3,-6.920949E-3,9.884979E-3,2.1430494E-3],"categories":[],"categories_nodes":[],"categories_segments":[],"categories_sizes":[],"default_left":[0,0,0,0,0,0,0,0,0,0,0,0,0,0,0,0,0,0,0,0,0],"id":9,"left_children":[1,3,5,7,9,11,-1,-1,13,15,-1,17,19,-1,-1,-1,-1,-1,-1,-1,-1],"loss_changes":[2.5977905E1,6.4528446E0,1.2106469E1,5.575409E-1,4.8385534E0,3.1097126E0,0E0,0E0,1.0247803E-1,4.153557E0,0E0,6.729243E0,1.8477869E0,0E0,0E0,0E0,0E0,0E0,0E0,0E0,0E0],"parents":[2147483647,0,0,1,1,2,2,3,3,4,4,5,5,8,8,9,9,11,11,12,12],"right_children":[2,4,6,8,10,12,-1,-1,14,16,-1,18,20,-1,-1,-1,-1,-1,-1,-1,-1],"split_conditions":[-2.3139462E-1,-1.220963E0,2.0463307E0,-1.0160797E0,-2.553839E-1,8.201626E-1,1.6489085E-2,-2.4302315E-3,8.201626E-1,6.8410525E0,-2.2524972E-2,-9.7958535E-2,2.1973443E0,-1.9473033E-2,-8.7923E-3,-2.3552561E-3,-2.040768E-2,4.3912055E-3,-6.920949E-3,9.884979E-3,2.1430494E-3],"split_indices":[3,3,3,0,3,0,0,0,0,5,0,0,0,0,0,0,0,0,0,0,0],"split_type":[0,0,0,0,0,0,0,0,0,0,0,0,0,0,0,0,0,0,0,0,0],"sum_hessian":[1.98E2,9.6E1,1.02E2,1E1,8.6E1,8.4E1,1.8E1,1E0,9E0,8.4E1,2E0,5.4E1,3E1,6E0,3E0,8.2E1,2E0,3.8E1,1.6E1,1.8E1,1.2E1],"tree_param":{"num_deleted":"0","num_feature":"9","num_nodes":"21","size_leaf_vector":"1"}},{"base_weights":[-1.36825135E-2,-1.2471156E-1,9.15546E-1,-4.1835526E-1,8.580025E-2,1.6478736E-2,7.350588E-2,-3.1633872E-1,-1.2587056E0,-6.900051E-2,4.1064188E-1,-3.64763E-3,3.6568514E-1,-1.4246454E-2,-2.7321726E-3,-2.0853633E-2,-2.5346142E-3,1.0233453E-3,-5.9467214E-3,7.2816713E-3,-4.3566255E-3,8.69553E-3,-4.6761453E-4],"categories":[],"categories_nodes":[],"categories_segments":[],"categories_sizes":[],"default_left":[0,0,0,0,0,0,0,0,0,0,0,0,0,0,0,0,0,0,0,0,0,0,0],"id":10,"left_children":[1,3,5,7,9,-1,11,13,15,17,19,-1,21,-1,-1,-1,-1,-1,-1,-1,-1,-1,-1],"loss_changes":[2.1264307E1,1.1409941E1,3.3099766E0,6.203005E0,5.459193E0,0E0,5.515641E-1,5.7771273E0,9.118023E-1,3.3521268E0,1.976501E0,0E0,2.7287564E-1,0E0,0E0,0E0,0E0,0E0,0E0,0E0,0E0,0E0,0E0],"parents":[2147483647,0,0,1,1,2,2,3,3,4,4,6,6,7,7,8,8,9,9,10,10,12,12],"right_children":[2,4,6,8,10,-1,12,14,16,18,20,-1,22,-1,-1,-1,-1,-1,-1,-1,-1,-1,-1],"split_conditions":[1.5760368E0,-5.3833663E-1,-9.7958535E-2,-6.0481536E-1,8.201626E-1,1.6478736E-2,2.0463307E0,-1.220963E0,1.829264E0,-9.7958535E-2,9.791269E-1,-3.64763E-3,2.1973443E0,-1.4246454E-2,-2.7321726E-3,-2.0853633E-2,-2.5346142E-3,1.0233453E-3,-5.9467214E-3,7.2816713E-3,-4.3566255E-3,8.69553E-3,-4.6761453E-4],"split_indices":[3,3,0,3,0,0,3,3,7,0,3,0,0,0,0,0,0,0,0,0,0,0,0],"split_type":[0,0,0,0,0,0,0,0,0,0,0,0,0,0,0,0,0,0,0,0,0,0,0],"sum_hessian":[2.04E2,1.83E2,2.1E1,7.6E1,1.07E2,1.7E1,4E0,6.9E1,7E0,7.3E1,3.4E1,2E0,2E0,1.1E1,5.8E1,6E0,1E0,5.2E1,2.1E1,3.1E1,3E0,1E0,1E0],"tree_param":{"num_deleted":"0","num_feature":"9","num_nodes":"23","size_leaf_vector":"1"}},{"base_weights":[-1.6498419E-2,-4.031597E-1,3.5422385E-1,-8.577005E-1,-2.3012029E-1,1.9031799E-1,1.0084572E0,-6.723045E-1,-2.4944298E-2,-2.6868907E-1,1.0426493E-2,6.37688E-3,4.5453405E-1,1.6018804E-2,-4.64108E-4,-1.1231761E-2,7.003251E-3,-1.49408635E-2,-3.455931E-3,3.0554477E-3,-7.0992513E-3,8.560695E-3,-4.3046246E-3],"categories":[],"categories_nodes":[],"categories_segments":[],"categories_sizes":[],"default_left":[0,0,0,0,0,0,0,0,0,0,0,0,0,0,0,0,0,0,0,0,0,0,0],"id":11,"left_children":[1,3,5,7,9,11,13,15,-1,17,-1,19,21,-1,-1,-1,-1,-1,-1,-1,-1,-1,-1],"loss_changes":[2.6948126E1,7.038745E0,1.0102408E1,2.614254E0,2.613319E0,3.7879162E0,1.2073574E0,2.2663355E0,0E0,1.608851E0,0E0,4.544787E0,2.920508E0,0E0,0E0,0E0,0E0,0E0,0E0,0E0,0E0,0E0,0E0],"parents":[2147483647,0,0,1,1,2,2,3,3,4,4,5,5,6,6,7,7,9,9,11,11,12,12],"right_children":[2,4,6,8,10,12,14,16,-1,18,-1,20,22,-1,-1,-1,-1,-1,-1,-1,-1,-1,-1],"split_conditions":[-2.3139462E-1,-5.570191E-1,2.0463307E0,-2.553839E-1,-3.291302E-1,8.201626E-1,2.1973443E0,-2.6125297E-1,-2.4944298E-2,-2.0777678E0,1.0426493E-2,-9.7958535E-2,1.1009258E0,1.6018804E-2,-4.64108E-4,-1.1231761E-2,7.003251E-3,-1.49408635E-2,-3.455931E-3,3.0554477E-3,-7.0992513E-3,8.560695E-3,-4.3046246E-3],"split_indices":[3,0,3,3,3,0,0,3,0,8,0,0,3,0,0,0,0,0,0,0,0,0,0],"split_type":[0,0,0,0,0,0,0,0,0,0,0,0,0,0,0,0,0,0,0,0,0,0,0],"sum_hessian":[1.86E2,9.1E1,9.5E1,2.4E1,6.7E1,7.7E1,1.8E1,2.1E1,3E0,6.5E1,2E0,4.6E1,3.1E1,1.7E1,1E0,2E1,1E0,2E0,6.3E1,3.3E1,1.3E1,2.7E1,4E0],"tree_param":{"num_deleted":"0","num_feature":"9","num_nodes":"23","size_leaf_vector":"1"}},{"base_weights":[2.310692E-3,-2.3481892E-1,6.286472E-1,-3.2598123E-1,4.9206287E-1,3.7049276E-1,1.0043828E0,-1.3591729E-2,-2.5635538E-1,1.4459781E-1,5.9583473E-1,4.7563395E-1,-1.8191485E-1,1.5865093E-2,-4.6062647E-4,-8.296491E-3,-2.2098524E-3,7.3580807E-3,-9.678313E-4,1.071091E-2,2.7130141E-3,-4.6967124E-3,8.225246E-3,-8.107531E-3,5.3525963E-3],"categories":[],"categories_nodes":[],"categories_segments":[],"categories_sizes":[],"default_left":[0,0,0,0,0,0,0,0,0,0,0,0,0,0,0,0,0,0,0,0,0,0,0,0,0],"id":12,"left_children":[1,3,5,7,9,11,13,-1,15,17,19,21,23,-1,-1,-1,-1,-1,-1,-1,-1,-1,-1,-1,-1],"loss_changes":[2.8664022E1,9.437395E0,4.76877E0,4.816757E0,4.9075723E-1,2.0031905E0,1.1908398E0,0E0,3.5745797E0,3.9336622E-1,4.5956802E-1,1.7776208E0,1.3520156E0,0E0,0E0,0E0,0E0,0E0,0E0,0E0,0E0,0E0,0E0,0E0,0E0],"parents":[2147483647,0,0,1,1,2,2,3,3,4,4,5,5,6,6,8,8,9,9,10,10,11,11,12,12],"right_children":[2,4,6,8,10,12,14,-1,16,18,20,22,24,-1,-1,-1,-1,-1,-1,-1,-1,-1,-1,-1,-1],"split_conditions":[6.1838734E-1,2.3709261E0,2.0463045E0,-1.220963E0,-1.0236646E0,1.2741293E0,2.1973443E0,-1.3591729E-2,-5.570191E-1,-1.1529732E0,2.1973443E0,-1.3160174E0,1.5760368E0,1.5865093E-2,-4.6062647E-4,-8.296491E-3,-2.2098524E-3,7.3580807E-3,-9.678313E-4,1.071091E-2,2.7130141E-3,-4.6967124E-3,8.225246E-3,-8.107531E-3,5.3525963E-3],"split_indices":[3,1,3,3,3,3,0,0,0,3,0,7,3,0,0,0,0,0,0,0,0,0,0,0,0],"split_type":[0,0,0,0,0,0,0,0,0,0,0,0,0,0,0,0,0,0,0,0,0,0,0,0,0],"sum_hessian":[1.91E2,1.39E2,5.2E1,1.24E2,1.5E1,3.2E1,2E1,1.2E1,1.12E2,4E0,1.1E1,2.7E1,5E0,1.9E1,1E0,2.9E1,8.3E1,1E0,3E0,8E0,3E0,2E0,2.5E1,3E0,2E0],"tree_param":{"num_deleted":"0","num_feature":"9","num_nodes":"25","size_leaf_vector":"1"}},{"base_weights":[-1.7809907E-2,-4.611606E-1,3.7304178E-1,-3.932888E-1,-2.2841237E-2,2.0834911E-1,9.905211E-1,-9.072225E-1,-2.8789487E-1,2.4941936E-1,-1.4139261E-2,1.5646422E-2,-4.571718E-4,-2.1189807E-3,-1.4329135E-2,-3.509746E-3,-1.71885E-2,4.3484513E-3,-4.370574E-3],"categories":[],"categories_nodes":[],"categories_segments":[],"categories_sizes":[],"default_left":[0,0,0,0,0,0,0,0,0,0,0,0,0,0,0,0,0,0,0],"id":13,"left_children":[1,3,5,7,-1,9,11,13,15,17,-1,-1,-1,-1,-1,-1,-1,-1,-1],"loss_changes":[3.292278E1,5.8137417E0,1.0064752E1,4.342881E0,0E0,4.0640173E0,1.1590271E0,3.8034725E-1,3.0623555E0,1.8137622E0,0E0,0E0,0E0,0E0,0E0,0E0,0E0,0E0,0E0],"parents":[2147483647,0,0,1,1,2,2,3,3,5,5,6,6,7,7,8,8,9,9],"right_children":[2,4,6,8,-1,10,12,14,16,18,-1,-1,-1,-1,-1,-1,-1,-1,-1],"split_conditions":[-2.3139462E-1,-3.227782E-1,2.0463307E0,-1.220963E0,-2.2841237E-2,6.8410525E0,2.1973443E0,-1.0160797E0,6.8410525E0,3.0645235E0,-1.4139261E-2,1.5646422E-2,-4.571718E-4,-2.1189807E-3,-1.4329135E-2,-3.509746E-3,-1.71885E-2,4.3484513E-3,-4.370574E-3],"split_indices":[3,3,3,3,0,5,0,0,5,6,0,0,0,0,0,0,0,0,0],"split_type":[0,0,0,0,0,0,0,0,0,0,0,0,0,0,0,0,0,0,0],"sum_hessian":[1.88E2,8.8E1,1E2,8.4E1,4E0,8E1,2E1,1.3E1,7.1E1,7.8E1,2E0,1.9E1,1E0,1E0,1.2E1,6.8E1,3E0,7.3E1,5E0],"tree_param":{"num_deleted":"0","num_feature":"9","num_nodes":"19","size_leaf_vector":"1"}},{"base_weights":[3.5852656E-2,-3.9879364E-1,1.449964E-1,-5.27861E-1,3.7229871E-3,2.1961683E-1,-5.4620314E-1,-5.72926E-1,6.5186475E-3,4.9180174E-1,6.72946E-2,-8.003051E-1,-2.2382571E-1,-2.103088E-3,-8.740147E-3,8.280602E-3,-4.8583555E-3,-7.4100407E-4,7.497346E-3,-1.4047768E-2,-6.4494438E-3,6.5466925E-4,-7.5331074E-3],"categories":[],"categories_nodes":[],"categories_segments":[],"categories_sizes":[],"default_left":[0,0,0,0,0,0,0,0,0,0,0,0,0,0,0,0,0,0,0,0,0,0,0],"id":14,"left_children":[1,3,5,7,-1,9,11,13,-1,15,17,19,21,-1,-1,-1,-1,-1,-1,-1,-1,-1,-1],"loss_changes":[8.976343E0,3.3042302E0,7.9081726E0,1.6368904E0,0E0,5.6468983E0,1.0496225E0,4.9100876E-2,0E0,2.586464E0,4.5168643E0,8.945465E-4,6.175889E-1,0E0,0E0,0E0,0E0,0E0,0E0,0E0,0E0,0E0,0E0],"parents":[2147483647,0,0,1,1,2,2,3,3,5,5,6,6,7,7,9,9,10,10,11,11,12,12],"right_children":[2,4,6,8,-1,10,12,14,-1,16,18,20,22,-1,-1,-1,-1,-1,-1,-1,-1,-1,-1],"split_conditions":[-5.570191E-1,3.0645235E0,3.0645235E0,2.3709261E0,3.7229871E-3,-9.7958535E-2,2.4272989E-1,-1.0160797E0,6.5186475E-3,1.829264E0,2.3709261E0,8.201626E-1,2.3709261E0,-2.103088E-3,-8.740147E-3,8.280602E-3,-4.8583555E-3,-7.4100407E-4,7.497346E-3,-1.4047768E-2,-6.4494438E-3,6.5466925E-4,-7.5331074E-3],"split_indices":[0,6,6,1,0,0,8,0,0,7,1,0,1,0,0,0,0,0,0,0,0,0,0],"split_type":[0,0,0,0,0,0,0,0,0,0,0,0,0,0,0,0,0,0,0,0,0,0,0],"sum_hessian":[1.87E2,3.7E1,1.5E2,3.1E1,6E0,1.36E2,1.4E1,3E1,1E0,4.8E1,8.8E1,7E0,7E0,1E0,2.9E1,4.5E1,3E0,7E1,1.8E1,4E0,3E0,4E0,3E0],"tree_param":{"num_deleted":"0","num_feature":"9","num_nodes":"23","size_leaf_vector":"1"}},{"base_weights":[-3.1509575E-2,-2.3686424E-1,5.56435E-1,-3.8850886E-1,3.0129388E-1,7.963419E-3,7.912667E-1,-3.0881548E-1,-2.078881E-2,-5.809178E-1,3.7947193E-1,9.723522E-2,-9.983351E-3,9.51492E-1,3.5518488E-1,-1.2611232E-2,-2.2404245E-3,-1.0983336E-2,-2.0873146E-3,8.469359E-3,-7.0941745E-4,7.4982294E-3,-1.4193839E-3,5.249139E-3,1.5741134E-2,1.0285039E-2,-1.131995E-2],"categories":[],"categories_nodes":[],"categories_segments":[],"categories_sizes":[],"default_left":[0,0,0,0,0,0,0,0,0,0,0,0,0,0,0,0,0,0,0,0,0,0,0,0,0,0,0],"id":15,"left_children":[1,3,5,7,9,11,13,15,-1,17,19,21,-1,23,25,-1,-1,-1,-1,-1,-1,-1,-1,-1,-1,-1,-1],"loss_changes":[2.3313334E1,1.1787109E1,6.433626E0,8.47456E0,2.4274685E0,1.0267373E0,2.1075401E0,8.7804E0,0E0,9.863067E-2,2.397203E0,1.2060837E0,0E0,1.1053162E0,4.5521126E0,0E0,0E0,0E0,0E0,0E0,0E0,0E0,0E0,0E0,0E0,0E0,0E0],"parents":[2147483647,0,0,1,1,2,2,3,3,4,4,5,5,6,6,7,7,9,9,10,10,11,11,13,13,14,14],"right_children":[2,4,6,8,10,12,14,16,-1,18,20,22,-1,24,26,-1,-1,-1,-1,-1,-1,-1,-1,-1,-1,-1,-1],"split_conditions":[5.653005E-1,9.418006E-1,4.5884453E-2,5.3151E-1,-1.27124E0,2.3709261E0,9.7529644E-1,-1.1158049E0,-2.078881E-2,-1.2930667E0,1.7090791E-1,9.260477E-1,-9.983351E-3,1.0874175E0,1.1863781E0,-1.2611232E-2,-2.2404245E-3,-1.0983336E-2,-2.0873146E-3,8.469359E-3,-7.0941745E-4,7.4982294E-3,-1.4193839E-3,5.249139E-3,1.5741134E-2,1.0285039E-2,-1.131995E-2],"split_indices":[3,4,4,4,3,1,4,4,0,3,3,3,0,3,3,0,0,0,0,0,0,0,0,0,0,0,0],"split_type":[0,0,0,0,0,0,0,0,0,0,0,0,0,0,0,0,0,0,0,0,0,0,0,0,0,0,0],"sum_hessian":[1.91E2,1.42E2,4.9E1,1.11E2,3.1E1,1.5E1,3.4E1,1.04E2,7E0,2E0,2.9E1,1.4E1,1E0,2.4E1,1E1,2.3E1,8.1E1,1E0,1E0,2E1,9E0,4E0,1E1,4E0,2E1,8E0,2E0],"tree_param":{"num_deleted":"0","num_feature":"9","num_nodes":"27","size_leaf_vector":"1"}},{"base_weights":[6.3747936E-3,-1.964666E-1,7.0874316E-1,-8.433591E-1,-7.084164E-2,-2.5877543E-2,8.876172E-1,-1.0063468E0,-5.7406825E-1,-1.4094061E-2,-3.9785568E-4,2.2145955E-1,-8.915574E-3,9.171783E-1,-4.375398E-4,-8.294595E-3,-1.973935E-2,-2.6232959E-3,-1.5271638E-2,-2.2199675E-3,5.1385006E-3,-3.0771575E-3,1.2879681E-2,7.896588E-3,1.4550594E-2],"categories":[],"categories_nodes":[],"categories_segments":[],"categories_sizes":[],"default_left":[0,0,0,0,0,0,0,0,0,0,0,0,0,0,0,0,0,0,0,0,0,0,0,0,0],"id":16,"left_children":[1,3,5,7,9,11,13,15,17,-1,19,21,-1,23,-1,-1,-1,-1,-1,-1,-1,-1,-1,-1,-1],"loss_changes":[2.6068668E1,1.1480003E1,5.410557E0,4.3178368E-1,7.343497E0,1.3971163E0,9.210949E-1,1.0971088E0,1.7717304E0,0E0,5.7203145E0,2.0789251E0,0E0,1.5029144E-1,0E0,0E0,0E0,0E0,0E0,0E0,0E0,0E0,0E0,0E0,0E0],"parents":[2147483647,0,0,1,1,2,2,3,3,4,4,5,5,6,6,7,7,8,8,10,10,11,11,13,13],"right_children":[2,4,6,8,10,12,14,16,18,-1,20,22,-1,24,-1,-1,-1,-1,-1,-1,-1,-1,-1,-1,-1],"split_conditions":[7.502448E-1,-1.2927505E0,-1.7449291E-2,-1.7564241E0,-1.220963E0,-7.361576E-2,2.0470865E0,-1.8695514E0,-1.6712861E0,-1.4094061E-2,9.418006E-1,-4.4161695E-1,-8.915574E-3,1.2984861E-1,-4.375398E-4,-8.294595E-3,-1.973935E-2,-2.6232959E-3,-1.5271638E-2,-2.2199675E-3,5.1385006E-3,-3.0771575E-3,1.2879681E-2,7.896588E-3,1.4550594E-2],"split_indices":[3,4,4,4,3,4,3,4,4,0,4,4,0,4,0,0,0,0,0,0,0,0,0,0,0],"split_type":[0,0,0,0,0,0,0,0,0,0,0,0,0,0,0,0,0,0,0,0,0,0,0,0,0],"sum_hessian":[1.81E2,1.41E2,4E1,2.2E1,1.19E2,8E0,3.2E1,1.2E1,1E1,8E0,1.11E2,6E0,2E0,3.1E1,1E0,6E0,6E0,6E0,4E0,7.8E1,3.3E1,4E0,2E0,5E0,2.6E1],"tree_param":{"num_deleted":"0","num_feature":"9","num_nodes":"25","size_leaf_vector":"1"}},{"base_weights":[-2.4029408E-2,-6.5390205E-1,2.3382781E-1,-9.765633E-1,-5.047615E-1,-3.0451006E-1,4.1634962E-1,-6.5883726E-1,-2.0944504E-2,-4.2090783E-1,-1.1332543E0,-1.9480022E-2,-2.017918E-1,1.6907085E-1,6.4576745E-1,-1.201706E-2,5.7312227E-3,-8.912071E-3,-1.5937578E-3,-2.113875E-2,-2.289503E-3,-1.166068E-3,-1.5761023E-2,4.5915945E-3,-1.045307E-2,2.0063391E-3,1.1998197E-2],"categories":[],"categories_nodes":[],"categories_segments":[],"categories_sizes":[],"default_left":[0,0,0,0,0,0,0,0,0,0,0,0,0,0,0,0,0,0,0,0,0,0,0,0,0,0,0],"id":17,"left_children":[1,3,5,7,9,11,13,15,-1,17,19,-1,21,23,25,-1,-1,-1,-1,-1,-1,-1,-1,-1,-1,-1,-1],"loss_changes":[3.0200083E1,2.10565E0,1.3096892E1,1.2138472E0,1.5783606E0,3.2099578E0,5.507105E0,1.9354501E0,0E0,1.8991666E0,8.674898E-1,0E0,3.2883897E0,6.027891E0,3.917284E0,0E0,0E0,0E0,0E0,0E0,0E0,0E0,0E0,0E0,0E0,0E0,0E0],"parents":[2147483647,0,0,1,1,2,2,3,3,4,4,5,5,6,6,7,7,9,9,10,10,12,12,13,13,14,14],"right_children":[2,4,6,8,10,12,14,16,-1,18,20,-1,22,24,26,-1,-1,-1,-1,-1,-1,-1,-1,-1,-1,-1,-1],"split_conditions":[-6.03693E-1,-1.7564241E0,-5.6048536E-1,-1.8695514E0,-6.278693E-1,2.4272989E-1,2.8555968E-1,-1.8885232E0,-2.0944504E-2,-6.8856853E-1,8.201626E-1,-1.9480022E-2,-6.109687E-1,2.5916928E-1,-5.570191E-1,-1.201706E-2,5.7312227E-3,-8.912071E-3,-1.5937578E-3,-2.113875E-2,-2.289503E-3,-1.166068E-3,-1.5761023E-2,4.5915945E-3,-1.045307E-2,2.0063391E-3,1.1998197E-2],"split_indices":[4,4,3,4,4,8,4,4,0,4,0,0,3,4,0,0,0,0,0,0,0,0,0,0,0,0,0],"split_type":[0,0,0,0,0,0,0,0,0,0,0,0,0,0,0,0,0,0,0,0,0,0,0,0,0,0,0],"sum_hessian":[1.84E2,5.3E1,1.31E2,1.5E1,3.8E1,3.3E1,9.8E1,1E1,5E0,3.5E1,3E0,2E0,3.1E1,4.8E1,5E1,9E0,1E0,2.2E1,1.3E1,2E0,1E0,2.8E1,3E0,4.2E1,6E0,1.2E1,3.8E1],"tree_param":{"num_deleted":"0","num_feature":"9","num_nodes":"27","size_leaf_vector":"1"}},{"base_weights":[-3.4787163E-2,-2.361418E-1,6.050512E-1,-4.0632993E-1,4.083086E-1,8.714383E-1,-6.607919E-2,-8.343676E-1,-2.7340385E-1,-1.0786509E-2,4.6985894E-1,-2.1187298E-1,9.48164E-1,5.655604E-1,-4.7983012E-1,-1.4594351E-2,-6.7362413E-3,-2.6377982E-3,-1.5543353E-2,9.9789305E-3,2.985336E-3,-5.735226E-3,9.680843E-4,-5.226716E-3,1.5044989E-2,1.1709287E-2,3.943143E-3,3.5483425E-3,-8.984218E-3],"categories":[],"categories_nodes":[],"categories_segments":[],"categories_sizes":[],"default_left":[0,0,0,0,0,0,0,0,0,0,0,0,0,0,0,0,0,0,0,0,0,0,0,0,0,0,0,0,0],"id":18,"left_children":[1,3,5,7,9,11,13,15,17,-1,19,21,23,25,27,-1,-1,-1,-1,-1,-1,-1,-1,-1,-1,-1,-1,-1,-1],"loss_changes":[2.4750254E1,1.6178867E1,8.2814865E0,6.371975E0,2.4890409E0,2.943777E0,3.9301531E0,1.0047646E0,6.514995E0,0E0,1.4552674E0,1.660407E-1,2.5535965E0,1.8536305E-1,9.096942E-1,0E0,0E0,0E0,0E0,0E0,0E0,0E0,0E0,0E0,0E0,0E0,0E0,0E0,0E0],"parents":[2147483647,0,0,1,1,2,2,3,3,4,4,5,5,6,6,7,7,8,8,10,10,11,11,12,12,13,13,14,14],"right_children":[2,4,6,8,10,12,14,16,18,-1,20,22,24,26,28,-1,-1,-1,-1,-1,-1,-1,-1,-1,-1,-1,-1,-1,-1],"split_conditions":[7.502448E-1,9.6780604E-1,-9.7958535E-2,-1.2927505E0,-1.2930667E0,-4.837498E-1,1.1009258E0,-9.7958535E-2,5.3151E-1,-1.0786509E-2,1.7090791E-1,9.2483366E-1,-1.0160797E0,6.732485E-2,2.4272989E-1,-1.4594351E-2,-6.7362413E-3,-2.6377982E-3,-1.5543353E-2,9.9789305E-3,2.985336E-3,-5.735226E-3,9.680843E-4,-5.226716E-3,1.5044989E-2,1.1709287E-2,3.943143E-3,3.5483425E-3,-8.984218E-3],"split_indices":[3,4,0,4,3,4,3,0,4,0,3,3,0,4,8,0,0,0,0,0,0,0,0,0,0,0,0,0,0],"split_type":[0,0,0,0,0,0,0,0,0,0,0,0,0,0,0,0,0,0,0,0,0,0,0,0,0,0,0,0,0],"sum_hessian":[1.9E2,1.45E2,4.5E1,1.15E2,3E1,3.2E1,1.3E1,2.6E1,8.9E1,1E0,2.9E1,2E0,3E1,5E0,8E0,1.8E1,8E0,8E1,9E0,1.6E1,1.3E1,1E0,1E0,1E0,2.9E1,2E0,3E0,1E0,7E0],"tree_param":{"num_deleted":"0","num_feature":"9","num_nodes":"29","size_leaf_vector":"1"}},{"base_weights":[-5.5534087E-2,-5.730962E-1,1.6020733E-1,-8.8075346E-1,-2.8664964E-1,-4.667426E-1,3.7169316E-1,-8.9916867E-1,-3.0146868E-3,4.1973495E-1,-4.386365E-1,-1.6398689E-1,-7.130639E-1,2.3985915E-1,8.7505174E-1,-5.501455E-3,-1.3923809E-2,1.0439857E-2,1.6141435E-3,-7.758316E-3,1.1444832E-2,-4.5681215E-4,-1.7253831E-2,-1.5011991E-2,1.1574462E-3,1.7593526E-3,7.14646E-3,3.607014E-3,1.4511846E-2],"categories":[],"categories_nodes":[],"categories_segments":[],"categories_sizes":[],"default_left":[0,0,0,0,0,0,0,0,0,0,0,0,0,0,0,0,0,0,0,0,0,0,0,0,0,0,0,0,0],"id":19,"left_children":[1,3,5,7,9,11,13,15,-1,17,19,21,23,25,27,-1,-1,-1,-1,-1,-1,-1,-1,-1,-1,-1,-1,-1,-1],"loss_changes":[2.1642113E1,4.770792E0,1.8338457E1,1.5727615E-1,3.5123072E0,2.4931984E0,6.625169E0,6.2166214E-2,0E0,4.4246292E-1,2.849793E0,2.2038555E0,4.397376E0,2.3508143E0,9.9876785E-1,0E0,0E0,0E0,0E0,0E0,0E0,0E0,0E0,0E0,0E0,0E0,0E0,0E0,0E0],"parents":[2147483647,0,0,1,1,2,2,3,3,4,4,5,5,6,6,7,7,9,9,10,10,11,11,12,12,13,13,14,14],"right_children":[2,4,6,8,10,12,14,16,-1,18,20,22,24,26,28,-1,-1,-1,-1,-1,-1,-1,-1,-1,-1,-1,-1,-1,-1],"split_conditions":[-5.478565E-1,-1.1158049E0,-5.6048536E-1,1.4211742E0,-7.9789746E-1,8.940969E-2,1.5760368E0,-1.2556007E0,-3.0146868E-3,-1.141858E0,9.133149E-2,6.8410525E0,9.418006E-1,9.9477905E-1,4.5884453E-2,-5.501455E-3,-1.3923809E-2,1.0439857E-2,1.6141435E-3,-7.758316E-3,1.1444832E-2,-4.5681215E-4,-1.7253831E-2,-1.5011991E-2,1.1574462E-3,1.7593526E-3,7.14646E-3,3.607014E-3,1.4511846E-2],"split_indices":[4,4,3,2,4,4,3,3,0,3,3,5,4,4,4,0,0,0,0,0,0,0,0,0,0,0,0,0,0],"split_type":[0,0,0,0,0,0,0,0,0,0,0,0,0,0,0,0,0,0,0,0,0,0,0,0,0,0,0,0,0],"sum_hessian":[1.92E2,5.6E1,1.36E2,2.6E1,3E1,3.4E1,1.02E2,2.5E1,1E0,5E0,2.5E1,1.6E1,1.8E1,8.2E1,2E1,2E0,2.3E1,2E0,3E0,2.4E1,1E0,1.5E1,1E0,1.3E1,5E0,5.5E1,2.7E1,3E0,1.7E1],"tree_param":{"num_deleted":"0","num_feature":"9","num_nodes":"29","size_leaf_vector":"1"}},{"base_weights":[1.6523965E-2,-4.1812575E-1,2.5631842E-1,-7.3215914E-1,-2.2305769E-1,2.4894062E-2,7.130643E-1,-7.623556E-1,1.7064392E-4,-8.996739E-2,-1.2431686E0,-7.3580354E-1,1.0360428E-1,8.893434E-1,2.5141528E-1,-1.3783096E-2,-8.20793E-3,8.389447E-3,-3.3148988E-3,-2.2731127E-2,-8.348086E-3,-1.2404641E-2,-7.319641E-4,2.951614E-3,-9.333159E-3,-2.2773985E-3,1.4537025E-2,-1.1925466E-2,7.709307E-3],"categories":[],"categories_nodes":[],"categories_segments":[],"categories_sizes":[],"default_left":[0,0,0,0,0,0,0,0,0,0,0,0,0,0,0,0,0,0,0,0,0,0,0,0,0,0,0,0,0],"id":20,"left_children":[1,3,5,7,9,11,13,15,-1,17,19,21,23,25,27,-1,-1,-1,-1,-1,-1,-1,-1,-1,-1,-1,-1,-1,-1],"loss_changes":[2.0222904E1,4.0634813E0,1.3195013E1,5.9242725E-1,5.8618965E0,5.105705E0,3.1943264E0,3.391056E-1,0E0,3.5264158E0,9.125662E-2,4.6073532E-1,5.3294964E0,2.6394405E0,3.980132E0,0E0,0E0,0E0,0E0,0E0,0E0,0E0,0E0,0E0,0E0,0E0,0E0,0E0,0E0],"parents":[2147483647,0,0,1,1,2,2,3,3,4,4,5,5,6,6,7,7,9,9,10,10,11,11,12,12,13,13,14,14],"right_children":[2,4,6,8,10,12,14,16,-1,18,20,22,24,26,28,-1,-1,-1,-1,-1,-1,-1,-1,-1,-1,-1,-1,-1,-1],"split_conditions":[-3.668263E-1,-1.1158049E0,6.252615E-1,8.201626E-1,-4.6974957E-1,-1.220963E0,-9.7958535E-2,-1.7564241E0,1.7064392E-4,-7.9267526E-1,-2.3247597E-1,-9.7958535E-2,3.6293104E-1,-5.570191E-1,8.201626E-1,-1.3783096E-2,-8.20793E-3,8.389447E-3,-3.3148988E-3,-2.2731127E-2,-8.348086E-3,-1.2404641E-2,-7.319641E-4,2.951614E-3,-9.333159E-3,-2.2773985E-3,1.4537025E-2,-1.1925466E-2,7.709307E-3],"split_indices":[4,4,3,0,4,3,0,4,0,4,3,0,3,0,0,0,0,0,0,0,0,0,0,0,0,0,0,0,0],"split_type":[0,0,0,0,0,0,0,0,0,0,0,0,0,0,0,0,0,0,0,0,0,0,0,0,0,0,0,0,0],"sum_hessian":[1.92E2,6.8E1,1.24E2,2.5E1,4.3E1,8.3E1,4.1E1,2.4E1,1E0,3.9E1,4E0,7E0,7.6E1,2.9E1,1.2E1,1.2E1,1.2E1,6E0,3.3E1,2E0,2E0,6E0,1E0,6.8E1,8E0,2E0,2.7E1,2E0,1E1],"tree_param":{"num_deleted":"0","num_feature":"9","num_nodes":"29","size_leaf_vector":"1"}},{"base_weights":[-3.9850496E-2,-2.4634172E-1,5.184728E-1,-3.328975E-1,4.182232E-1,7.280378E-1,1.3823323E-1,-1.5484993E-2,-2.5992763E-1,5.831351E-1,-4.9077365E-1,-1.4698453E-1,8.5829043E-1,-5.438389E-1,4.9486953E-1,-3.0797087E-3,-1.7585197E-2,3.6471628E-3,9.293075E-3,-1.2332839E-2,1.2904322E-3,1.9698662E-3,-9.451652E-3,-5.1836306E-3,1.37351565E-2,1.7009794E-3,-1.2441206E-2,1.0681121E-2,7.389271E-5],"categories":[],"categories_nodes":[],"categories_segments":[],"categories_sizes":[],"default_left":[0,0,0,0,0,0,0,0,0,0,0,0,0,0,0,0,0,0,0,0,0,0,0,0,0,0,0,0,0],"id":21,"left_children":[1,3,5,7,9,11,13,-1,15,17,19,21,23,25,27,-1,-1,-1,-1,-1,-1,-1,-1,-1,-1,-1,-1,-1,-1],"loss_changes":[2.1340872E1,7.904688E0,3.883607E0,5.8561945E0,2.684658E0,3.7733212E0,4.890912E0,0E0,5.240666E0,2.2637367E-2,6.442159E-1,7.550397E-1,2.2508392E0,1.4078877E0,1.3799295E0,0E0,0E0,0E0,0E0,0E0,0E0,0E0,0E0,0E0,0E0,0E0,0E0,0E0,0E0],"parents":[2147483647,0,0,1,1,2,2,3,3,4,4,5,5,6,6,8,8,9,9,10,10,11,11,12,12,13,13,14,14],"right_children":[2,4,6,8,10,12,14,-1,16,18,20,22,24,26,28,-1,-1,-1,-1,-1,-1,-1,-1,-1,-1,-1,-1,-1,-1],"split_conditions":[6.252615E-1,2.3709261E0,-9.7958535E-2,-1.220963E0,3.0645235E0,9.2483366E-1,8.201626E-1,-1.5484993E-2,6.8410525E0,-1.05678E0,-9.7958535E-2,2.3709261E0,-1.0160797E0,8.0846995E-1,1.2741293E0,-3.0797087E-3,-1.7585197E-2,3.6471628E-3,9.293075E-3,-1.2332839E-2,1.2904322E-3,1.9698662E-3,-9.451652E-3,-5.1836306E-3,1.37351565E-2,1.7009794E-3,-1.2441206E-2,1.0681121E-2,7.389271E-5],"split_indices":[3,1,0,3,6,3,0,0,5,3,0,1,0,3,3,0,0,0,0,0,0,0,0,0,0,0,0,0,0],"split_type":[0,0,0,0,0,0,0,0,0,0,0,0,0,0,0,0,0,0,0,0,0,0,0,0,0,0,0,0,0],"sum_hessian":[1.83E2,1.34E2,4.9E1,1.19E2,1.5E1,3.1E1,1.8E1,1E1,1.09E2,1.3E1,2E0,4E0,2.7E1,6E0,1.2E1,1.04E2,5E0,2E0,1.1E1,1E0,1E0,3E0,1E0,1E0,2.6E1,2E0,4E0,8E0,4E0],"tree_param":{"num_deleted":"0","num_feature":"9","num_nodes":"29","size_leaf_vector":"1"}},{"base_weights":[1.0909607E-2,-4.6404436E-1,2.631437E-1,-8.7687945E-1,-2.4753891E-1,-1.8316862E-1,3.474901E-1,-1.3493136E-2,-2.8372067E-3,6.2554E-1,-3.69269E-1,-6.612788E-1,2.3052059E-1,5.7180417E-1,1.5850879E-1,1.3072332E-2,1.3364231E-3,-4.113529E-3,-1.4979973E-2,2.0967317E-3,-1.31852515E-2,5.7046174E-4,9.089887E-3,2.4911712E-3,1.1732343E-2,-2.310726E-3,4.6066446E-3],"categories":[],"categories_nodes":[],"categories_segments":[],"categories_sizes":[],"default_left":[0,0,0,0,0,0,0,0,0,0,0,0,0,0,0,0,0,0,0,0,0,0,0,0,0,0,0],"id":22,"left_children":[1,3,5,7,9,11,13,-1,-1,15,17,19,21,23,25,-1,-1,-1,-1,-1,-1,-1,-1,-1,-1,-1,-1],"loss_changes":[2.3483028E1,5.8608503E0,4.8821898E0,1.8833351E-1,5.1198726E0,4.306008E0,4.48761E0,0E0,0E0,7.139833E-1,2.1784983E0,1.8670845E0,8.4424776E-1,4.052021E0,2.834086E0,0E0,0E0,0E0,0E0,0E0,0E0,0E0,0E0,0E0,0E0,0E0,0E0],"parents":[2147483647,0,0,1,1,2,2,3,3,4,4,5,5,6,6,9,9,10,10,11,11,12,12,13,13,14,14],"right_children":[2,4,6,8,10,12,14,-1,-1,16,18,20,22,24,26,-1,-1,-1,-1,-1,-1,-1,-1,-1,-1,-1,-1],"split_conditions":[-3.668263E-1,-1.1158049E0,-5.570191E-1,1.4211742E0,-7.9267526E-1,9.6780604E-1,-9.7958535E-2,-1.3493136E-2,-2.8372067E-3,2.1973443E0,-4.837498E-1,3.592416E-2,1.0451566E0,2.8555968E-1,8.201626E-1,1.3072332E-2,1.3364231E-3,-4.113529E-3,-1.4979973E-2,2.0967317E-3,-1.31852515E-2,5.7046174E-4,9.089887E-3,2.4911712E-3,1.1732343E-2,-2.310726E-3,4.6066446E-3],"split_indices":[4,4,0,2,4,4,0,0,0,0,4,4,4,4,0,0,0,0,0,0,0,0,0,0,0,0,0],"split_type":[0,0,0,0,0,0,0,0,0,0,0,0,0,0,0,0,0,0,0,0,0,0,0,0,0,0,0],"sum_hessian":[1.94E2,6.7E1,1.27E2,2.2E1,4.5E1,2E1,1.07E2,2.1E1,1E0,5E0,4E1,9E0,1.1E1,4.8E1,5.9E1,3E0,2E0,3.6E1,4E0,2E0,7E0,8E0,3E0,1.7E1,3.1E1,1.9E1,4E1],"tree_param":{"num_deleted":"0","num_feature":"9","num_nodes":"27","size_leaf_vector":"1"}},{"base_weights":[-3.457836E-3,-1.936002E-1,5.670398E-1,-7.9964674E-1,-7.473957E-2,6.0281336E-2,7.483614E-1,-1.2526725E-2,1.2094438E-4,-1.8455863E-1,2.6067114E-1,-9.279567E-3,1.6009341E-1,8.8976234E-1,2.917427E-1,-1.67291E-3,-1.8556448E-2,5.256683E-3,-1.8244207E-2,8.9911E-3,-4.746185E-4,1.4338013E-2,4.060363E-3,9.680644E-3,-1.1227914E-2],"categories":[],"categories_nodes":[],"categories_segments":[],"categories_sizes":[],"default_left":[0,0,0,0,0,0,0,0,0,0,0,0,0,0,0,0,0,0,0,0,0,0,0,0,0],"id":23,"left_children":[1,3,5,7,9,11,13,-1,-1,15,17,-1,19,21,23,-1,-1,-1,-1,-1,-1,-1,-1,-1,-1],"loss_changes":[2.1262552E1,1.0529388E1,4.4573145E0,6.942892E-1,4.6155863E0,1.0477403E0,2.064804E0,0E0,0E0,7.0876417E0,4.536606E0,0E0,1.1139764E0,8.4619904E-1,4.161827E0,0E0,0E0,0E0,0E0,0E0,0E0,0E0,0E0,0E0,0E0],"parents":[2147483647,0,0,1,1,2,2,3,3,4,4,5,5,6,6,9,9,10,10,12,12,13,13,14,14],"right_children":[2,4,6,8,10,12,14,-1,-1,16,18,-1,20,22,24,-1,-1,-1,-1,-1,-1,-1,-1,-1,-1],"split_conditions":[6.1838734E-1,-1.1158049E0,4.5884453E-2,3.7298021E0,9.418006E-1,7.176679E-1,9.685981E-1,-1.2526725E-2,1.2094438E-4,8.5421354E-1,6.030647E-1,-9.279567E-3,9.260477E-1,-9.7958535E-2,9.456429E-1,-1.67291E-3,-1.8556448E-2,5.256683E-3,-1.8244207E-2,8.9911E-3,-4.746185E-4,1.4338013E-2,4.060363E-3,9.680644E-3,-1.1227914E-2],"split_indices":[3,4,4,1,4,3,4,0,0,4,3,0,3,0,3,0,0,0,0,0,0,0,0,0,0],"split_type":[0,0,0,0,0,0,0,0,0,0,0,0,0,0,0,0,0,0,0,0,0,0,0,0,0],"sum_hessian":[1.94E2,1.46E2,4.8E1,2.3E1,1.23E2,1.3E1,3.5E1,2.2E1,1E0,9.3E1,3E1,1E0,1.2E1,2.6E1,9E0,8.8E1,5E0,2.9E1,1E0,3E0,9E0,2.3E1,3E0,7E0,2E0],"tree_param":{"num_deleted":"0","num_feature":"9","num_nodes":"25","size_leaf_vector":"1"}},{"base_weights":[1.5793536E-2,-3.455983E-1,3.5931525E-1,-2.900465E-1,-2.3469979E-2,-1.115419E0,4.6310508E-1,-7.1609104E-1,-1.8668486E-1,-1.9265823E-2,-6.929964E-3,3.3507186E-1,8.332434E-1,-1.1205022E-2,-1.4296012E-3,-1.2904328E-2,-1.9193755E-3,5.921858E-3,-1.2095219E-3,1.3892259E-2,-1.8873549E-3],"categories":[],"categories_nodes":[],"categories_segments":[],"categories_sizes":[],"default_left":[0,0,0,0,0,0,0,0,0,0,0,0,0,0,0,0,0,0,0,0,0],"id":24,"left_children":[1,3,5,7,-1,9,11,13,15,-1,-1,17,19,-1,-1,-1,-1,-1,-1,-1,-1],"loss_changes":[2.4705074E1,6.1151457E0,1.6128925E1,4.005763E0,0E0,1.7947197E-1,4.2702465E0,2.7420235E-1,2.9359148E0,0E0,0E0,1.8440914E0,2.2550316E0,0E0,0E0,0E0,0E0,0E0,0E0,0E0,0E0],"parents":[2147483647,0,0,1,1,2,2,3,3,5,5,6,6,7,7,8,8,11,11,12,12],"right_children":[2,4,6,8,-1,10,12,14,16,-1,-1,18,20,-1,-1,-1,-1,-1,-1,-1,-1],"split_conditions":[-2.3139462E-1,-2.553839E-1,-7.713749E-1,-1.1158049E0,-2.3469979E-2,7.176679E-1,1.5760368E0,2.3709261E0,-1.3128322E0,-1.9265823E-2,-6.929964E-3,1.1009258E0,2.1973443E0,-1.1205022E-2,-1.4296012E-3,-1.2904328E-2,-1.9193755E-3,5.921858E-3,-1.2095219E-3,1.3892259E-2,-1.8873549E-3],"split_indices":[3,3,4,4,0,3,3,1,3,0,0,3,0,0,0,0,0,0,0,0,0],"split_type":[0,0,0,0,0,0,0,0,0,0,0,0,0,0,0,0,0,0,0,0,0],"sum_hessian":[1.97E2,9.6E1,1.01E2,9.3E1,3E0,6E0,9.5E1,1.7E1,7.6E1,4E0,2E0,7.2E1,2.3E1,1.6E1,1E0,5E0,7.1E1,6.3E1,9E0,2.1E1,2E0],"tree_param":{"num_deleted":"0","num_feature":"9","num_nodes":"21","size_leaf_vector":"1"}},{"base_weights":[8.585841E-3,-1.9553304E-1,5.242938E-1,-8.3970433E-1,-9.888863E-2,-3.4487745E-1,6.5823287E-1,-9.385835E-1,6.309303E-3,-1.8885767E-1,4.3142462E-1,-9.678237E-3,-3.5631277E-2,7.4491614E-1,2.9894236E-1,-1.5486368E-2,-5.632404E-3,-1.4238284E-2,-2.1202113E-3,1.7424345E-5,8.3141085E-3,4.4811005E-3,-1.0298373E-2,5.439777E-3,1.3308328E-2,9.18179E-3,-1.1103542E-2],"categories":[],"categories_nodes":[],"categories_segments":[],"categories_sizes":[],"default_left":[0,0,0,0,0,0,0,0,0,0,0,0,0,0,0,0,0,0,0,0,0,0,0,0,0,0,0],"id":25,"left_children":[1,3,5,7,9,11,13,15,-1,17,19,-1,21,23,25,-1,-1,-1,-1,-1,-1,-1,-1,-1,-1,-1,-1],"loss_changes":[2.0418802E1,8.570484E0,6.6298895E0,2.6379433E0,5.902314E0,7.2003794E-1,1.2722473E0,5.106287E-1,0E0,3.658951E0,9.5079136E-1,0E0,1.293359E0,1.745388E0,4.0330276E0,0E0,0E0,0E0,0E0,0E0,0E0,0E0,0E0,0E0,0E0,0E0,0E0],"parents":[2147483647,0,0,1,1,2,2,3,3,4,4,5,5,6,6,7,7,9,9,10,10,12,12,13,13,14,14],"right_children":[2,4,6,8,10,12,14,16,-1,18,20,-1,22,24,26,-1,-1,-1,-1,-1,-1,-1,-1,-1,-1,-1,-1],"split_conditions":[6.252615E-1,-1.1158049E0,-4.4161695E-1,-2.3139462E-1,2.3709261E0,-1.5940078E0,9.7529644E-1,3.0645235E0,6.309303E-3,-1.3128322E0,-2.7689373E-1,-9.678237E-3,-4.8279783E-1,1.2984861E-1,1.1863781E0,-1.5486368E-2,-5.632404E-3,-1.4238284E-2,-2.1202113E-3,1.7424345E-5,8.3141085E-3,4.4811005E-3,-1.0298373E-2,5.439777E-3,1.3308328E-2,9.18179E-3,-1.1103542E-2],"split_indices":[3,4,4,3,1,4,4,6,0,3,4,0,4,4,3,0,0,0,0,0,0,0,0,0,0,0,0],"split_type":[0,0,0,0,0,0,0,0,0,0,0,0,0,0,0,0,0,0,0,0,0,0,0,0,0,0,0],"sum_hessian":[1.92E2,1.38E2,5.4E1,1.7E1,1.21E2,7E0,4.7E1,1.6E1,1E0,1.04E2,1.7E1,3E0,4E0,3.7E1,1E1,1.3E1,3E0,5E0,9.9E1,4E0,1.3E1,3E0,1E0,1.1E1,2.6E1,8E0,2E0],"tree_param":{"num_deleted":"0","num_feature":"9","num_nodes":"27","size_leaf_vector":"1"}},{"base_weights":[3.2344956E-2,-1.8835868E-1,5.5199736E-1,-9.471574E-1,-1.2513635E-1,3.876033E-1,8.2852644E-1,-1.8449663E-3,-1.0250642E0,-1.0740772E0,-8.4213324E-2,4.289054E-1,-3.3518348E-3,1.3139298E-2,-5.44374E-4,-7.878047E-3,-1.7811913E-2,-4.036955E-3,-1.8120471E-2,-3.022951E-3,1.8050796E-3,-4.9724746E-3,6.9153025E-3],"categories":[],"categories_nodes":[],"categories_segments":[],"categories_sizes":[],"default_left":[0,0,0,0,0,0,0,0,0,0,0,0,0,0,0,0,0,0,0,0,0,0,0],"id":26,"left_children":[1,3,5,7,9,11,13,-1,15,17,19,21,-1,-1,-1,-1,-1,-1,-1,-1,-1,-1,-1],"loss_changes":[2.1550848E1,6.213915E0,2.2246037E0,5.15996E-1,4.6860733E0,1.0296483E0,8.521023E-1,0E0,1.0692406E-1,2.1401167E-1,2.8799393E0,1.007534E0,0E0,0E0,0E0,0E0,0E0,0E0,0E0,0E0,0E0,0E0,0E0],"parents":[2147483647,0,0,1,1,2,2,3,3,4,4,5,5,6,6,8,8,9,9,10,10,11,11],"right_children":[2,4,6,8,10,12,14,-1,16,18,20,22,-1,-1,-1,-1,-1,-1,-1,-1,-1,-1,-1],"split_conditions":[5.653005E-1,-1.249533E0,2.0463307E0,-1.0160797E0,-2.0777678E0,1.8401681E0,2.1973443E0,-1.8449663E-3,-1.3413532E0,-9.7958535E-2,-2.3247597E-1,-1.0160797E0,-3.3518348E-3,1.3139298E-2,-5.44374E-4,-7.878047E-3,-1.7811913E-2,-4.036955E-3,-1.8120471E-2,-3.022951E-3,1.8050796E-3,-4.9724746E-3,6.9153025E-3],"split_indices":[3,3,3,0,8,3,0,0,3,0,3,0,0,0,0,0,0,0,0,0,0,0,0],"split_type":[0,0,0,0,0,0,0,0,0,0,0,0,0,0,0,0,0,0,0,0,0,0,0],"sum_hessian":[1.86E2,1.31E2,5.5E1,9E0,1.22E2,3.6E1,1.9E1,1E0,8E0,4E0,1.18E2,3.4E1,2E0,1.8E1,1E0,3E0,5E0,1E0,3E0,7.5E1,4.3E1,1E0,3.3E1],"tree_param":{"num_deleted":"0","num_feature":"9","num_nodes":"23","size_leaf_vector":"1"}},{"base_weights":[-4.189782E-2,-4.526987E-1,1.8134218E-1,-7.4830157E-1,-2.7184597E-1,-2.104973E-1,2.683498E-1,-7.96999E-1,-1.0928861E-1,5.851088E-1,-3.6972228E-1,-5.654855E-1,2.6044193E-1,5.275457E-1,7.5895496E-2,-1.460608E-2,-8.086715E-3,-2.6626682E-3,2.0367443E-4,1.3165401E-2,1.4623188E-3,-4.1842894E-3,-1.2790795E-2,8.428801E-3,-1.0431504E-2,1.1533088E-2,9.304058E-4,9.136702E-3,-3.7022838E-3,-5.273167E-3,4.5510363E-3],"categories":[],"categories_nodes":[],"categories_segments":[],"categories_sizes":[],"default_left":[0,0,0,0,0,0,0,0,0,0,0,0,0,0,0,0,0,0,0,0,0,0,0,0,0,0,0,0,0,0,0],"id":27,"left_children":[1,3,5,7,9,11,13,15,17,19,21,23,25,27,29,-1,-1,-1,-1,-1,-1,-1,-1,-1,-1,-1,-1,-1,-1,-1,-1],"loss_changes":[1.8240118E1,3.5388193E0,4.4544864E0,7.219715E-1,3.9907277E0,4.1595445E0,5.247598E0,5.689268E-1,2.7557194E-2,6.277876E-1,1.5596333E0,2.4418373E0,1.0619915E0,2.9926844E0,6.135884E0,0E0,0E0,0E0,0E0,0E0,0E0,0E0,0E0,0E0,0E0,0E0,0E0,0E0,0E0,0E0,0E0],"parents":[2147483647,0,0,1,1,2,2,3,3,4,4,5,5,6,6,7,7,8,8,9,9,10,10,11,11,12,12,13,13,14,14],"right_children":[2,4,6,8,10,12,14,16,18,20,22,24,26,28,30,-1,-1,-1,-1,-1,-1,-1,-1,-1,-1,-1,-1,-1,-1,-1,-1],"split_conditions":[-3.668263E-1,-1.1158049E0,-5.570191E-1,1.4211742E0,-7.9267526E-1,9.9477905E-1,-9.7958535E-2,-1.7564241E0,8.201626E-1,2.1973443E0,-4.6974957E-1,3.592416E-2,-1.3160174E0,1.829264E0,8.201626E-1,-1.460608E-2,-8.086715E-3,-2.6626682E-3,2.0367443E-4,1.3165401E-2,1.4623188E-3,-4.1842894E-3,-1.2790795E-2,8.428801E-3,-1.0431504E-2,1.1533088E-2,9.304058E-4,9.136702E-3,-3.7022838E-3,-5.273167E-3,4.5510363E-3],"split_indices":[4,4,0,2,4,4,0,4,0,0,4,4,7,7,0,0,0,0,0,0,0,0,0,0,0,0,0,0,0,0,0],"split_type":[0,0,0,0,0,0,0,0,0,0,0,0,0,0,0,0,0,0,0,0,0,0,0,0,0,0,0,0,0,0,0],"sum_hessian":[1.97E2,6.9E1,1.28E2,2.5E1,4.4E1,2.3E1,1.05E2,2.3E1,2E0,4E0,4E1,1.3E1,1E1,4.4E1,6.1E1,1.2E1,1.1E1,1E0,1E0,2E0,2E0,3.5E1,5E0,1E0,1.2E1,2E0,8E0,4E1,4E0,2.1E1,4E1],"tree_param":{"num_deleted":"0","num_feature":"9","num_nodes":"31","size_leaf_vector":"1"}},{"base_weights":[6.676936E-2,-6.167629E-1,2.13436E-1,-8.7535244E-1,-3.382748E-1,-8.2500535E-1,2.6703927E-1,-3.1148463E-1,-9.739324E-1,-1.5728764E-2,-1.8394959E-1,-4.8499054E-1,-1.5656589E-2,1.7800882E-1,7.8099006E-1,-6.8176435E-3,8.819264E-4,-4.4234097E-3,-1.5937965E-2,8.767874E-3,-6.0937996E-3,-8.954446E-3,-2.7825416E-4,1.6071163E-3,8.795799E-3,1.3178673E-2,-1.9489074E-3],"categories":[],"categories_nodes":[],"categories_segments":[],"categories_sizes":[],"default_left":[0,0,0,0,0,0,0,0,0,0,0,0,0,0,0,0,0,0,0,0,0,0,0,0,0,0,0],"id":28,"left_children":[1,3,5,7,9,11,13,15,17,-1,19,21,-1,23,25,-1,-1,-1,-1,-1,-1,-1,-1,-1,-1,-1,-1],"loss_changes":[1.9279652E1,2.1523714E0,9.0152E0,6.4159775E-1,1.7802496E0,8.885288E-2,6.7703238E0,2.3855987E-1,5.289316E-1,0E0,2.970821E0,2.5006855E-1,0E0,3.6994796E0,2.0698347E0,0E0,0E0,0E0,0E0,0E0,0E0,0E0,0E0,0E0,0E0,0E0,0E0],"parents":[2147483647,0,0,1,1,2,2,3,3,4,4,5,5,6,6,7,7,8,8,10,10,11,11,13,13,14,14],"right_children":[2,4,6,8,10,12,14,16,18,-1,20,22,-1,24,26,-1,-1,-1,-1,-1,-1,-1,-1,-1,-1,-1,-1],"split_conditions":[-7.155398E-1,-9.7958535E-2,-1.220963E0,-1.9202256E0,-1.3128322E0,8.5421354E-1,1.5760368E0,3.0645235E0,-1.2556007E0,-1.5728764E-2,-1.1053536E0,-9.7958535E-2,-1.5656589E-2,2.7173042E-1,2.1973443E0,-6.8176435E-3,8.819264E-4,-4.4234097E-3,-1.5937965E-2,8.767874E-3,-6.0937996E-3,-8.954446E-3,-2.7825416E-4,1.6071163E-3,8.795799E-3,1.3178673E-2,-1.9489074E-3],"split_indices":[4,0,3,4,3,4,3,6,3,0,3,0,0,2,0,0,0,0,0,0,0,0,0,0,0,0,0],"split_type":[0,0,0,0,0,0,0,0,0,0,0,0,0,0,0,0,0,0,0,0,0,0,0,0,0,0,0],"sum_hessian":[1.9E2,3.3E1,1.57E2,1.6E1,1.7E1,7E0,1.5E2,3E0,1.3E1,2E0,1.5E1,4E0,3E0,1.29E2,2.1E1,2E0,1E0,2E0,1.1E1,3E0,1.2E1,3E0,1E0,1.11E2,1.8E1,1.9E1,2E0],"tree_param":{"num_deleted":"0","num_feature":"9","num_nodes":"27","size_leaf_vector":"1"}},{"base_weights":[2.552799E-2,-7.331459E-1,1.4310654E-1,-1.3789622E-2,-3.2473916E-1,3.0696845E-1,-2.0519514E-2,6.4036935E-3,-4.5569083E-1,-9.566098E-2,5.0993246E-1,-1.04961954E-1,3.9743116E-1,-1.0219571E-2,-2.084081E-3,-7.6967846E-3,8.599289E-3,-1.0325187E-2,8.4753E-3,-9.794326E-4,-1.532954E-2,7.995844E-6,8.1256395E-3],"categories":[],"categories_nodes":[],"categories_segments":[],"categories_sizes":[],"default_left":[0,0,0,0,0,0,0,0,0,0,0,0,0,0,0,0,0,0,0,0,0,0,0],"id":29,"left_children":[1,3,5,-1,7,9,11,-1,13,15,17,19,21,-1,-1,-1,-1,-1,-1,-1,-1,-1,-1],"loss_changes":[1.7945673E1,1.7542725E0,4.6715994E0,0E0,1.1788412E0,7.1583595E0,3.1474795E0,0E0,5.4851365E-1,8.671882E0,4.2175198E0,2.624977E0,8.5866714E-1,0E0,0E0,0E0,0E0,0E0,0E0,0E0,0E0,0E0,0E0],"parents":[2147483647,0,0,1,1,2,2,4,4,5,5,6,6,8,8,9,9,10,10,11,11,12,12],"right_children":[2,4,6,-1,8,10,12,-1,14,16,18,20,22,-1,-1,-1,-1,-1,-1,-1,-1,-1,-1],"split_conditions":[-1.1158049E0,-9.7958535E-2,-9.7958535E-2,-1.3789622E-2,2.4272989E-1,-5.570191E-1,2.3709261E0,6.4036935E-3,-1.6952987E0,9.9477905E-1,2.4272989E-1,6.8410525E0,-2.7689373E-1,-1.0219571E-2,-2.084081E-3,-7.6967846E-3,8.599289E-3,-1.0325187E-2,8.4753E-3,-9.794326E-4,-1.532954E-2,7.995844E-6,8.1256395E-3],"split_indices":[4,0,0,0,8,0,1,0,4,4,8,5,4,0,0,0,0,0,0,0,0,0,0],"split_type":[0,0,0,0,0,0,0,0,0,0,0,0,0,0,0,0,0,0,0,0,0,0,0],"sum_hessian":[1.99E2,2.6E1,1.73E2,1.7E1,9E0,8.6E1,8.7E1,1E0,8E0,2.9E1,5.7E1,7.3E1,1.4E1,4E0,4E0,1.8E1,1.1E1,2E0,5.5E1,7.1E1,2E0,4E0,1E1],"tree_param":{"num_deleted":"0","num_feature":"9","num_nodes":"23","size_leaf_vector":"1"}},{"base_weights":[-2.0971631E-3,-8.2008414E-2,7.7937376E-1,-1.0505203E0,-5.3377204E-2,1.2443285E-2,-5.524617E-4,-4.009818E-3,-1.7692348E-2,-1.9643934E-1,1.1359975E-1,-2.0307184E-3,-2.2817058E-2,-5.6188664E-4,5.932132E-3],"categories":[],"categories_nodes":[],"categories_segments":[],"categories_sizes":[],"default_left":[0,0,0,0,0,0,0,0,0,0,0,0,0,0,0],"id":30,"left_children":[1,3,5,7,9,-1,-1,-1,-1,11,13,-1,-1,-1,-1],"loss_changes":[1.2116442E1,4.824348E0,7.677603E-1,1.8974113E-1,4.131065E0,0E0,0E0,0E0,0E0,7.316237E0,3.4212E0,0E0,0E0,0E0,0E0],"parents":[2147483647,0,0,1,1,2,2,3,3,4,4,9,9,10,10],"right_children":[2,4,6,8,10,-1,-1,-1,-1,12,14,-1,-1,-1,-1],"split_conditions":[2.0463307E0,-2.0777678E0,2.1973443E0,-9.7958535E-2,-2.3139462E-1,1.2443285E-2,-5.524617E-4,-4.009818E-3,-1.7692348E-2,-2.553839E-1,8.201626E-1,-2.0307184E-3,-2.2817058E-2,-5.6188664E-4,5.932132E-3],"split_indices":[3,8,0,0,3,0,0,0,0,3,0,0,0,0,0],"split_type":[0,0,0,0,0,0,0,0,0,0,0,0,0,0,0],"sum_hessian":[1.92E2,1.75E2,1.7E1,4E0,1.71E2,1.6E1,1E0,1E0,3E0,9.2E1,7.9E1,8.9E1,3E0,5.2E1,2.7E1],"tree_param":{"num_deleted":"0","num_feature":"9","num_nodes":"15","size_leaf_vector":"1"}},{"base_weights":[1.5851277E-3,-7.15053E-1,1.4318676E-1,-8.931246E-1,-3.2900068E-1,-1.8573962E-1,3.8247117E-1,-9.374321E-1,2.8000653E-4,4.1486764E-1,-7.527933E-1,-1.3059491E-1,-2.0882323E-2,2.6999822E-1,7.53629E-1,-1.6610298E-2,-1.023435E-2,1.1223998E-2,-8.523071E-4,-1.3512913E-2,2.1275997E-3,-2.8914397E-3,1.0555573E-2,4.427426E-3,-6.610528E-3,1.2726857E-2,-1.9465231E-3],"categories":[],"categories_nodes":[],"categories_segments":[],"categories_sizes":[],"default_left":[0,0,0,0,0,0,0,0,0,0,0,0,0,0,0,0,0,0,0,0,0,0,0,0,0,0,0],"id":31,"left_children":[1,3,5,7,9,11,13,15,-1,17,19,21,-1,23,25,-1,-1,-1,-1,-1,-1,-1,-1,-1,-1,-1,-1],"loss_changes":[2.0296335E1,1.9747429E0,1.3215102E1,9.062824E-1,4.0952606E0,4.541639E0,3.845807E0,1.5489769E-1,0E0,8.2881844E-1,1.1875072E0,3.7144399E0,0E0,1.4892416E0,1.953063E0,0E0,0E0,0E0,0E0,0E0,0E0,0E0,0E0,0E0,0E0,0E0,0E0],"parents":[2147483647,0,0,1,1,2,2,3,3,4,4,5,5,6,6,7,7,9,9,10,10,11,11,13,13,14,14],"right_children":[2,4,6,8,10,12,14,16,-1,18,20,22,-1,24,26,-1,-1,-1,-1,-1,-1,-1,-1,-1,-1,-1,-1],"split_conditions":[-7.155398E-1,-1.1158049E0,-2.3247597E-1,3.7298021E0,-7.9267526E-1,-2.553839E-1,1.5760368E0,-1.7564241E0,2.8000653E-4,8.201626E-1,2.1973443E0,2.3709261E0,-2.0882323E-2,1.4280609E0,2.1973443E0,-1.6610298E-2,-1.023435E-2,1.1223998E-2,-8.523071E-4,-1.3512913E-2,2.1275997E-3,-2.8914397E-3,1.0555573E-2,4.427426E-3,-6.610528E-3,1.2726857E-2,-1.9465231E-3],"split_indices":[4,4,3,1,4,3,3,4,0,0,0,1,0,3,0,0,0,0,0,0,0,0,0,0,0,0,0],"split_type":[0,0,0,0,0,0,0,0,0,0,0,0,0,0,0,0,0,0,0,0,0,0,0,0,0,0,0],"sum_hessian":[1.98E2,3.2E1,1.66E2,2.1E1,1.1E1,7E1,9.6E1,2E1,1E0,4E0,7E0,6.8E1,2E0,7.5E1,2.1E1,1E1,1E1,2E0,2E0,6E0,1E0,6.4E1,4E0,7.3E1,2E0,1.9E1,2E0],"tree_param":{"num_deleted":"0","num_feature":"9","num_nodes":"27","size_leaf_vector":"1"}},{"base_weights":[-5.3316552E-2,-2.6568744E-1,4.7664943E-1,-3.902591E-1,2.1169172E-1,-8.055999E-3,5.4546124E-1,-3.4222725E-1,-1.981314E-2,3.0745772E-1,-1.8523168E-2,5.8613646E-1,-3.1427917E-1,-1.0936545E-2,-3.2789414E-3,-7.991485E-3,5.888719E-3,6.5539693E-3,1.1570631E-2,-1.0210769E-2,3.139488E-3],"categories":[],"categories_nodes":[],"categories_segments":[],"categories_sizes":[],"default_left":[0,0,0,0,0,0,0,0,0,0,0,0,0,0,0,0,0,0,0,0,0],"id":32,"left_children":[1,3,5,7,9,-1,11,13,-1,15,-1,17,19,-1,-1,-1,-1,-1,-1,-1,-1],"loss_changes":[2.1623566E1,8.229718E0,4.12951E0,4.4201794E0,4.3971057E0,0E0,2.002656E0,4.8627596E0,0E0,2.2117925E0,0E0,1.0448914E0,7.18052E-1,0E0,0E0,0E0,0E0,0E0,0E0,0E0,0E0],"parents":[2147483647,0,0,1,1,2,2,3,3,4,4,6,6,7,7,9,9,11,11,12,12],"right_children":[2,4,6,8,10,-1,12,14,-1,16,-1,18,20,-1,-1,-1,-1,-1,-1,-1,-1],"split_conditions":[4.69062E-1,9.418006E-1,-1.5940078E0,8.5421354E-1,3.6293104E-1,-8.055999E-3,3.0645235E0,-1.1158049E0,-1.981314E-2,-1.27124E0,-1.8523168E-2,2.0463045E0,9.336673E-1,-1.0936545E-2,-3.2789414E-3,-7.991485E-3,5.888719E-3,6.5539693E-3,1.1570631E-2,-1.0210769E-2,3.139488E-3],"split_indices":[3,4,4,4,3,0,6,4,0,3,0,3,3,0,0,0,0,0,0,0,0],"split_type":[0,0,0,0,0,0,0,0,0,0,0,0,0,0,0,0,0,0,0,0,0],"sum_hessian":[1.9E2,1.36E2,5.4E1,1.08E2,2.8E1,3E0,5.1E1,1.04E2,4E0,2.7E1,1E0,4.9E1,2E0,2.4E1,8E1,2E0,2.5E1,2.9E1,2E1,1E0,1E0],"tree_param":{"num_deleted":"0","num_feature":"9","num_nodes":"21","size_leaf_vector":"1"}},{"base_weights":[-6.4802053E-3,-1.9357966E-1,4.580431E-1,-3.1854934E-1,2.710952E-1,-1.9914018E-1,6.0523814E-1,-9.247791E-1,-2.4867858E-1,3.6496854E-1,-1.8384244E-2,1.1580578E-2,-3.734619E-1,-5.91469E-2,6.877033E-1,-1.5330841E-2,3.5993097E-4,-2.2750765E-3,-9.095798E-3,-7.911569E-3,6.7591122E-3,-2.9892293E-3,-1.0701817E-2,4.659943E-3,-7.987664E-3,1.1826015E-2,4.4505065E-3],"categories":[],"categories_nodes":[],"categories_segments":[],"categories_sizes":[],"default_left":[0,0,0,0,0,0,0,0,0,0,0,0,0,0,0,0,0,0,0,0,0,0,0,0,0,0,0],"id":33,"left_children":[1,3,5,7,9,11,13,15,17,19,-1,-1,21,23,25,-1,-1,-1,-1,-1,-1,-1,-1,-1,-1,-1,-1],"loss_changes":[1.6949606E1,8.158125E0,5.5376387E0,4.4293776E0,4.6623526E0,2.1506002E0,2.5609531E0,1.0397568E0,3.3780384E0,2.4539847E0,0E0,0E0,4.500203E-1,1.2157593E0,1.3803768E0,0E0,0E0,0E0,0E0,0E0,0E0,0E0,0E0,0E0,0E0,0E0,0E0],"parents":[2147483647,0,0,1,1,2,2,3,3,4,4,5,5,6,6,7,7,8,8,9,9,12,12,13,13,14,14],"right_children":[2,4,6,8,10,12,14,16,18,20,-1,-1,22,24,26,-1,-1,-1,-1,-1,-1,-1,-1,-1,-1,-1,-1],"split_conditions":[4.951944E-1,9.407144E-1,-1.7449291E-2,-1.8034117E0,3.6293104E-1,5.3108317E-1,6.030647E-1,3.7298021E0,1.1885485E-1,-1.27124E0,-1.8384244E-2,1.1580578E-2,-4.8279783E-1,5.618377E-1,9.7529644E-1,-1.5330841E-2,3.5993097E-4,-2.2750765E-3,-9.095798E-3,-7.911569E-3,6.7591122E-3,-2.9892293E-3,-1.0701817E-2,4.659943E-3,-7.987664E-3,1.1826015E-2,4.4505065E-3],"split_indices":[3,4,4,4,3,3,3,1,4,3,0,0,4,3,4,0,0,0,0,0,0,0,0,0,0,0,0],"split_type":[0,0,0,0,0,0,0,0,0,0,0,0,0,0,0,0,0,0,0,0,0,0,0,0,0,0,0],"sum_hessian":[1.93E2,1.38E2,5.5E1,1.09E2,2.9E1,1E1,4.5E1,1E1,9.9E1,2.8E1,1E0,1E0,9E0,5E0,4E1,9E0,1E0,7.9E1,2E1,2E0,2.6E1,7E0,2E0,3E0,2E0,3.1E1,9E0],"tree_param":{"num_deleted":"0","num_feature":"9","num_nodes":"27","size_leaf_vector":"1"}},{"base_weights":[3.6540903E-2,-2.9532164E-1,3.238071E-1,-2.5570223E-1,-2.0583857E-2,-4.559122E-1,4.1990098E-1,-7.542235E-1,-1.7572841E-1,3.800674E-1,-7.768018E-1,3.09237E-1,7.2978604E-1,-4.263464E-3,-1.3189597E-2,-3.3698378E-3,8.753151E-3,7.363194E-3,3.572309E-4,-4.314327E-3,-1.313218E-2,5.844353E-3,-2.4698297E-3,2.8486133E-3,1.1968024E-2],"categories":[],"categories_nodes":[],"categories_segments":[],"categories_sizes":[],"default_left":[0,0,0,0,0,0,0,0,0,0,0,0,0,0,0,0,0,0,0,0,0,0,0,0,0],"id":34,"left_children":[1,3,5,7,-1,9,11,13,15,17,19,21,23,-1,-1,-1,-1,-1,-1,-1,-1,-1,-1,-1,-1],"loss_changes":[1.868554E1,3.531859E0,8.058696E0,3.4157705E0,0E0,3.5143228E0,2.9978771E0,4.5553064E-1,3.0287368E0,1.4621782E-1,1.8263054E-1,2.7688675E0,7.3062706E-1,0E0,0E0,0E0,0E0,0E0,0E0,0E0,0E0,0E0,0E0,0E0,0E0],"parents":[2147483647,0,0,1,1,2,2,3,3,5,5,6,6,7,7,8,8,9,9,10,10,11,11,12,12],"right_children":[2,4,6,8,-1,10,12,14,16,18,20,22,24,-1,-1,-1,-1,-1,-1,-1,-1,-1,-1,-1,-1],"split_conditions":[-2.3247597E-1,-2.553839E-1,-5.478565E-1,-1.249533E0,-2.0583857E-2,-1.0887825E-2,1.5760368E0,-8.0625653E-1,9.6780604E-1,3.7298021E0,1.4326742E-1,1.1009258E0,4.5884453E-2,-4.263464E-3,-1.3189597E-2,-3.3698378E-3,8.753151E-3,7.363194E-3,3.572309E-4,-4.314327E-3,-1.313218E-2,5.844353E-3,-2.4698297E-3,2.8486133E-3,1.1968024E-2],"split_indices":[3,3,4,3,0,3,3,4,4,1,3,3,4,0,0,0,0,0,0,0,0,0,0,0,0],"split_type":[0,0,0,0,0,0,0,0,0,0,0,0,0,0,0,0,0,0,0,0,0,0,0,0,0],"sum_hessian":[1.94E2,9E1,1.04E2,8.8E1,2E0,1.1E1,9.3E1,1.1E1,7.7E1,3E0,8E0,7E1,2.3E1,3E0,8E0,7.3E1,4E0,2E0,1E0,2E0,6E0,6E1,1E1,3E0,2E1],"tree_param":{"num_deleted":"0","num_feature":"9","num_nodes":"25","size_leaf_vector":"1"}},{"base_weights":[-1.7365923E-2,-1.927683E-1,4.8771778E-1,-2.5640488E-1,2.8648707E-1,7.517419E-1,3.1272236E-2,-3.669392E-1,-1.2346009E-2,3.971692E-1,1.1232352E-1,1.1451531E-3,7.9568857E-1,-5.4686075E-1,2.7680978E-1,-4.6380707E-3,-2.2097915E-2,2.8019152E-3,-9.426697E-3,2.3799776E-3,9.059102E-3,-4.4013294E-3,3.1830687E-3,1.227995E-2,1.14295E-3,1.9567204E-3,-1.3771907E-2,8.72112E-3,-1.6627008E-3],"categories":[],"categories_nodes":[],"categories_segments":[],"categories_sizes":[],"default_left":[0,0,0,0,0,0,0,0,0,0,0,0,0,0,0,0,0,0,0,0,0,0,0,0,0,0,0,0,0],"id":35,"left_children":[1,3,5,7,9,11,13,15,17,19,21,-1,23,25,27,-1,-1,-1,-1,-1,-1,-1,-1,-1,-1,-1,-1,-1,-1],"loss_changes":[1.6838072E1,4.3736997E0,5.881612E0,3.3675795E0,2.8309417E-1,8.593807E-1,2.8484905E0,5.037218E0,5.0250096E0,3.973328E-1,3.8647586E-1,0E0,4.169941E-1,1.6285397E0,1.71756E0,0E0,0E0,0E0,0E0,0E0,0E0,0E0,0E0,0E0,0E0,0E0,0E0,0E0,0E0],"parents":[2147483647,0,0,1,1,2,2,3,3,4,4,5,5,6,6,7,7,8,8,9,9,10,10,12,12,13,13,14,14],"right_children":[2,4,6,8,10,12,14,16,18,20,22,-1,24,26,28,-1,-1,-1,-1,-1,-1,-1,-1,-1,-1,-1,-1,-1,-1],"split_conditions":[6.252615E-1,2.3709261E0,-9.7958535E-2,-2.3139462E-1,-2.2287403E-1,7.4697584E-1,8.201626E-1,-2.553839E-1,3.5308328E-1,-3.361196E-1,-1.3938026E-1,1.1451531E-3,2.3709261E0,8.0846995E-1,9.791269E-1,-4.6380707E-3,-2.2097915E-2,2.8019152E-3,-9.426697E-3,2.3799776E-3,9.059102E-3,-4.4013294E-3,3.1830687E-3,1.227995E-2,1.14295E-3,1.9567204E-3,-1.3771907E-2,8.72112E-3,-1.6627008E-3],"split_indices":[3,1,0,3,3,3,0,3,3,3,3,0,1,3,3,0,0,0,0,0,0,0,0,0,0,0,0,0,0],"split_type":[0,0,0,0,0,0,0,0,0,0,0,0,0,0,0,0,0,0,0,0,0,0,0,0,0,0,0,0,0],"sum_hessian":[1.88E2,1.4E2,4.8E1,1.24E2,1.6E1,3E1,1.8E1,8.5E1,3.9E1,9E0,7E0,2E0,2.8E1,5E0,1.3E1,8.2E1,3E0,3E1,9E0,5E0,4E0,1E0,6E0,2.7E1,1E0,2E0,3E0,7E0,6E0],"tree_param":{"num_deleted":"0","num_feature":"9","num_nodes":"29","size_leaf_vector":"1"}},{"base_weights":[7.87541E-3,-7.234997E-1,1.1538425E-1,-7.754846E-1,-8.378196E-2,-4.3876067E-2,5.0955516E-1,-3.8975014E-3,-1.2183319E-2,-2.2157729E-3,3.3067883E-4,1.6751664E-2,-1.0422962E0,7.1953136E-1,1.079555E-1,-1.2113708E-2,1.2793636E-3,-2.0329501E-2,6.267954E-3,-4.9135876E-3,1.1458136E-2,-7.747708E-3,5.8180178E-3],"categories":[],"categories_nodes":[],"categories_segments":[],"categories_sizes":[],"default_left":[0,0,0,0,0,0,0,0,0,0,0,0,0,0,0,0,0,0,0,0,0,0,0],"id":36,"left_children":[1,3,5,7,9,11,13,-1,-1,-1,-1,15,17,19,21,-1,-1,-1,-1,-1,-1,-1,-1],"loss_changes":[1.5337563E1,7.6642036E-1,1.0694241E1,2.2465324E-1,2.3555068E-2,7.4023576E0,4.0543165E0,0E0,0E0,0E0,0E0,6.622775E0,3.7655816E0,1.7360859E0,3.34668E0,0E0,0E0,0E0,0E0,0E0,0E0,0E0,0E0],"parents":[2147483647,0,0,1,1,2,2,3,3,4,4,5,5,6,6,11,11,12,12,13,13,14,14],"right_children":[2,4,6,8,10,12,14,-1,-1,-1,-1,16,18,20,22,-1,-1,-1,-1,-1,-1,-1,-1],"split_conditions":[-1.2927505E0,1.4211742E0,6.1838734E-1,-1.2556007E0,8.201626E-1,3.6712676E-1,-9.7958535E-2,-3.8975014E-3,-1.2183319E-2,-2.2157729E-3,3.3067883E-4,-1.220963E0,1.0680957E0,-1.0160797E0,8.201626E-1,-1.2113708E-2,1.2793636E-3,-2.0329501E-2,6.267954E-3,-4.9135876E-3,1.1458136E-2,-7.747708E-3,5.8180178E-3],"split_indices":[4,2,3,3,0,3,0,0,0,0,0,3,4,0,0,0,0,0,0,0,0,0,0],"split_type":[0,0,0,0,0,0,0,0,0,0,0,0,0,0,0,0,0,0,0,0,0,0,0],"sum_hessian":[1.93E2,2.4E1,1.69E2,2.2E1,2E0,1.21E2,4.8E1,2E0,2E1,1E0,1E0,1.15E2,6E0,3.1E1,1.7E1,8E0,1.07E2,5E0,1E0,1E0,3E1,5E0,1.2E1],"tree_param":{"num_deleted":"0","num_feature":"9","num_nodes":"23","size_leaf_vector":"1"}},{"base_weights":[1.1769782E-2,-1.7204598E-1,4.5140445E-1,-1.285949E-1,-1.6163543E-2,4.9808738E-1,-5.393562E-1,-1.1360901E-2,-5.762931E-2,1.8232521E-1,6.04046E-1,-9.93636E-3,-2.1991539E-3,-3.3573149E-4,-2.0843437E-2,9.729579E-3,1.7540468E-4,9.3320785E-3,-7.617259E-4],"categories":[],"categories_nodes":[],"categories_segments":[],"categories_sizes":[],"default_left":[0,0,0,0,0,0,0,0,0,0,0,0,0,0,0,0,0,0,0],"id":37,"left_children":[1,3,5,7,-1,9,11,-1,13,15,17,-1,-1,-1,-1,-1,-1,-1,-1],"loss_changes":[1.5351089E1,5.133789E0,2.858735E0,5.7127275E0,0E0,1.6965837E0,4.7885E-2,0E0,5.461689E0,1.1859319E0,5.054951E-1,0E0,0E0,0E0,0E0,0E0,0E0,0E0,0E0],"parents":[2147483647,0,0,1,1,2,2,3,3,5,5,6,6,8,8,9,9,10,10],"right_children":[2,4,6,8,-1,10,12,-1,14,16,18,-1,-1,-1,-1,-1,-1,-1,-1],"split_conditions":[4.951944E-1,6.8410525E0,3.0645235E0,-1.220963E0,-1.6163543E-2,7.502448E-1,2.3709261E0,-1.1360901E-2,3.6712676E-1,5.3108317E-1,2.3019185E0,-9.93636E-3,-2.1991539E-3,-3.3573149E-4,-2.0843437E-2,9.729579E-3,1.7540468E-4,9.3320785E-3,-7.617259E-4],"split_indices":[3,5,6,3,0,3,1,0,3,3,3,0,0,0,0,0,0,0,0],"split_type":[0,0,0,0,0,0,0,0,0,0,0,0,0,0,0,0,0,0,0],"sum_hessian":[1.88E2,1.33E2,5.5E1,1.28E2,5E0,5.3E1,2E0,1.2E1,1.16E2,1.4E1,3.9E1,1E0,1E0,1.14E2,2E0,3E0,1.1E1,3.8E1,1E0],"tree_param":{"num_deleted":"0","num_feature":"9","num_nodes":"19","size_leaf_vector":"1"}},{"base_weights":[-2.1084897E-2,-7.4482554E-1,9.6053325E-2,-7.9453456E-1,-8.230861E-2,-1.6169854E-1,3.0288488E-1,-3.744918E-3,-8.3106E-1,-2.1826602E-3,3.3071637E-4,5.982864E-2,-3.9082992E-1,1.9804974E-1,7.007665E-1,-8.197187E-3,-1.4196067E-2,-1.5964385E-2,1.7612769E-3,-6.805653E-3,7.095755E-3,4.0483056E-3,-3.0237993E-3,1.1179471E-2,-7.560128E-4],"categories":[],"categories_nodes":[],"categories_segments":[],"categories_sizes":[],"default_left":[0,0,0,0,0,0,0,0,0,0,0,0,0,0,0,0,0,0,0,0,0,0,0,0,0],"id":38,"left_children":[1,3,5,7,9,11,13,-1,15,-1,-1,17,19,21,23,-1,-1,-1,-1,-1,-1,-1,-1,-1,-1],"loss_changes":[1.6433638E1,8.237953E-1,8.95195E0,2.9006004E-1,2.2994798E-2,3.8302956E0,3.740427E0,0E0,2.3778152E-1,0E0,0E0,2.6497467E0,2.2245064E0,2.2075655E0,6.731262E-1,0E0,0E0,0E0,0E0,0E0,0E0,0E0,0E0,0E0,0E0],"parents":[2147483647,0,0,1,1,2,2,3,3,4,4,5,5,6,6,8,8,11,11,12,12,13,13,14,14],"right_children":[2,4,6,8,10,12,14,-1,16,-1,-1,18,20,22,24,-1,-1,-1,-1,-1,-1,-1,-1,-1,-1],"split_conditions":[-1.1158049E0,1.4211742E0,-2.5003514E-1,-1.2556007E0,3.7298021E0,-1.9946513E-1,2.0463045E0,-3.744918E-3,-1.8695514E0,-2.1826602E-3,3.3071637E-4,-2.0777678E0,2.3709261E0,1.1009258E0,2.3019185E0,-8.197187E-3,-1.4196067E-2,-1.5964385E-2,1.7612769E-3,-6.805653E-3,7.095755E-3,4.0483056E-3,-3.0237993E-3,1.1179471E-2,-7.560128E-4],"split_indices":[4,2,3,3,1,4,3,0,4,0,0,8,1,3,3,0,0,0,0,0,0,0,0,0,0],"split_type":[0,0,0,0,0,0,0,0,0,0,0,0,0,0,0,0,0,0,0,0,0,0,0,0,0],"sum_hessian":[1.92E2,2.6E1,1.66E2,2.4E1,2E0,7.4E1,9.2E1,2E0,2.2E1,1E0,1E0,3.8E1,3.6E1,7.4E1,1.8E1,8E0,1.4E1,1E0,3.7E1,3.4E1,2E0,6.3E1,1.1E1,1.7E1,1E0],"tree_param":{"num_deleted":"0","num_feature":"9","num_nodes":"25","size_leaf_vector":"1"}},{"base_weights":[-6.2612765E-2,-2.1167833E-1,4.2511567E-1,-3.3399865E-1,2.3573078E-1,-1.7023595E-2,6.4679325E-1,-2.7551812E-1,-1.9233713E-2,3.9795342E-1,-1.8700573E-1,3.5883468E-1,-1.8632068E-1,-4.924048E-3,6.9506484E-1,-1.0984971E-2,-2.3492903E-3,-9.966317E-3,7.202727E-3,-1.6661033E-2,1.0095366E-3,-2.8257573E-3,1.1796624E-2,-4.6990025E-3,8.123558E-3,3.8041112E-3,1.0803558E-2],"categories":[],"categories_nodes":[],"categories_segments":[],"categories_sizes":[],"default_left":[0,0,0,0,0,0,0,0,0,0,0,0,0,0,0,0,0,0,0,0,0,0,0,0,0,0,0],"id":39,"left_children":[1,3,5,7,9,11,13,15,-1,17,19,21,23,-1,25,-1,-1,-1,-1,-1,-1,-1,-1,-1,-1,-1,-1],"loss_changes":[1.3031213E1,7.576364E0,4.1275296E0,5.6357584E0,2.1317422E0,1.0213339E0,1.5460682E0,5.479701E0,0E0,2.2409039E0,2.1889634E0,1.3181251E0,1.1860893E0,0E0,1.17381096E-1,0E0,0E0,0E0,0E0,0E0,0E0,0E0,0E0,0E0,0E0,0E0,0E0],"parents":[2147483647,0,0,1,1,2,2,3,3,4,4,5,5,6,6,7,7,9,9,10,10,11,11,12,12,14,14],"right_children":[2,4,6,8,10,12,14,16,-1,18,20,22,24,-1,26,-1,-1,-1,-1,-1,-1,-1,-1,-1,-1,-1,-1],"split_conditions":[7.502448E-1,9.418006E-1,4.5884453E-2,5.3151E-1,1.7090791E-1,-9.7958535E-2,-1.0160797E0,-1.1158049E0,-1.9233713E-2,-1.2930667E0,-5.570191E-1,-4.837498E-1,2.2832568E0,-4.924048E-3,1.2984861E-1,-1.0984971E-2,-2.3492903E-3,-9.966317E-3,7.202727E-3,-1.6661033E-2,1.0095366E-3,-2.8257573E-3,1.1796624E-2,-4.6990025E-3,8.123558E-3,3.8041112E-3,1.0803558E-2],"split_indices":[3,4,4,4,3,0,0,4,0,3,0,4,2,0,4,0,0,0,0,0,0,0,0,0,0,0,0],"split_type":[0,0,0,0,0,0,0,0,0,0,0,0,0,0,0,0,0,0,0,0,0,0,0,0,0,0,0],"sum_hessian":[1.77E2,1.36E2,4.1E1,1.07E2,2.9E1,1.4E1,2.7E1,1.02E2,5E0,2.1E1,8E0,4E0,1E1,1E0,2.6E1,2E1,8.2E1,1E0,2E1,1E0,7E0,2E0,2E0,9E0,1E0,2E0,2.4E1],"tree_param":{"num_deleted":"0","num_feature":"9","num_nodes":"27","size_leaf_vector":"1"}},{"base_weights":[3.470397E-2,-3.8916406E-1,2.0952842E-1,-6.260565E-1,-1.8452759E-1,1.164617E-1,6.697985E-1,-7.79123E-1,-2.5036165E-1,5.575572E-1,-3.7722245E-1,5.6391474E-2,5.1717514E-1,1.1315681E-2,-2.1829451E-3,-3.5976206E-3,-1.2473146E-2,-9.313093E-3,5.7559105E-4,1.3085813E-2,1.5500629E-3,2.0419837E-3,-1.059866E-2,-5.246332E-3,1.7164585E-3,-4.3881387E-3,8.93862E-3],"categories":[],"categories_nodes":[],"categories_segments":[],"categories_sizes":[],"default_left":[0,0,0,0,0,0,0,0,0,0,0,0,0,0,0,0,0,0,0,0,0,0,0,0,0,0,0],"id":40,"left_children":[1,3,5,7,9,11,13,15,17,19,21,23,25,-1,-1,-1,-1,-1,-1,-1,-1,-1,-1,-1,-1,-1,-1],"loss_changes":[1.4457425E1,2.6476545E0,5.833338E0,1.3001013E0,4.7861924E0,2.7630658E0,1.6958799E0,3.0940723E-1,9.866384E-1,9.1086483E-1,4.4921613E0,2.4444075E0,1.130599E0,0E0,0E0,0E0,0E0,0E0,0E0,0E0,0E0,0E0,0E0,0E0,0E0,0E0,0E0],"parents":[2147483647,0,0,1,1,2,2,3,3,4,4,5,5,6,6,7,7,8,8,9,9,10,10,11,11,12,12],"right_children":[2,4,6,8,10,12,14,16,18,20,22,24,26,-1,-1,-1,-1,-1,-1,-1,-1,-1,-1,-1,-1,-1,-1],"split_conditions":[-5.478565E-1,-1.1158049E0,1.5760368E0,-9.7958535E-2,-7.9267526E-1,2.3709261E0,2.1973443E0,-1.2556007E0,-2.0309927E0,-1.058418E0,-9.7958535E-2,-1.032916E0,-2.7689373E-1,1.1315681E-2,-2.1829451E-3,-3.5976206E-3,-1.2473146E-2,-9.313093E-3,5.7559105E-4,1.3085813E-2,1.5500629E-3,2.0419837E-3,-1.059866E-2,-5.246332E-3,1.7164585E-3,-4.3881387E-3,8.93862E-3],"split_indices":[4,4,3,0,4,1,0,3,4,3,0,3,4,0,0,0,0,0,0,0,0,0,0,0,0,0,0],"split_type":[0,0,0,0,0,0,0,0,0,0,0,0,0,0,0,0,0,0,0,0,0,0,0,0,0,0,0],"sum_hessian":[1.93E2,5.6E1,1.37E2,2.5E1,3.1E1,1.15E2,2.2E1,1.7E1,8E0,6E0,2.5E1,1.01E2,1.4E1,2E1,2E0,2E0,1.5E1,3E0,5E0,3E0,3E0,1E1,1.5E1,1.2E1,8.9E1,1E0,1.3E1],"tree_param":{"num_deleted":"0","num_feature":"9","num_nodes":"27","size_leaf_vector":"1"}},{"base_weights":[-1.5635196E-2,-3.167307E-1,2.707094E-1,-2.6485994E-1,-2.1653155E-2,1.4553052E-1,6.662612E-1,-7.167709E-1,-1.8246478E-1,-2.2399988E-2,4.1496602E-1,7.0760804E-1,-2.1353639E-3,-1.0754156E-3,-1.1413158E-2,-8.85368E-3,-1.3053411E-3,3.1089038E-3,-7.003401E-3,9.5842425E-3,1.093718E-3,1.1160101E-2,-6.9872796E-4],"categories":[],"categories_nodes":[],"categories_segments":[],"categories_sizes":[],"default_left":[0,0,0,0,0,0,0,0,0,0,0,0,0,0,0,0,0,0,0,0,0,0,0],"id":41,"left_children":[1,3,5,7,-1,9,11,13,15,17,19,21,-1,-1,-1,-1,-1,-1,-1,-1,-1,-1,-1],"loss_changes":[1.698429E1,5.228735E0,4.9040275E0,3.3320951E0,0E0,3.5385175E0,9.031439E-1,3.437767E-1,3.062188E0,5.098809E0,2.2518277E0,6.660433E-1,0E0,0E0,0E0,0E0,0E0,0E0,0E0,0E0,0E0,0E0,0E0],"parents":[2147483647,0,0,1,1,2,2,3,3,5,5,6,6,7,7,8,8,9,9,10,10,11,11],"right_children":[2,4,6,8,-1,10,12,14,16,18,20,22,-1,-1,-1,-1,-1,-1,-1,-1,-1,-1,-1],"split_conditions":[-2.3139462E-1,-2.553839E-1,1.5760368E0,-1.220963E0,-2.1653155E-2,8.201626E-1,2.7173042E-1,-1.0160797E0,2.566234E-1,-9.7958535E-2,2.1973443E0,2.1973443E0,-2.1353639E-3,-1.0754156E-3,-1.1413158E-2,-8.85368E-3,-1.3053411E-3,3.1089038E-3,-7.003401E-3,9.5842425E-3,1.093718E-3,1.1160101E-2,-6.9872796E-4],"split_indices":[3,3,3,3,0,0,2,0,7,0,0,0,0,0,0,0,0,0,0,0,0,0,0],"split_type":[0,0,0,0,0,0,0,0,0,0,0,0,0,0,0,0,0,0,0,0,0,0,0],"sum_hessian":[1.95E2,9.5E1,1E2,9.2E1,3E0,7.7E1,2.3E1,1.3E1,7.9E1,4.8E1,2.9E1,2.2E1,1E0,1E0,1.2E1,1.4E1,6.5E1,3.2E1,1.6E1,1.7E1,1.2E1,2.1E1,1E0],"tree_param":{"num_deleted":"0","num_feature":"9","num_nodes":"23","size_leaf_vector":"1"}},{"base_weights":[-3.730096E-2,-2.1070255E-1,4.345317E-1,-3.5443074E-1,2.6472482E-1,6.5065646E-1,7.421506E-2,-2.8740418E-1,-1.0821313E0,3.4581625E-1,-1.8084696E-2,-4.9233083E-3,6.915032E-1,4.1563293E-1,-3.4290788E-1,-9.151929E-3,-1.793071E-3,-1.721595E-2,-4.180049E-3,-7.2226482E-3,6.2208707E-3,5.1509973E-4,1.1012542E-2,-4.0023634E-3,7.5289686E-3,-7.876301E-3,3.8580773E-3],"categories":[],"categories_nodes":[],"categories_segments":[],"categories_sizes":[],"default_left":[0,0,0,0,0,0,0,0,0,0,0,0,0,0,0,0,0,0,0,0,0,0,0,0,0,0,0],"id":42,"left_children":[1,3,5,7,9,11,13,15,17,19,-1,-1,21,23,25,-1,-1,-1,-1,-1,-1,-1,-1,-1,-1,-1,-1],"loss_changes":[1.6127596E1,9.93368E0,4.0789995E0,5.1030445E0,4.470906E0,1.5464373E0,3.1332016E0,5.50704E0,1.5451717E-1,2.0810163E0,0E0,0E0,8.720274E-1,8.4066606E-1,1.2283343E0,0E0,0E0,0E0,0E0,0E0,0E0,0E0,0E0,0E0,0E0,0E0,0E0],"parents":[2147483647,0,0,1,1,2,2,3,3,4,4,5,5,6,6,7,7,8,8,9,9,12,12,13,13,14,14],"right_children":[2,4,6,8,10,12,14,16,18,20,-1,-1,22,24,26,-1,-1,-1,-1,-1,-1,-1,-1,-1,-1,-1,-1],"split_conditions":[6.252615E-1,9.418006E-1,-9.7958535E-2,5.3151E-1,6.0912305E-1,-1.0160797E0,1.1009258E0,-7.155398E-1,2.1973443E0,-1.27124E0,-1.8084696E-2,-4.9233083E-3,-4.8279783E-1,-1.8380861E0,2.0463307E0,-9.151929E-3,-1.793071E-3,-1.721595E-2,-4.180049E-3,-7.2226482E-3,6.2208707E-3,5.1509973E-4,1.1012542E-2,-4.0023634E-3,7.5289686E-3,-7.876301E-3,3.8580773E-3],"split_indices":[3,4,0,4,3,0,3,4,0,3,0,0,4,4,3,0,0,0,0,0,0,0,0,0,0,0,0],"split_type":[0,0,0,0,0,0,0,0,0,0,0,0,0,0,0,0,0,0,0,0,0,0,0,0,0,0,0],"sum_hessian":[1.95E2,1.43E2,5.2E1,1.1E2,3.3E1,3.2E1,2E1,1.02E2,8E0,3.2E1,1E0,1E0,3.1E1,1.1E1,9E0,3.4E1,6.8E1,7E0,1E0,2E0,3E1,2E0,2.9E1,1E0,1E1,7E0,2E0],"tree_param":{"num_deleted":"0","num_feature":"9","num_nodes":"27","size_leaf_vector":"1"}},{"base_weights":[1.8412307E-2,-5.819489E-1,9.517556E-2,-2.3740596E-1,-7.372628E-1,4.3926075E-2,5.084255E-1,-4.818093E-1,3.3053604E-1,-1.7634746E-2,-5.1082546E-1,2.0313968E-1,-1.3899857E-1,1.5687776E-1,5.6827646E-1,-1.0798012E-2,-2.7422002E-3,6.9598313E-3,4.7722933E-4,-2.6839054E-3,-1.012381E-2,-2.220375E-3,6.146635E-3,-6.767122E-3,-2.997685E-4,2.914524E-4,4.269154E-3,1.3929353E-2,5.2923127E-3],"categories":[],"categories_nodes":[],"categories_segments":[],"categories_sizes":[],"default_left":[0,0,0,0,0,0,0,0,0,0,0,0,0,0,0,0,0,0,0,0,0,0,0,0,0,0,0,0,0],"id":43,"left_children":[1,3,5,7,9,11,13,15,17,-1,19,21,23,25,27,-1,-1,-1,-1,-1,-1,-1,-1,-1,-1,-1,-1,-1,-1],"loss_changes":[8.535152E0,9.487276E-1,3.450997E0,1.2697108E0,7.891884E-1,4.3094773E0,2.895789E-1,2.9546916E-1,1.04833335E-1,0E0,4.7833085E-1,5.7931547E0,2.5542912E0,6.469609E-2,8.369446E-1,0E0,0E0,0E0,0E0,0E0,0E0,0E0,0E0,0E0,0E0,0E0,0E0,0E0,0E0],"parents":[2147483647,0,0,1,1,2,2,3,3,4,4,5,5,6,6,7,7,8,8,10,10,11,11,12,12,13,13,14,14],"right_children":[2,4,6,8,10,12,14,16,18,-1,20,22,24,26,28,-1,-1,-1,-1,-1,-1,-1,-1,-1,-1,-1,-1,-1,-1],"split_conditions":[-1.1158049E0,-1.8695514E0,2.3709261E0,-9.7958535E-2,-1.8034117E0,-9.7958535E-2,-7.4111193E-1,-2.1227772E0,8.201626E-1,-1.7634746E-2,-1.7019641E0,-5.570191E-1,-5.478565E-1,2.1973443E0,6.732485E-2,-1.0798012E-2,-2.7422002E-3,6.9598313E-3,4.7722933E-4,-2.6839054E-3,-1.012381E-2,-2.220375E-3,6.146635E-3,-6.767122E-3,-2.997685E-4,2.914524E-4,4.269154E-3,1.3929353E-2,5.2923127E-3],"split_indices":[4,4,1,0,4,0,4,4,0,0,4,0,4,0,4,0,0,0,0,0,0,0,0,0,0,0,0,0,0],"split_type":[0,0,0,0,0,0,0,0,0,0,0,0,0,0,0,0,0,0,0,0,0,0,0,0,0,0,0,0,0],"sum_hessian":[1.83E2,2E1,1.63E2,7E0,1.3E1,1.46E2,1.7E1,5E0,2E0,3E0,1E1,7.8E1,6.8E1,3E0,1.4E1,2E0,3E0,1E0,1E0,4E0,6E0,2.9E1,4.9E1,1.8E1,5E1,2E0,1E0,4E0,1E1],"tree_param":{"num_deleted":"0","num_feature":"9","num_nodes":"29","size_leaf_vector":"1"}},{"base_weights":[1.8341545E-2,-3.6491412E-1,2.4748304E-1,-2.8646886E-1,-1.0299973E0,-5.5959547E-1,3.4505007E-1,-3.6532626E-1,5.367068E-1,-1.15564E0,-2.0710586E-3,2.4448872E-2,-6.680079E-1,2.2731757E-1,5.232833E-1,-1.2156958E-2,-3.696463E-3,1.013976E-2,-1.197592E-3,-1.8746372E-2,-5.1378724E-3,-1.3124209E-3,1.8625206E-3,-1.2008795E-2,-7.140517E-4,1.095301E-3,5.912874E-3,8.589156E-3,-4.3859673E-3],"categories":[],"categories_nodes":[],"categories_segments":[],"categories_sizes":[],"default_left":[0,0,0,0,0,0,0,0,0,0,0,0,0,0,0,0,0,0,0,0,0,0,0,0,0,0,0,0,0],"id":44,"left_children":[1,3,5,7,9,11,13,15,17,19,-1,21,23,25,27,-1,-1,-1,-1,-1,-1,-1,-1,-1,-1,-1,-1,-1,-1],"loss_changes":[1.642479E1,3.3570213E0,9.406165E0,4.350536E0,6.2488794E-1,8.394623E-1,2.0843515E0,2.9228396E0,5.691949E-1,3.1100273E-2,0E0,4.4352815E-2,8.6666346E-1,1.6448519E0,1.8170757E0,0E0,0E0,0E0,0E0,0E0,0E0,0E0,0E0,0E0,0E0,0E0,0E0,0E0,0E0],"parents":[2147483647,0,0,1,1,2,2,3,3,4,4,5,5,6,6,7,7,8,8,9,9,11,11,12,12,13,13,14,14],"right_children":[2,4,6,8,10,12,14,16,18,20,-1,22,24,26,28,-1,-1,-1,-1,-1,-1,-1,-1,-1,-1,-1,-1,-1,-1],"split_conditions":[-5.4658455E-1,-6.0481536E-1,-7.713749E-1,-6.599831E-1,1.829264E0,-4.297169E-1,7.222621E-1,-1.249533E0,-6.109687E-1,-5.5901146E-1,-2.0710586E-3,-4.892536E-1,1.4211742E0,8.3426374E-1,3.0645235E0,-1.2156958E-2,-3.696463E-3,1.013976E-2,-1.197592E-3,-1.8746372E-2,-5.1378724E-3,-1.3124209E-3,1.8625206E-3,-1.2008795E-2,-7.140517E-4,1.095301E-3,5.912874E-3,8.589156E-3,-4.3859673E-3],"split_indices":[3,3,4,3,7,3,3,3,3,3,0,3,2,4,6,0,0,0,0,0,0,0,0,0,0,0,0,0,0],"split_type":[0,0,0,0,0,0,0,0,0,0,0,0,0,0,0,0,0,0,0,0,0,0,0,0,0,0,0,0,0],"sum_hessian":[1.85E2,6.9E1,1.16E2,6.3E1,6E0,1.2E1,1.04E2,5.8E1,5E0,5E0,1E0,2E0,1E1,6.4E1,4E1,1.1E1,4.7E1,4E0,1E0,4E0,1E0,1E0,1E0,8E0,2E0,3.4E1,3E1,3.8E1,2E0],"tree_param":{"num_deleted":"0","num_feature":"9","num_nodes":"29","size_leaf_vector":"1"}},{"base_weights":[-5.8400974E-2,-1.4774981E-1,6.4640665E-1,-2.7389485E-1,1.9472344E-1,1.0259364E-2,-7.845944E-4,-3.179626E-1,4.8920348E-1,2.5491476E-1,-1.0993897E-2,-4.0291846E-3,-1.41666895E-2,3.492254E-4,1.2492366E-2,-9.667376E-3,4.375113E-3],"categories":[],"categories_nodes":[],"categories_segments":[],"categories_sizes":[],"default_left":[0,0,0,0,0,0,0,0,0,0,0,0,0,0,0,0,0],"id":45,"left_children":[1,3,5,7,9,-1,-1,11,13,15,-1,-1,-1,-1,-1,-1,-1],"loss_changes":[1.1745648E1,7.181547E0,5.8675957E-1,4.2245407E0,2.6994743E0,0E0,0E0,3.3017807E0,1.1013137E0,1.6096356E0,0E0,0E0,0E0,0E0,0E0,0E0,0E0],"parents":[2147483647,0,0,1,1,2,2,3,3,4,4,7,7,8,8,9,9],"right_children":[2,4,6,8,10,-1,-1,12,14,16,-1,-1,-1,-1,-1,-1,-1],"split_conditions":[2.0463307E0,9.6780604E-1,2.3019185E0,2.570618E0,1.1863781E0,1.0259364E-2,-7.845944E-4,5.3151E-1,-2.7689373E-1,-1.2930667E0,-1.0993897E-2,-4.0291846E-3,-1.41666895E-2,3.492254E-4,1.2492366E-2,-9.667376E-3,4.375113E-3],"split_indices":[3,4,3,2,3,0,0,4,4,3,0,0,0,0,0,0,0],"split_type":[0,0,0,0,0,0,0,0,0,0,0,0,0,0,0,0,0],"sum_hessian":[1.84E2,1.64E2,2E1,1.2E2,4.4E1,1.9E1,1E0,1.14E2,6E0,4.2E1,2E0,1.07E2,7E0,3E0,3E0,1E0,4.1E1],"tree_param":{"num_deleted":"0","num_feature":"9","num_nodes":"17","size_leaf_vector":"1"}},{"base_weights":[-9.979841E-3,-6.718956E-1,9.338263E-2,-7.1779454E-1,-6.543946E-2,-4.532226E-2,5.1377696E-1,-2.1973066E-3,-7.354954E-1,-1.9487733E-3,4.7638535E-4,-1.6666807E-1,2.9227394E-1,-2.8678766E-1,5.5982375E-1,-7.6123746E-3,-1.2576973E-2,-1.3960877E-3,-1.3138915E-2,5.5732867E-3,-1.8023971E-2,-9.808411E-3,3.3556884E-3,9.218445E-3,-1.5023369E-3],"categories":[],"categories_nodes":[],"categories_segments":[],"categories_sizes":[],"default_left":[0,0,0,0,0,0,0,0,0,0,0,0,0,0,0,0,0,0,0,0,0,0,0,0,0],"id":46,"left_children":[1,3,5,7,9,11,13,-1,15,-1,-1,17,19,21,23,-1,-1,-1,-1,-1,-1,-1,-1,-1,-1],"loss_changes":[1.3677776E1,7.045908E-1,1.0111045E1,1.4507484E-1,2.2927787E-2,5.4152436E0,1.745676E0,0E0,1.3794518E-1,0E0,0E0,4.981715E0,4.5915766E0,7.08508E-1,1.5427532E0,0E0,0E0,0E0,0E0,0E0,0E0,0E0,0E0,0E0,0E0],"parents":[2147483647,0,0,1,1,2,2,3,3,4,4,5,5,6,6,8,8,11,11,12,12,13,13,14,14],"right_children":[2,4,6,8,10,12,14,-1,16,-1,-1,18,20,22,24,-1,-1,-1,-1,-1,-1,-1,-1,-1,-1],"split_conditions":[-1.1158049E0,1.4211742E0,6.1838734E-1,-1.2556007E0,8.201626E-1,9.6780604E-1,2.4272989E-1,-2.1973066E-3,-1.8695514E0,-1.9487733E-3,4.7638535E-4,8.5421354E-1,6.0912305E-1,8.201626E-1,2.1973443E0,-7.6123746E-3,-1.2576973E-2,-1.3960877E-3,-1.3138915E-2,5.5732867E-3,-1.8023971E-2,-9.808411E-3,3.3556884E-3,9.218445E-3,-1.5023369E-3],"split_indices":[4,2,3,3,0,4,8,0,4,0,0,4,3,0,0,0,0,0,0,0,0,0,0,0,0],"split_type":[0,0,0,0,0,0,0,0,0,0,0,0,0,0,0,0,0,0,0,0,0,0,0,0,0],"sum_hessian":[1.98E2,2.6E1,1.72E2,2.4E1,2E0,1.3E2,4.2E1,1E0,2.3E1,1E0,1E0,9.6E1,3.4E1,2E0,4E1,9E0,1.4E1,8.8E1,8E0,3.3E1,1E0,1E0,1E0,3.7E1,3E0],"tree_param":{"num_deleted":"0","num_feature":"9","num_nodes":"25","size_leaf_vector":"1"}},{"base_weights":[-1.5468534E-2,-5.0985944E-1,9.72754E-2,-5.696464E-1,-2.5251055E-2,-3.9281733E-2,4.519753E-1,-4.810925E-1,-1.6038757E-2,-1.04275785E-1,9.3286036E-4,-1.4587535E-1,2.5425822E-1,6.7126817E-1,2.6258439E-2,-9.157659E-3,1.7514294E-3,-4.120481E-4,-1.934157E-3,5.4092327E-4,-8.401787E-3,5.133589E-3,-1.7888792E-2,3.1069873E-4,1.0780354E-2,-7.757931E-3,4.8045097E-3],"categories":[],"categories_nodes":[],"categories_segments":[],"categories_sizes":[],"default_left":[0,0,0,0,0,0,0,0,0,0,0,0,0,0,0,0,0,0,0,0,0,0,0,0,0,0,0],"id":47,"left_children":[1,3,5,7,9,11,13,15,-1,17,-1,19,21,23,25,-1,-1,-1,-1,-1,-1,-1,-1,-1,-1,-1,-1],"loss_changes":[1.0807335E1,1.0286531E0,7.6707687E0,9.013319E-1,4.1035283E-2,3.6353807E0,4.090067E0,2.3151073E0,0E0,2.1418817E-3,0E0,6.4263277E0,4.35429E0,8.7978363E-1,2.7224321E0,0E0,0E0,0E0,0E0,0E0,0E0,0E0,0E0,0E0,0E0,0E0,0E0],"parents":[2147483647,0,0,1,1,2,2,3,3,4,4,5,5,6,6,7,7,9,9,11,11,12,12,13,13,14,14],"right_children":[2,4,6,8,10,12,14,16,-1,18,-1,20,22,24,26,-1,-1,-1,-1,-1,-1,-1,-1,-1,-1,-1,-1],"split_conditions":[-7.155398E-1,1.4211742E0,6.252615E-1,-7.7374184E-1,8.201626E-1,9.6780604E-1,-9.7958535E-2,-1.1158049E0,-1.6038757E-2,-1.0236646E0,9.3286036E-4,1.6991088E-1,6.0912305E-1,-4.8279783E-1,8.201626E-1,-9.157659E-3,1.7514294E-3,-4.120481E-4,-1.934157E-3,5.4092327E-4,-8.401787E-3,5.133589E-3,-1.7888792E-2,3.1069873E-4,1.0780354E-2,-7.757931E-3,4.8045097E-3],"split_indices":[4,2,3,4,0,4,0,4,0,3,0,4,3,4,0,0,0,0,0,0,0,0,0,0,0,0,0],"split_type":[0,0,0,0,0,0,0,0,0,0,0,0,0,0,0,0,0,0,0,0,0,0,0,0,0,0,0],"sum_hessian":[1.92E2,3.5E1,1.57E2,3.1E1,4E0,1.14E2,4.3E1,2.8E1,3E0,2E0,2E0,8.4E1,3E1,2.8E1,1.5E1,2.3E1,5E0,1E0,1E0,5.9E1,2.5E1,2.9E1,1E0,2E0,2.6E1,5E0,1E1],"tree_param":{"num_deleted":"0","num_feature":"9","num_nodes":"27","size_leaf_vector":"1"}},{"base_weights":[5.393028E-2,-1.0169584E-1,4.9171734E-1,-2.1919191E-1,3.0537483E-1,-1.5945867E-1,5.8413815E-1,-1.4862987E-1,-8.407383E-1,3.8352126E-1,-5.7788086E-1,3.2354704E-1,-4.1737038E-1,-5.0016856E-3,6.1323184E-1,-9.384885E-3,-6.5080577E-4,-1.545697E-2,1.3030528E-4,-7.1290913E-3,6.9275657E-3,-1.7754627E-2,4.752307E-3,1.1131525E-4,7.1684932E-3,-9.387873E-3,-1.0463857E-3,1.0501402E-2,4.957471E-3],"categories":[],"categories_nodes":[],"categories_segments":[],"categories_sizes":[],"default_left":[0,0,0,0,0,0,0,0,0,0,0,0,0,0,0,0,0,0,0,0,0,0,0,0,0,0,0,0,0],"id":48,"left_children":[1,3,5,7,9,11,13,15,17,19,21,23,25,-1,27,-1,-1,-1,-1,-1,-1,-1,-1,-1,-1,-1,-1,-1,-1],"loss_changes":[1.2994916E1,6.810853E0,3.1022549E0,4.699374E0,2.4303741E0,1.0070487E0,1.3790998E0,4.993244E0,1.781693E0,2.2372293E0,2.0009274E0,1.4283803E-1,3.1870443E-1,0E0,8.24646E-1,0E0,0E0,0E0,0E0,0E0,0E0,0E0,0E0,0E0,0E0,0E0,0E0,0E0,0E0],"parents":[2147483647,0,0,1,1,2,2,3,3,4,4,5,5,6,6,7,7,8,8,9,9,10,10,11,11,12,12,14,14],"right_children":[2,4,6,8,10,12,14,16,18,20,22,24,26,-1,28,-1,-1,-1,-1,-1,-1,-1,-1,-1,-1,-1,-1,-1,-1],"split_conditions":[7.222621E-1,9.6780604E-1,-4.4161695E-1,5.3151E-1,6.0912305E-1,8.0846995E-1,-1.0160797E0,-1.1158049E0,9.418006E-1,-1.27124E0,8.201626E-1,-9.7958535E-2,9.336673E-1,-5.0016856E-3,-9.7958535E-2,-9.384885E-3,-6.5080577E-4,-1.545697E-2,1.3030528E-4,-7.1290913E-3,6.9275657E-3,-1.7754627E-2,4.752307E-3,1.1131525E-4,7.1684932E-3,-9.387873E-3,-1.0463857E-3,1.0501402E-2,4.957471E-3],"split_indices":[3,4,4,4,3,3,0,4,4,3,0,0,3,0,0,0,0,0,0,0,0,0,0,0,0,0,0,0,0],"split_type":[0,0,0,0,0,0,0,0,0,0,0,0,0,0,0,0,0,0,0,0,0,0,0,0,0,0,0,0,0],"sum_hessian":[1.89E2,1.4E2,4.9E1,1.09E2,3.1E1,6E0,4.3E1,9.9E1,1E1,2.9E1,2E0,2E0,4E0,1E0,4.2E1,1.7E1,8.2E1,8E0,2E0,2E0,2.7E1,1E0,1E0,1E0,1E0,2E0,2E0,3.1E1,1.1E1],"tree_param":{"num_deleted":"0","num_feature":"9","num_nodes":"29","size_leaf_vector":"1"}},{"base_weights":[3.326391E-3,-1.8997449E-1,3.2029548E-1,-5.6356776E-1,-9.371382E-2,-1.2688607E-1,4.4371566E-1,-1.0412534E-2,-2.54258E-1,-1.1612439E-2,-6.879811E-1,-5.4073143E-1,2.1687882E-1,5.333265E-1,-4.871013E-2,-1.5195225E-3,-1.1084325E-2,-1.8391283E-3,5.968977E-3,-1.4109101E-2,-2.192758E-3,-3.5560082E-3,-1.4517239E-2,5.623251E-5,1.0693988E-2,8.580338E-3,-1.0220848E-2,-1.942923E-2,6.372646E-3],"categories":[],"categories_nodes":[],"categories_segments":[],"categories_sizes":[],"default_left":[0,0,0,0,0,0,0,0,0,0,0,0,0,0,0,0,0,0,0,0,0,0,0,0,0,0,0,0,0],"id":49,"left_children":[1,3,5,7,9,11,13,-1,15,17,19,21,23,25,27,-1,-1,-1,-1,-1,-1,-1,-1,-1,-1,-1,-1,-1,-1],"loss_changes":[1.2131117E1,4.3705525E0,4.195643E0,8.334069E-1,4.8222365E0,2.5357869E0,2.6294537E0,0E0,5.923809E-1,4.0490785E0,1.5049615E0,8.080847E-1,1.0545665E0,2.7400064E0,6.453472E0,0E0,0E0,0E0,0E0,0E0,0E0,0E0,0E0,0E0,0E0,0E0,0E0,0E0,0E0],"parents":[2147483647,0,0,1,1,2,2,3,3,4,4,5,5,6,6,8,8,9,9,10,10,11,11,12,12,13,13,14,14],"right_children":[2,4,6,8,10,12,14,-1,16,18,20,22,24,26,28,-1,-1,-1,-1,-1,-1,-1,-1,-1,-1,-1,-1,-1,-1],"split_conditions":[2.8555968E-1,-1.1158049E0,-5.570191E-1,-9.7958535E-2,2.5916928E-1,9.9477905E-1,1.0468538E0,-1.0412534E-2,6.8410525E0,-3.5439692E-2,-9.7958535E-2,9.8659974E-1,3.0645235E0,3.0645235E0,1.0743736E0,-1.5195225E-3,-1.1084325E-2,-1.8391283E-3,5.968977E-3,-1.4109101E-2,-2.192758E-3,-3.5560082E-3,-1.4517239E-2,5.623251E-5,1.0693988E-2,8.580338E-3,-1.0220848E-2,-1.942923E-2,6.372646E-3],"split_indices":[4,4,0,0,4,4,4,0,5,4,0,4,6,6,4,0,0,0,0,0,0,0,0,0,0,0,0,0,0],"split_type":[0,0,0,0,0,0,0,0,0,0,0,0,0,0,0,0,0,0,0,0,0,0,0,0,0,0,0,0,0],"sum_hessian":[1.96E2,1.22E2,7.4E1,2.4E1,9.8E1,1.6E1,5.8E1,1.6E1,8E0,8.7E1,1.1E1,7E0,9E0,4.9E1,9E0,7E0,1E0,6.9E1,1.8E1,7E0,4E0,5E0,2E0,7E0,2E0,4.8E1,1E0,2E0,7E0],"tree_param":{"num_deleted":"0","num_feature":"9","num_nodes":"29","size_leaf_vector":"1"}},{"base_weights":[-1.678397E-2,-6.0457903E-1,7.2921276E-2,-7.5625384E-1,-3.4278804E-1,-1.690072E-2,3.5179198E-1,-8.1548715E-1,5.47598E-4,-1.2337826E-1,-1.0438658E-2,3.6632504E-2,-1.6271226E-2,6.5962994E-3,1.7587294E-1,-2.510477E-3,-1.3643406E-2,-5.46044E-3,3.1242021E-3,9.927453E-4,-1.2553175E-2,-1.8092139E-2,5.41112E-3],"categories":[],"categories_nodes":[],"categories_segments":[],"categories_sizes":[],"default_left":[0,0,0,0,0,0,0,0,0,0,0,0,0,0,0,0,0,0,0,0,0,0,0],"id":50,"left_children":[1,3,5,7,9,11,13,15,-1,17,-1,19,-1,-1,21,-1,-1,-1,-1,-1,-1,-1,-1],"loss_changes":[9.957008E0,7.334423E-1,4.1139364E0,7.3413944E-1,7.664037E-1,7.185404E0,5.416217E-1,7.0136356E-1,0E0,7.1433175E-1,0E0,3.1529112E0,0E0,0E0,4.2674713E0,0E0,0E0,0E0,0E0,0E0,0E0,0E0,0E0],"parents":[2147483647,0,0,1,1,2,2,3,3,4,4,5,5,6,6,7,7,9,9,11,11,14,14],"right_children":[2,4,6,8,10,12,14,16,-1,18,-1,20,-1,-1,22,-1,-1,-1,-1,-1,-1,-1,-1],"split_conditions":[-1.2927505E0,-1.7564241E0,9.418006E-1,3.7298021E0,-1.6390806E0,8.7156236E-1,1.0241215E0,2.4272989E-1,5.47598E-4,-1.6952987E0,-1.0438658E-2,6.8410525E0,-1.6271226E-2,6.5962994E-3,1.0248941E0,-2.510477E-3,-1.3643406E-2,-5.46044E-3,3.1242021E-3,9.927453E-4,-1.2553175E-2,-1.8092139E-2,5.41112E-3],"split_indices":[4,4,4,1,4,4,4,8,0,4,0,5,0,0,4,0,0,0,0,0,0,0,0],"split_type":[0,0,0,0,0,0,0,0,0,0,0,0,0,0,0,0,0,0,0,0,0,0,0],"sum_hessian":[1.87E2,2.4E1,1.63E2,1.4E1,1E1,1.24E2,3.9E1,1.3E1,1E0,7E0,3E0,1.19E2,5E0,2.5E1,1.4E1,2E0,1.1E1,4E0,3E0,1.16E2,3E0,1E0,1.3E1],"tree_param":{"num_deleted":"0","num_feature":"9","num_nodes":"23","size_leaf_vector":"1"}},{"base_weights":[-6.738871E-4,-3.7607345E-1,1.7862646E-1,-6.2277097E-1,-1.6689843E-1,2.284567E-2,4.8621854E-1,-6.620856E-1,-6.1348837E-2,2.2454013E-1,-4.2620206E-1,-1.0857947E-1,3.1773633E-1,5.263596E-1,-9.599906E-3,-2.8011643E-3,-1.03896465E-2,-1.9238394E-3,5.4349063E-4,5.429482E-3,-1.274561E-2,-2.2721281E-3,-1.9949675E-2,-2.5314346E-3,9.3494095E-3,-7.809037E-4,7.891066E-3,8.634479E-3,-1.6540741E-3],"categories":[],"categories_nodes":[],"categories_segments":[],"categories_sizes":[],"default_left":[0,0,0,0,0,0,0,0,0,0,0,0,0,0,0,0,0,0,0,0,0,0,0,0,0,0,0,0,0],"id":51,"left_children":[1,3,5,7,9,11,13,15,17,19,21,23,25,27,-1,-1,-1,-1,-1,-1,-1,-1,-1,-1,-1,-1,-1,-1,-1],"loss_changes":[1.3327103E1,3.1986494E0,6.409762E0,5.9947395E-1,3.7497516E0,3.522544E0,2.3711977E0,2.628336E-1,2.4233766E-2,2.5219972E0,5.260956E0,2.8801007E0,2.1845493E0,1.4436817E0,0E0,0E0,0E0,0E0,0E0,0E0,0E0,0E0,0E0,0E0,0E0,0E0,0E0,0E0,0E0],"parents":[2147483647,0,0,1,1,2,2,3,3,4,4,5,5,6,6,7,7,8,8,9,9,10,10,11,11,12,12,13,13],"right_children":[2,4,6,8,10,12,14,16,18,20,22,24,26,28,-1,-1,-1,-1,-1,-1,-1,-1,-1,-1,-1,-1,-1,-1,-1],"split_conditions":[-5.478565E-1,-1.1158049E0,6.252615E-1,1.4211742E0,-9.7958535E-2,8.201626E-1,3.0645235E0,-1.2556007E0,8.201626E-1,1.4326742E-1,-6.278693E-1,2.1913571E0,-4.7785076E-1,2.1973443E0,-9.599906E-3,-2.8011643E-3,-1.03896465E-2,-1.9238394E-3,5.4349063E-4,5.429482E-3,-1.274561E-2,-2.2721281E-3,-1.9949675E-2,-2.5314346E-3,9.3494095E-3,-7.809037E-4,7.891066E-3,8.634479E-3,-1.6540741E-3],"split_indices":[4,4,3,2,0,0,6,3,0,3,4,4,3,0,0,0,0,0,0,0,0,0,0,0,0,0,0,0,0],"split_type":[0,0,0,0,0,0,0,0,0,0,0,0,0,0,0,0,0,0,0,0,0,0,0,0,0,0,0,0,0],"sum_hessian":[1.96E2,6.3E1,1.33E2,2.8E1,3.5E1,8.9E1,4.4E1,2.6E1,2E0,1.4E1,2.1E1,6.2E1,2.7E1,4.3E1,1E0,2E0,2.4E1,1E0,1E0,1.3E1,1E0,1.7E1,4E0,5.8E1,4E0,1E1,1.7E1,4E1,3E0],"tree_param":{"num_deleted":"0","num_feature":"9","num_nodes":"29","size_leaf_vector":"1"}},{"base_weights":[-8.821143E-3,-2.5469682E-1,2.4491188E-1,-2.0409882E-1,-2.0890877E-2,2.9961085E-1,-4.8553374E-1,-2.5922516E-1,4.2780334E-1,1.662914E-1,5.103837E-1,6.488977E-3,-7.106555E-1,-1.40361665E-2,-3.3650887E-3,2.730782E-3,9.420622E-3,7.2797E-5,5.965638E-3,9.958914E-3,1.5154938E-4,-1.2028035E-2,-1.9094109E-3],"categories":[],"categories_nodes":[],"categories_segments":[],"categories_sizes":[],"default_left":[0,0,0,0,0,0,0,0,0,0,0,0,0,0,0,0,0,0,0,0,0,0,0],"id":52,"left_children":[1,3,5,7,-1,9,11,13,15,17,19,-1,21,-1,-1,-1,-1,-1,-1,-1,-1,-1,-1],"loss_changes":[1.204064E1,5.3587775E0,3.9411602E0,3.4201713E0,0E0,2.416038E0,1.7542695E0,1.8669624E0,2.7933383E-1,2.0902126E0,2.6050014E0,0E0,2.1718907E-1,0E0,0E0,0E0,0E0,0E0,0E0,0E0,0E0,0E0,0E0],"parents":[2147483647,0,0,1,1,2,2,3,3,5,5,6,6,7,7,8,8,9,9,10,10,12,12],"right_children":[2,4,6,8,-1,10,12,14,16,18,20,-1,22,-1,-1,-1,-1,-1,-1,-1,-1,-1,-1],"split_conditions":[-2.3139462E-1,-2.553839E-1,3.0645235E0,2.3709261E0,-2.0890877E-2,9.2483366E-1,-5.570191E-1,-2.0777678E0,-1.0236646E0,8.201626E-1,-9.7958535E-2,6.488977E-3,1.4211742E0,-1.40361665E-2,-3.3650887E-3,2.730782E-3,9.420622E-3,7.2797E-5,5.965638E-3,9.958914E-3,1.5154938E-4,-1.2028035E-2,-1.9094109E-3],"split_indices":[3,3,6,1,0,3,0,8,3,0,0,0,2,0,0,0,0,0,0,0,0,0,0],"split_type":[0,0,0,0,0,0,0,0,0,0,0,0,0,0,0,0,0,0,0,0,0,0,0],"sum_hessian":[1.91E2,9.7E1,9.4E1,9.4E1,3E0,8.8E1,6E0,8.7E1,7E0,5.5E1,3.3E1,1E0,5E0,3E0,8.4E1,4E0,3E0,3.3E1,2.2E1,2.5E1,8E0,4E0,1E0],"tree_param":{"num_deleted":"0","num_feature":"9","num_nodes":"23","size_leaf_vector":"1"}},{"base_weights":[-9.384592E-3,-4.3340963E-1,1.8312973E-1,-2.842861E-1,-1.1356863E0,-8.1888515E-1,2.297614E-1,-5.7925355E-1,-1.00265235E-1,-2.1652853E-2,-4.6957424E-3,-9.435743E-4,-1.4362503E-2,1.4636129E-1,5.746385E-1,-9.986145E-3,7.3316824E-3,8.609761E-3,-3.695773E-3,3.435981E-4,5.888956E-3,9.72091E-3,-2.330053E-3],"categories":[],"categories_nodes":[],"categories_segments":[],"categories_sizes":[],"default_left":[0,0,0,0,0,0,0,0,0,0,0,0,0,0,0,0,0,0,0,0,0,0,0],"id":53,"left_children":[1,3,5,7,9,11,13,15,17,-1,-1,-1,-1,19,21,-1,-1,-1,-1,-1,-1,-1,-1],"loss_changes":[1.5425978E1,5.8559723E0,6.2624803E0,2.6559286E0,2.0804892E0,5.6851006E-1,3.5112429E0,2.0805001E0,3.294095E0,0E0,0E0,0E0,0E0,3.0917025E0,1.3869805E0,0E0,0E0,0E0,0E0,0E0,0E0,0E0,0E0],"parents":[2147483647,0,0,1,1,2,2,3,3,4,4,5,5,6,6,7,7,8,8,13,13,14,14],"right_children":[2,4,6,8,10,12,14,16,18,-1,-1,-1,-1,20,22,-1,-1,-1,-1,-1,-1,-1,-1],"split_conditions":[-5.08033E-1,-8.717627E-2,-1.220963E0,-1.1158049E0,7.176679E-1,-1.0160797E0,1.5760368E0,-2.3139462E-1,-7.9267526E-1,-2.1652853E-2,-4.6957424E-3,-9.435743E-4,-1.4362503E-2,8.201626E-1,2.1973443E0,-9.986145E-3,7.3316824E-3,8.609761E-3,-3.695773E-3,3.435981E-4,5.888956E-3,9.72091E-3,-2.330053E-3],"split_indices":[4,3,3,4,3,0,3,3,4,0,0,0,0,0,0,0,0,0,0,0,0,0,0],"split_type":[0,0,0,0,0,0,0,0,0,0,0,0,0,0,0,0,0,0,0,0,0,0,0],"sum_hessian":[1.87E2,5.8E1,1.29E2,4.9E1,9E0,5E0,1.24E2,1.8E1,3.1E1,6E0,3E0,1E0,4E0,1.01E2,2.3E1,1.7E1,1E0,5E0,2.6E1,6.8E1,3.3E1,2.1E1,2E0],"tree_param":{"num_deleted":"0","num_feature":"9","num_nodes":"23","size_leaf_vector":"1"}},{"base_weights":[8.7402295E-3,-2.1428338E-1,2.3397295E-1,-1.6316676E-1,-2.0620981E-2,2.6216266E-1,-1.1050383E-2,-5.8191717E-1,-8.968295E-2,6.151806E-1,2.037121E-1,-6.5697217E-3,-1.4455316E-2,-1.7507144E-3,9.915706E-3,1.0483661E-2,3.7809017E-3,-1.399566E-2,3.649488E-3],"categories":[],"categories_nodes":[],"categories_segments":[],"categories_sizes":[],"default_left":[0,0,0,0,0,0,0,0,0,0,0,0,0,0,0,0,0,0,0],"id":54,"left_children":[1,3,5,7,-1,9,-1,11,13,15,17,-1,-1,-1,-1,-1,-1,-1,-1],"loss_changes":[9.795185E0,5.588875E0,2.847322E0,2.871093E0,0E0,1.834919E0,0E0,3.47229E-1,1.7411991E0,2.1908617E-1,3.9620838E0,0E0,0E0,0E0,0E0,0E0,0E0,0E0,0E0],"parents":[2147483647,0,0,1,1,2,2,3,3,5,5,7,7,8,8,9,9,10,10],"right_children":[2,4,6,8,-1,10,-1,12,14,16,18,-1,-1,-1,-1,-1,-1,-1,-1],"split_conditions":[-2.3139462E-1,-2.553839E-1,6.8410525E0,-1.220963E0,-2.0620981E-2,-6.8794385E-2,-1.1050383E-2,-1.2556007E0,-3.227782E-1,2.1973443E0,-5.765234E-2,-6.5697217E-3,-1.4455316E-2,-1.7507144E-3,9.915706E-3,1.0483661E-2,3.7809017E-3,-1.399566E-2,3.649488E-3],"split_indices":[3,3,5,3,0,3,0,3,3,0,3,0,0,0,0,0,0,0,0],"split_type":[0,0,0,0,0,0,0,0,0,0,0,0,0,0,0,0,0,0,0],"sum_hessian":[1.93E2,9.7E1,9.6E1,9.4E1,3E0,9.4E1,2E0,1.3E1,8.1E1,1.2E1,8.2E1,1.1E1,2E0,7.9E1,2E0,9E0,3E0,2E0,8E1],"tree_param":{"num_deleted":"0","num_feature":"9","num_nodes":"19","size_leaf_vector":"1"}},{"base_weights":[3.225691E-2,-1.2742952E-1,2.778244E-1,-6.7135274E-1,-6.282263E-2,1.8044588E-1,5.7075506E-1,-5.1940805E-1,-1.4310762E-2,-2.0202892E-2,-8.941289E-1,7.531595E-1,8.520277E-2,9.169815E-3,-8.914983E-4,-9.773561E-3,-2.3740705E-3,3.542848E-4,-1.27316695E-2,-1.634674E-2,-6.006483E-3,1.3400798E-3,1.2528426E-2,2.257286E-3,-6.279299E-3],"categories":[],"categories_nodes":[],"categories_segments":[],"categories_sizes":[],"default_left":[0,0,0,0,0,0,0,0,0,0,0,0,0,0,0,0,0,0,0,0,0,0,0,0,0],"id":55,"left_children":[1,3,5,7,9,11,13,15,-1,17,19,21,23,-1,-1,-1,-1,-1,-1,-1,-1,-1,-1,-1,-1],"loss_changes":[7.3683825E0,3.9639192E0,2.007872E0,1.9912243E-2,3.6312318E0,3.0450094E0,4.9648857E-1,3.741629E-1,0E0,3.6147096E0,4.6584368E-2,3.6121416E-1,1.7075486E0,0E0,0E0,0E0,0E0,0E0,0E0,0E0,0E0,0E0,0E0,0E0,0E0],"parents":[2147483647,0,0,1,1,2,2,3,3,4,4,5,5,6,6,7,7,9,9,10,10,11,11,12,12],"right_children":[2,4,6,8,10,12,14,16,-1,18,20,22,24,-1,-1,-1,-1,-1,-1,-1,-1,-1,-1,-1,-1],"split_conditions":[9.133149E-2,-1.220963E0,1.5760368E0,-1.2556007E0,6.8410525E0,2.2726227E-1,2.3019185E0,-1.3128322E0,-1.4310762E-2,-8.591712E-3,-5.3833663E-1,9.2537E-2,1.1863781E0,9.169815E-3,-8.914983E-4,-9.773561E-3,-2.3740705E-3,3.542848E-4,-1.27316695E-2,-1.634674E-2,-6.006483E-3,1.3400798E-3,1.2528426E-2,2.257286E-3,-6.279299E-3],"split_indices":[3,3,3,3,5,3,3,3,0,3,3,3,3,0,0,0,0,0,0,0,0,0,0,0,0],"split_type":[0,0,0,0,0,0,0,0,0,0,0,0,0,0,0,0,0,0,0,0,0,0,0,0,0],"sum_hessian":[1.86E2,1.13E2,7.3E1,1.1E1,1.02E2,5.6E1,1.7E1,9E0,2E0,9.8E1,4E0,7E0,4.9E1,1.6E1,1E0,6E0,3E0,9.4E1,4E0,2E0,2E0,1E0,6E0,4.4E1,5E0],"tree_param":{"num_deleted":"0","num_feature":"9","num_nodes":"25","size_leaf_vector":"1"}},{"base_weights":[-9.415671E-3,-5.148783E-1,1.7118143E-1,-5.8208054E-1,1.3915586E-1,-2.5339872E-1,2.8953558E-1,-3.70916E-1,-8.583766E-1,3.6235273E-2,4.131287E-3,1.6984677E-1,-5.372544E-1,1.6855004E-1,4.793137E-1,-1.3599602E-2,-3.3854996E-3,-8.021812E-3,-1.5471155E-2,-3.6297797E-4,9.666908E-4,-1.6504907E-3,5.782195E-3,-9.305622E-3,5.9450427E-3,3.4653393E-4,7.842083E-3,8.508389E-3,-1.2613395E-3],"categories":[],"categories_nodes":[],"categories_segments":[],"categories_sizes":[],"default_left":[0,0,0,0,0,0,0,0,0,0,0,0,0,0,0,0,0,0,0,0,0,0,0,0,0,0,0,0,0],"id":56,"left_children":[1,3,5,7,9,11,13,15,17,19,-1,21,23,25,27,-1,-1,-1,-1,-1,-1,-1,-1,-1,-1,-1,-1,-1,-1],"loss_changes":[1.5606603E1,2.0588655E0,6.404971E0,2.0737152E0,6.014158E-2,3.455189E0,2.1922922E0,1.7402644E0,4.0027523E-1,8.379038E-3,0E0,7.6663005E-1,1.5650845E0,3.1825147E0,1.9298391E0,0E0,0E0,0E0,0E0,0E0,0E0,0E0,0E0,0E0,0E0,0E0,0E0,0E0,0E0],"parents":[2147483647,0,0,1,1,2,2,3,3,4,4,5,5,6,6,7,7,8,8,9,9,11,11,12,12,13,13,14,14],