{"learner":{"attributes":{"scikit_learn":"{\"_estimator_type\": \"classifier\"}"},"feature_names":[],"feature_types":[],"gradient_booster":{"model":{"cats":{"enc":[],"feature_segments":[],"sorted_idx":[]},"gbtree_model_param":{"num_parallel_tree":"1","num_trees":"200"},"iteration_indptr":[0,1,2,3,4,5,6,7,8,9,10,11,12,13,14,15,16,17,18,19,20,21,22,23,24,25,26,27,28,29,30,31,32,33,34,35,36,37,38,39,40,41,42,43,44,45,46,47,48,49,50,51,52,53,54,55,56,57,58,59,60,61,62,63,64,65,66,67,68,69,70,71,72,73,74,75,76,77,78,79,80,81,82,83,84,85,86,87,88,89,90,91,92,93,94,95,96,97,98,99,100,101,102,103,104,105,106,107,108,109,110,111,112,113,114,115,116,117,118,119,120,121,122,123,124,125,126,127,128,129,130,131,132,133,134,135,136,137,138,139,140,141,142,143,144,145,146,147,148,149,150,151,152,153,154,155,156,157,158,159,160,161,162,163,164,165,166,167,168,169,170,171,172,173,174,175,176,177,178,179,180,181,182,183,184,185,186,187,188,189,190,191,192,193,194,195,196,197,198,199,200],"tree_info":[0,0,0,0,0,0,0,0,0,0,0,0,0,0,0,0,0,0,0,0,0,0,0,0,0,0,0,0,0,0,0,0,0,0,0,0,0,0,0,0,0,0,0,0,0,0,0,0,0,0,0,0,0,0,0,0,0,0,0,0,0,0,0,0,0,0,0,0,0,0,0,0,0,0,0,0,0,0,0,0,0,0,0,0,0,0,0,0,0,0,0,0,0,0,0,0,0,0,0,0,0,0,0,0,0,0,0,0,0,0,0,0,0,0,0,0,0,0,0,0,0,0,0,0,0,0,0,0,0,0,0,0,0,0,0,0,0,0,0,0,0,0,0,0,0,0,0,0,0,0,0,0,0,0,0,0,0,0,0,0,0,0,0,0,0,0,0,0,0,0,0,0,0,0,0,0,0,0,0,0,0,0,0,0,0,0,0,0,0,0,0,0,0,0,0,0,0,0,0,0],"trees":[{"base_weights":[1.7927289E-2,-1.2563913E0,9.8658055E-2,-1.2735809E0,5.951456E-2,-1.5110172E0,-1.184907E0,-7.6693E-2,-3.3931185E-2,-6.0610604E-2,-3.53015E-2],"categories":[],"categories_nodes":[],"categories_segments":[],"categories_sizes":[],"default_left":[0,0,0,0,0,0,0,0,0,0,0],"id":0,"left_children":[1,3,-1,5,-1,7,9,-1,-1,-1,-1],"loss_changes":[1.1697123E3,1.3470032E1,0E0,4.1623535E0,0E0,3.5177612E-1,1.8964233E0,0E0,0E0,0E0,0E0],"parents":[2147483647,0,0,1,1,3,3,5,5,6,6],"right_children":[2,4,-1,6,-1,8,10,-1,-1,-1,-1],"split_conditions":[1E0,4E0,9.8658055E-2,2.8E1,5.951456E-2,2.44E2,2E0,-7.6693E-2,-3.3931185E-2,-6.0610604E-2,-3.53015E-2],"split_indices":[9,2,0,5,0,4,7,0,0,0,0],"split_type":[0,0,0,0,0,0,0,0,0,0,0],"sum_hessian":[4.674691E2,2.8323126E2,1.8423782E2,2.8173138E2,1.4999008E0,7.2245224E1,2.0948615E2,6.949541E1,2.7498183E0,1.96737E2,1.2749157E1],"tree_param":{"num_deleted":"0","num_feature":"10","num_nodes":"11","size_leaf_vector":"1"}},{"base_weights":[-2.9847883E-2,-9.272022E-2,9.5599756E-2],"categories":[],"categories_nodes":[],"categories_segments":[],"categories_sizes":[],"default_left":[0,0,0],"id":1,"left_children":[1,-1,-1],"loss_changes":[1.6501061E3,0E0,0E0],"parents":[2147483647,0,0],"right_children":[2,-1,-1],"split_conditions":[4E0,-9.272022E-2,9.5599756E-2],"split_indices":[3,0,0],"split_type":[0,0,0],"sum_hessian":[4.63736E2,2.3911163E2,2.2462436E2],"tree_param":{"num_deleted":"0","num_feature":"10","num_nodes":"3","size_leaf_vector":"1"}},{"base_weights":[-2.487193E-2,-1.747876E0,9.149759E-2,-9.306102E-2,9.2793904E-2],"categories":[],"categories_nodes":[],"categories_segments":[],"categories_sizes":[],"default_left":[0,0,0,0,0],"id":2,"left_children":[1,3,-1,-1,-1],"loss_changes":[1.4600833E3,1.0019568E2,0E0,0E0,0E0],"parents":[2147483647,0,0,1,1],"right_children":[2,4,-1,-1,-1],"split_conditions":[4E0,6.805359E0,9.149759E-2,-9.306102E-2,9.2793904E-2],"split_indices":[3,1,0,0,0],"split_type":[0,0,0,0,0],"sum_hessian":[4.5486493E2,2.3584177E2,2.1902316E2,2.2911911E2,6.7226567E0],"tree_param":{"num_deleted":"0","num_feature":"10","num_nodes":"5","size_leaf_vector":"1"}},{"base_weights":[-3.84801E-2,-1.6867121E0,8.781897E-2,-8.922405E-2,8.720064E-2],"categories":[],"categories_nodes":[],"categories_segments":[],"categories_sizes":[],"default_left":[0,0,0,0,0],"id":3,"left_children":[1,3,-1,-1,-1],"loss_changes":[1.3806156E3,8.4708496E1,0E0,0E0,0E0],"parents":[2147483647,0,0,1,1],"right_children":[2,4,-1,-1,-1],"split_conditions":[4E0,6.805359E0,8.781897E-2,-8.922405E-2,8.720064E-2],"split_indices":[3,1,0,0,0],"split_type":[0,0,0,0,0],"sum_hessian":[4.6468375E2,2.4226779E2,2.2241595E2,2.360215E2,6.2462907E0],"tree_param":{"num_deleted":"0","num_feature":"10","num_nodes":"5","size_leaf_vector":"1"}},{"base_weights":[1.1580159E-3,-1.4983593E-1,8.341146E-2,-3.5850868E-1,-5.108724E-2,-4.191716E-1,1.06471024E-1,1.5233434E-2,-4.027645E-1,-1.8820861E-2,-4.63476E-2,-2.4214468E-3,4.141719E-2,2.7829096E-2,-9.1033673E-4,-2.4835845E-2,1.747048E-2],"categories":[],"categories_nodes":[],"categories_segments":[],"categories_sizes":[],"default_left":[0,0,0,0,0,0,0,0,0,0,0,0,0,0,0,0,0],"id":4,"left_children":[1,3,-1,5,7,9,11,13,15,-1,-1,-1,-1,-1,-1,-1,-1],"loss_changes":[1.1494387E2,8.609904E0,0E0,3.8337803E0,6.6623483E0,2.2352657E0,1.862806E0,4.3741746E0,3.3760223E0,0E0,0E0,0E0,0E0,0E0,0E0,0E0,0E0],"parents":[2147483647,0,0,1,1,3,3,4,4,5,5,6,6,7,7,8,8],"right_children":[2,4,-1,6,8,10,12,14,16,-1,-1,-1,-1,-1,-1,-1,-1],"split_conditions":[6.632477E0,3.2E1,8.341146E-2,2.32E2,1E0,2.26E2,6.966782E-1,3.3E1,4E0,-1.8820861E-2,-4.63476E-2,-2.4214468E-3,4.141719E-2,2.7829096E-2,-9.1033673E-4,-2.4835845E-2,1.747048E-2],"split_indices":[1,5,0,4,7,4,1,5,7,0,0,0,0,0,0,0,0],"split_type":[0,0,0,0,0,0,0,0,0,0,0,0,0,0,0,0,0],"sum_hessian":[4.5464502E2,4.1772037E2,3.6924644E1,1.3333353E2,2.8438687E2,1.1803302E2,1.5300501E1,2.4007018E2,4.431669E1,1.1047268E2,7.560345E0,1.3365446E1,1.9350548E0,1.3056703E1,2.2701347E2,3.9697758E1,4.618934E0],"tree_param":{"num_deleted":"0","num_feature":"10","num_nodes":"17","size_leaf_vector":"1"}},{"base_weights":[3.984608E-2,-8.049212E-2,8.447506E-2],"categories":[],"categories_nodes":[],"categories_segments":[],"categories_sizes":[],"default_left":[0,0,0],"id":5,"left_children":[1,-1,-1],"loss_changes":[1.2545228E3,0E0,0E0],"parents":[2147483647,0,0],"right_children":[2,-1,-1],"split_conditions":[4E0,-8.049212E-2,8.447506E-2],"split_indices":[3,0,0],"split_type":[0,0,0],"sum_hessian":[4.5898206E2,2.295008E2,2.2948128E2],"tree_param":{"num_deleted":"0","num_feature":"10","num_nodes":"3","size_leaf_vector":"1"}},{"base_weights":[1.3504062E-2,-7.7987105E-2,8.1610724E-2],"categories":[],"categories_nodes":[],"categories_segments":[],"categories_sizes":[],"default_left":[0,0,0],"id":6,"left_children":[1,-1,-1],"loss_changes":[1.1363002E3,0E0,0E0],"parents":[2147483647,0,0],"right_children":[2,-1,-1],"split_conditions":[4E0,-7.7987105E-2,8.1610724E-2],"split_indices":[3,0,0],"split_type":[0,0,0],"sum_hessian":[4.441979E2,2.2528087E2,2.1891704E2],"tree_param":{"num_deleted":"0","num_feature":"10","num_nodes":"3","size_leaf_vector":"1"}},{"base_weights":[-1.893726E-2,-1.5031575E0,7.915249E-2,-8.026335E-2,8.7126374E-2],"categories":[],"categories_nodes":[],"categories_segments":[],"categories_sizes":[],"default_left":[0,0,0,0,0],"id":7,"left_children":[1,3,-1,-1,-1],"loss_changes":[1.0539124E3,7.9047424E1,0E0,0E0,0E0],"parents":[2147483647,0,0,1,1],"right_children":[2,4,-1,-1,-1],"split_conditions":[4E0,6.632477E0,7.915249E-2,-8.026335E-2,8.7126374E-2],"split_indices":[3,1,0,0,0],"split_type":[0,0,0,0,0],"sum_hessian":[4.412476E2,2.2907462E2,2.1217299E2,2.2257771E2,6.4968934E0],"tree_param":{"num_deleted":"0","num_feature":"10","num_nodes":"5","size_leaf_vector":"1"}},{"base_weights":[1.7189166E-2,-7.293477E-2,7.692631E-2],"categories":[],"categories_nodes":[],"categories_segments":[],"categories_sizes":[],"default_left":[0,0,0],"id":8,"left_children":[1,-1,-1],"loss_changes":[9.677909E2,0E0,0E0],"parents":[2147483647,0,0],"right_children":[2,-1,-1],"split_conditions":[4E0,-7.293477E-2,7.692631E-2],"split_indices":[3,0,0],"split_type":[0,0,0],"sum_hessian":[4.290267E2,2.1778732E2,2.1123936E2],"tree_param":{"num_deleted":"0","num_feature":"10","num_nodes":"3","size_leaf_vector":"1"}},{"base_weights":[5.7535283E-3,-1.4313451E0,7.490521E-2,-7.5918235E-2,8.414398E-2],"categories":[],"categories_nodes":[],"categories_segments":[],"categories_sizes":[],"default_left":[0,0,0,0,0],"id":9,"left_children":[1,3,-1,-1,-1],"loss_changes":[8.9423413E2,6.011914E1,0E0,0E0,0E0],"parents":[2147483647,0,0,1,1],"right_children":[2,4,-1,-1,-1],"split_conditions":[4E0,6.6302547E0,7.490521E-2,-7.5918235E-2,8.414398E-2],"split_indices":[3,1,0,0,0],"split_type":[0,0,0,0,0],"sum_hessian":[4.149596E2,2.1141388E2,2.0354572E2,2.0616551E2,5.248365E0],"tree_param":{"num_deleted":"0","num_feature":"10","num_nodes":"5","size_leaf_vector":"1"}},{"base_weights":[1.2926698E-2,-1.3860631E0,7.3057115E-2,-7.400418E-2,8.1826985E-2],"categories":[],"categories_nodes":[],"categories_segments":[],"categories_sizes":[],"default_left":[0,0,0,0,0],"id":10,"left_children":[1,3,-1,-1,-1],"loss_changes":[8.270335E2,6.142917E1,0E0,0E0,0E0],"parents":[2147483647,0,0,1,1],"right_children":[2,4,-1,-1,-1],"split_conditions":[4E0,6.632477E0,7.3057115E-2,-7.400418E-2,8.1826985E-2],"split_indices":[3,1,0,0,0],"split_type":[0,0,0,0,0],"sum_hessian":[4.0620258E2,2.0663457E2,1.9956801E2,2.0089587E2,5.7386947E0],"tree_param":{"num_deleted":"0","num_feature":"10","num_nodes":"5","size_leaf_vector":"1"}},{"base_weights":[-1.6524553E-2,-1.3616507E0,7.143309E-2,-7.226468E-2,7.77314E-2],"categories":[],"categories_nodes":[],"categories_segments":[],"categories_sizes":[],"default_left":[0,0,0,0,0],"id":11,"left_children":[1,3,-1,-1,-1],"loss_changes":[7.719094E2,5.2411163E1,0E0,0E0,0E0],"parents":[2147483647,0,0,1,1],"right_children":[2,4,-1,-1,-1],"split_conditions":[4E0,6.632477E0,7.143309E-2,-7.226468E-2,7.77314E-2],"split_indices":[3,1,0,0,0],"split_type":[0,0,0,0,0],"sum_hessian":[3.950806E2,2.04654E2,1.9042659E2,1.9943825E2,5.2157526E0],"tree_param":{"num_deleted":"0","num_feature":"10","num_nodes":"5","size_leaf_vector":"1"}},{"base_weights":[1.1500378E-2,-1.3307503E0,6.995884E-2,-7.072097E-2,7.4629664E-2],"categories":[],"categories_nodes":[],"categories_segments":[],"categories_sizes":[],"default_left":[0,0,0,0,0],"id":12,"left_children":[1,3,-1,-1,-1],"loss_changes":[7.23321E2,4.8743256E1,0E0,0E0,0E0],"parents":[2147483647,0,0,1,1],"right_children":[2,4,-1,-1,-1],"split_conditions":[4E0,6.805359E0,6.995884E-2,-7.072097E-2,7.4629664E-2],"split_indices":[3,1,0,0,0],"split_type":[0,0,0,0,0],"sum_hessian":[3.8633768E2,1.96404E2,1.8993367E2,1.9123581E2,5.1681986E0],"tree_param":{"num_deleted":"0","num_feature":"10","num_nodes":"5","size_leaf_vector":"1"}},{"base_weights":[-1.1399183E-2,-1.2851665E0,6.856833E-2,-6.925809E-2,7.474428E-2],"categories":[],"categories_nodes":[],"categories_segments":[],"categories_sizes":[],"default_left":[0,0,0,0,0],"id":13,"left_children":[1,3,-1,-1,-1],"loss_changes":[6.685375E2,5.6992126E1,0E0,0E0,0E0],"parents":[2147483647,0,0,1,1],"right_children":[2,4,-1,-1,-1],"split_conditions":[4E0,6.632477E0,6.856833E-2,-6.925809E-2,7.474428E-2],"split_indices":[3,1,0,0,0],"split_type":[0,0,0,0,0],"sum_hessian":[3.775652E2,1.9656514E2,1.8100006E2,1.9022473E2,6.340407E0],"tree_param":{"num_deleted":"0","num_feature":"10","num_nodes":"5","size_leaf_vector":"1"}},{"base_weights":[2.3064887E-2,-6.3036196E-2,6.734389E-2],"categories":[],"categories_nodes":[],"categories_segments":[],"categories_sizes":[],"default_left":[0,0,0],"id":14,"left_children":[1,-1,-1],"loss_changes":[6.2433734E2,0E0,0E0],"parents":[2147483647,0,0],"right_children":[2,-1,-1],"split_conditions":[4E0,-6.3036196E-2,6.734389E-2],"split_indices":[3,0,0],"split_type":[0,0,0],"sum_hessian":[3.6536697E2,1.8551169E2,1.7985527E2],"tree_param":{"num_deleted":"0","num_feature":"10","num_nodes":"3","size_leaf_vector":"1"}},{"base_weights":[1.775834E-2,-1.2190034E0,6.617432E-2,-6.683124E-2,7.5339556E-2],"categories":[],"categories_nodes":[],"categories_segments":[],"categories_sizes":[],"default_left":[0,0,0,0,0],"id":15,"left_children":[1,3,-1,-1,-1],"loss_changes":[5.765702E2,6.0804108E1,0E0,0E0,0E0],"parents":[2147483647,0,0,1,1],"right_children":[2,4,-1,-1,-1],"split_conditions":[4E0,6.805359E0,6.617432E-2,-6.683124E-2,7.5339556E-2],"split_indices":[3,1,0,0,0],"split_type":[0,0,0,0,0],"sum_hessian":[3.5503815E2,1.8236848E2,1.7266966E2,1.7531314E2,7.0553365E0],"tree_param":{"num_deleted":"0","num_feature":"10","num_nodes":"5","size_leaf_vector":"1"}},{"base_weights":[4.462707E-3,-1.2045497E0,6.5080784E-2,-6.57174E-2,7.208731E-2],"categories":[],"categories_nodes":[],"categories_segments":[],"categories_sizes":[],"default_left":[0,0,0,0,0],"id":16,"left_children":[1,3,-1,-1,-1],"loss_changes":[5.320041E2,5.2911774E1,0E0,0E0,0E0],"parents":[2147483647,0,0,1,1],"right_children":[2,4,-1,-1,-1],"split_conditions":[4E0,6.805359E0,6.5080784E-2,-6.57174E-2,7.208731E-2],"split_indices":[3,1,0,0,0],"split_type":[0,0,0,0,0],"sum_hessian":[3.372293E2,1.745817E2,1.626476E2,1.6810991E2,6.4717793E0],"tree_param":{"num_deleted":"0","num_feature":"10","num_nodes":"5","size_leaf_vector":"1"}},{"base_weights":[-1.6310273E-2,-6.086054E-2,6.410428E-2],"categories":[],"categories_nodes":[],"categories_segments":[],"categories_sizes":[],"default_left":[0,0,0],"id":17,"left_children":[1,-1,-1],"loss_changes":[5.1297205E2,0E0,0E0],"parents":[2147483647,0,0],"right_children":[2,-1,-1],"split_conditions":[4E0,-6.086054E-2,6.410428E-2],"split_indices":[3,0,0],"split_type":[0,0,0],"sum_hessian":[3.2698676E2,1.699036E2,1.5708316E2],"tree_param":{"num_deleted":"0","num_feature":"10","num_nodes":"3","size_leaf_vector":"1"}},{"base_weights":[-1.7026834E-2,-1.164884E0,6.3198335E-2,-6.380357E-2,7.177304E-2],"categories":[],"categories_nodes":[],"categories_segments":[],"categories_sizes":[],"default_left":[0,0,0,0,0],"id":18,"left_children":[1,3,-1,-1,-1],"loss_changes":[4.751088E2,5.1100433E1,0E0,0E0,0E0],"parents":[2147483647,0,0,1,1],"right_children":[2,4,-1,-1,-1],"split_conditions":[4E0,6.805359E0,6.3198335E-2,-6.380357E-2,7.177304E-2],"split_indices":[3,1,0,0,0],"split_type":[0,0,0,0,0],"sum_hessian":[3.2111453E2,1.6940594E2,1.5170859E2,1.6294777E2,6.4581647E0],"tree_param":{"num_deleted":"0","num_feature":"10","num_nodes":"5","size_leaf_vector":"1"}},{"base_weights":[6.124062E-4,-7.6770973E-1,6.17762E-2,-8.7181073E-1,6.6534154E-2,-4.493253E-2,-4.5158064E-1,9.26681E-3,-2.8305337E-2],"categories":[],"categories_nodes":[],"categories_segments":[],"categories_sizes":[],"default_left":[0,0,0,0,0,0,0,0,0],"id":19,"left_children":[1,3,-1,5,-1,-1,7,-1,-1],"loss_changes":[2.9277515E2,4.2713074E1,0E0,1.6450958E0,0E0,0E0,1.0478306E0,0E0,0E0],"parents":[2147483647,0,0,1,1,3,3,6,6],"right_children":[2,4,-1,6,-1,-1,8,-1,-1],"split_conditions":[1E0,6.805359E0,6.17762E-2,1.0255208E0,6.6534154E-2,-4.493253E-2,1.961331E0,9.26681E-3,-2.8305337E-2],"split_indices":[9,1,0,1,0,0,1,0,0],"split_type":[0,0,0,0,0,0,0,0,0],"sum_hessian":[3.0657123E2,1.8922185E2,1.17349396E2,1.8083517E2,8.386676E0,1.6890858E2,1.19265785E1,1.7234764E0,1.0203102E1],"tree_param":{"num_deleted":"0","num_feature":"10","num_nodes":"9","size_leaf_vector":"1"}},{"base_weights":[-4.5550074E-3,-7.216727E-1,6.1024267E-2,-8.244231E-1,6.4585105E-2,-8.3063424E-1,4.940994E-4,-4.260963E-2,-2.4422213E-2],"categories":[],"categories_nodes":[],"categories_segments":[],"categories_sizes":[],"default_left":[0,0,0,0,0,0,0,0,0],"id":20,"left_children":[1,3,-1,5,-1,7,-1,-1,-1],"loss_changes":[2.68341E2,4.092251E1,0E0,9.6128845E-1,0E0,9.30603E-1,0E0,0E0,0E0],"parents":[2147483647,0,0,1,1,3,3,5,5],"right_children":[2,4,-1,6,-1,8,-1,-1,-1],"split_conditions":[1E0,6.805359E0,6.1024267E-2,5E0,6.4585105E-2,1.0255208E0,4.940994E-4,-4.260963E-2,-2.4422213E-2],"split_indices":[9,1,0,7,0,1,0,0,0],"split_type":[0,0,0,0,0,0,0,0,0],"sum_hessian":[3.0345166E2,1.916651E2,1.11786575E2,1.8292047E2,8.744618E0,1.815731E2,1.3473657E0,1.694097E2,1.2163411E1],"tree_param":{"num_deleted":"0","num_feature":"10","num_nodes":"9","size_leaf_vector":"1"}},{"base_weights":[-5.7902103E-3,-7.212733E-1,6.0313374E-2,-8.161774E-1,6.408482E-2,-8.377171E-1,-4.636805E-1,-4.2199295E-2,-7.0776055E-3,-2.9351175E-2,-4.2324997E-3],"categories":[],"categories_nodes":[],"categories_segments":[],"categories_sizes":[],"default_left":[0,0,0,0,0,0,0,0,0,0,0],"id":21,"left_children":[1,3,-1,5,-1,7,9,-1,-1,-1,-1],"loss_changes":[2.5441632E2,3.6112366E1,0E0,9.534683E-1,0E0,6.02005E-1,5.308337E-1,0E0,0E0,0E0,0E0],"parents":[2147483647,0,0,1,1,3,3,5,5,6,6],"right_children":[2,4,-1,6,-1,8,10,-1,-1,-1,-1],"split_conditions":[1E0,6.805359E0,6.0313374E-2,1.0255208E0,6.408482E-2,4E0,1E0,-4.2199295E-2,-7.0776055E-3,-2.9351175E-2,-4.2324997E-3],"split_indices":[9,1,0,1,0,7,7,0,0,0,0],"split_type":[0,0,0,0,0,0,0,0,0,0,0],"sum_hessian":[2.913712E2,1.8347185E2,1.07899345E2,1.7573761E2,7.7342324E0,1.6432016E2,1.1417457E1,1.6264326E2,1.6768867E0,8.200216E0,3.2172408E0],"tree_param":{"num_deleted":"0","num_feature":"10","num_nodes":"11","size_leaf_vector":"1"}},{"base_weights":[-3.4869197E-3,-1.1127495E0,6.1193503E-2,-6.131775E-2,6.48091E-2],"categories":[],"categories_nodes":[],"categories_segments":[],"categories_sizes":[],"default_left":[0,0,0,0,0],"id":22,"left_children":[1,3,-1,-1,-1],"loss_changes":[3.8838065E2,4.259619E1,0E0,0E0,0E0],"parents":[2147483647,0,0,1,1],"right_children":[2,4,-1,-1,-1],"split_conditions":[4E0,6.805359E0,6.1193503E-2,-6.131775E-2,6.48091E-2],"split_indices":[3,1,0,0,0],"split_type":[0,0,0,0,0],"sum_hessian":[2.8326724E2,1.4884093E2,1.344263E2,1.426065E2,6.234425E0],"tree_param":{"num_deleted":"0","num_feature":"10","num_nodes":"5","size_leaf_vector":"1"}},{"base_weights":[-2.8859098E-2,-5.5889394E-2,6.0501434E-2],"categories":[],"categories_nodes":[],"categories_segments":[],"categories_sizes":[],"default_left":[0,0,0],"id":23,"left_children":[1,-1,-1],"loss_changes":[3.762222E2,0E0,0E0],"parents":[2147483647,0,0],"right_children":[2,-1,-1],"split_conditions":[4E0,-5.5889394E-2,6.0501434E-2],"split_indices":[3,0,0],"split_type":[0,0,0],"sum_hessian":[2.7687457E2,1.474075E2,1.2946706E2],"tree_param":{"num_deleted":"0","num_feature":"10","num_nodes":"3","size_leaf_vector":"1"}},{"base_weights":[1.6871443E-2,-1.0857397E0,5.9871085E-2,-5.511575E-2,-6.511048E-1,-8.283804E-1,6.718971E-3,-1.6905082E-2,-4.7236156E-2],"categories":[],"categories_nodes":[],"categories_segments":[],"categories_sizes":[],"default_left":[0,0,0,0,0,0,0,0,0],"id":24,"left_children":[1,3,-1,-1,5,7,-1,-1,-1],"loss_changes":[3.4569708E2,2.7160645E-1,0E0,0E0,1.1539724E0,3.7012577E-2,0E0,0E0,0E0],"parents":[2147483647,0,0,1,1,4,4,5,5],"right_children":[2,4,-1,-1,6,8,-1,-1,-1],"split_conditions":[4E0,2E0,5.9871085E-2,-5.511575E-2,3.42E2,3.6E1,6.718971E-3,-1.6905082E-2,-4.7236156E-2],"split_indices":[3,7,0,0,4,5,0,0,0],"split_type":[0,0,0,0,0,0,0,0,0],"sum_hessian":[2.6357724E2,1.3632895E2,1.272483E2,1.2984114E2,6.4878063E0,5.248634E0,1.2391727E0,1.7557645E0,3.4928694E0],"tree_param":{"num_deleted":"0","num_feature":"10","num_nodes":"9","size_leaf_vector":"1"}},{"base_weights":[1.819677E-2,-1.0568509E0,5.9217688E-2,-5.940531E-2,6.605394E-2],"categories":[],"categories_nodes":[],"categories_segments":[],"categories_sizes":[],"default_left":[0,0,0,0,0],"id":25,"left_children":[1,3,-1,-1,-1],"loss_changes":[3.251809E2,4.369655E1,0E0,0E0,0E0],"parents":[2147483647,0,0,1,1],"right_children":[2,4,-1,-1,-1],"split_conditions":[4E0,6.632477E0,5.9217688E-2,-5.940531E-2,6.605394E-2],"split_indices":[3,1,0,0,0],"split_type":[0,0,0,0,0],"sum_hessian":[2.5738388E2,1.3397227E2,1.2341159E2,1.27438385E2,6.5338926E0],"tree_param":{"num_deleted":"0","num_feature":"10","num_nodes":"5","size_leaf_vector":"1"}},{"base_weights":[-2.9641283E-3,-1.0580869E0,5.866256E-2,-5.885596E-2,6.353261E-2],"categories":[],"categories_nodes":[],"categories_segments":[],"categories_sizes":[],"default_left":[0,0,0,0,0],"id":26,"left_children":[1,3,-1,-1,-1],"loss_changes":[3.031061E2,3.7182434E1,0E0,0E0,0E0],"parents":[2147483647,0,0,1,1],"right_children":[2,4,-1,-1,-1],"split_conditions":[4E0,6.805359E0,5.866256E-2,-5.885596E-2,6.353261E-2],"split_indices":[3,1,0,0,0],"split_type":[0,0,0,0,0],"sum_hessian":[2.4223302E2,1.27742325E2,1.1449069E2,1.2200085E2,5.741482E0],"tree_param":{"num_deleted":"0","num_feature":"10","num_nodes":"5","size_leaf_vector":"1"}},{"base_weights":[-1.0653205E-3,-1.0468905E0,5.822141E-2,-5.311371E-2,-6.624476E-1,-4.0891405E-2,2.5205805E-3],"categories":[],"categories_nodes":[],"categories_segments":[],"categories_sizes":[],"default_left":[0,0,0,0,0,0,0],"id":27,"left_children":[1,3,-1,-1,5,-1,-1],"loss_changes":[2.9601685E2,5.329895E-2,0E0,0E0,8.810077E-1,0E0,0E0],"parents":[2147483647,0,0,1,1,4,4],"right_children":[2,4,-1,-1,6,-1,-1],"split_conditions":[4E0,2E0,5.822141E-2,-5.311371E-2,3.42E2,-4.0891405E-2,2.5205805E-3],"split_indices":[3,7,0,0,4,0,0],"split_type":[0,0,0,0,0,0,0],"sum_hessian":[2.4085512E2,1.2699828E2,1.1385683E2,1.2041661E2,6.581676E0,5.2829185E0,1.2987577E0],"tree_param":{"num_deleted":"0","num_feature":"10","num_nodes":"7","size_leaf_vector":"1"}},{"base_weights":[-3.4245304E-3,-1.027107E0,5.7603043E-2,-5.784644E-2,6.342723E-2],"categories":[],"categories_nodes":[],"categories_segments":[],"categories_sizes":[],"default_left":[0,0,0,0,0],"id":28,"left_children":[1,3,-1,-1,-1],"loss_changes":[2.685624E2,3.73463E1,0E0,0E0,0E0],"parents":[2147483647,0,0,1,1],"right_children":[2,4,-1,-1,-1],"split_conditions":[4E0,6.805359E0,5.7603043E-2,-5.784644E-2,6.342723E-2],"split_indices":[3,1,0,0,0],"split_type":[0,0,0,0,0],"sum_hessian":[2.250465E2,1.1938792E2,1.0565858E2,1.1346725E2,5.920669E0],"tree_param":{"num_deleted":"0","num_feature":"10","num_nodes":"5","size_leaf_vector":"1"}},{"base_weights":[1.8155158E-2,-1.0211059E0,5.7210248E-2,-5.141725E-2,-1.8450266E-2],"categories":[],"categories_nodes":[],"categories_segments":[],"categories_sizes":[],"default_left":[0,0,0,0,0],"id":29,"left_children":[1,3,-1,-1,-1],"loss_changes":[2.5859668E2,1.6304779E-1,0E0,0E0,0E0],"parents":[2147483647,0,0,1,1],"right_children":[2,4,-1,-1,-1],"split_conditions":[4E0,1.312E3,5.7210248E-2,-5.141725E-2,-1.8450266E-2],"split_indices":[3,4,0,0,0],"split_type":[0,0,0,0,0],"sum_hessian":[2.1897537E2,1.13924576E2,1.050508E2,1.12103134E2,1.8214464E0],"tree_param":{"num_deleted":"0","num_feature":"10","num_nodes":"5","size_leaf_vector":"1"}},{"base_weights":[1.6170986E-2,-5.0070137E-2,5.6776453E-2],"categories":[],"categories_nodes":[],"categories_segments":[],"categories_sizes":[],"default_left":[0,0,0],"id":30,"left_children":[1,-1,-1],"loss_changes":[2.439384E2,0E0,0E0],"parents":[2147483647,0,0],"right_children":[2,-1,-1],"split_conditions":[4E0,-5.0070137E-2,5.6776453E-2],"split_indices":[3,0,0],"split_type":[0,0,0],"sum_hessian":[2.1216508E2,1.1119056E2,1.0097452E2],"tree_param":{"num_deleted":"0","num_feature":"10","num_nodes":"3","size_leaf_vector":"1"}},{"base_weights":[-3.4564047E-3,-6.014927E-1,5.5257868E-2,-7.2212386E-1,6.2239498E-2,-3.7078794E-2,-3.5274437E-1,8.350894E-3,-2.3436986E-2],"categories":[],"categories_nodes":[],"categories_segments":[],"categories_sizes":[],"default_left":[0,0,0,0,0,0,0,0,0],"id":31,"left_children":[1,3,-1,5,-1,-1,7,-1,-1],"loss_changes":[1.3667116E2,3.0721836E1,0E0,6.460724E-1,0E0,0E0,5.7428193E-1,0E0,0E0],"parents":[2147483647,0,0,1,1,3,3,6,6],"right_children":[2,4,-1,6,-1,-1,8,-1,-1],"split_conditions":[1E0,6.805359E0,5.5257868E-2,1.1337384E0,6.2239498E-2,-3.7078794E-2,2.1698265E0,8.350894E-3,-2.3436986E-2],"split_indices":[9,1,0,1,0,0,1,0,0],"split_type":[0,0,0,0,0,0,0,0,0],"sum_hessian":[2.041406E2,1.3290375E2,7.123685E1,1.2532427E2,7.5794764E0,1.1809747E2,7.2268033E0,1.2382915E0,5.988512E0],"tree_param":{"num_deleted":"0","num_feature":"10","num_nodes":"9","size_leaf_vector":"1"}},{"base_weights":[-1.3847695E-2,-9.939117E-1,5.6178886E-2,-5.6316465E-2,6.2016517E-2],"categories":[],"categories_nodes":[],"categories_segments":[],"categories_sizes":[],"default_left":[0,0,0,0,0],"id":32,"left_children":[1,3,-1,-1,-1],"loss_changes":[2.2064072E2,3.2849518E1,0E0,0E0,0E0],"parents":[2147483647,0,0,1,1],"right_children":[2,4,-1,-1,-1],"split_conditions":[4E0,6.805359E0,5.6178886E-2,-5.6316465E-2,6.2016517E-2],"split_indices":[3,1,0,0,0],"split_type":[0,0,0,0,0],"sum_hessian":[1.9592671E2,1.0531129E2,9.061543E1,9.988712E1,5.4241657E0],"tree_param":{"num_deleted":"0","num_feature":"10","num_nodes":"5","size_leaf_vector":"1"}},{"base_weights":[5.965696E-3,-5.6241393E-1,5.455367E-2,-3.3832956E-2,5.940592E-2],"categories":[],"categories_nodes":[],"categories_segments":[],"categories_sizes":[],"default_left":[0,0,0,0,0],"id":33,"left_children":[1,3,-1,-1,-1],"loss_changes":[1.1782433E2,2.5878193E1,0E0,0E0,0E0],"parents":[2147483647,0,0,1,1],"right_children":[2,4,-1,-1,-1],"split_conditions":[1E0,6.805359E0,5.455367E-2,-3.3832956E-2,5.940592E-2],"split_indices":[9,1,0,0,0],"split_type":[0,0,0,0,0],"sum_hessian":[1.8904478E2,1.2437752E2,6.466727E1,1.1733342E2,7.0440907E0],"tree_param":{"num_deleted":"0","num_feature":"10","num_nodes":"5","size_leaf_vector":"1"}},{"base_weights":[-1.7763665E-2,-9.921722E-1,5.5701185E-2,-5.569424E-2,5.8620043E-2],"categories":[],"categories_nodes":[],"categories_segments":[],"categories_sizes":[],"default_left":[0,0,0,0,0],"id":34,"left_children":[1,3,-1,-1,-1],"loss_changes":[2.0381238E2,2.7467026E1,0E0,0E0,0E0],"parents":[2147483647,0,0,1,1],"right_children":[2,4,-1,-1,-1],"split_conditions":[4E0,6.805359E0,5.5701185E-2,-5.569424E-2,5.8620043E-2],"split_indices":[3,1,0,0,0],"split_type":[0,0,0,0,0],"sum_hessian":[1.8280739E2,9.8299835E1,8.450755E1,9.352631E1,4.7735243E0],"tree_param":{"num_deleted":"0","num_feature":"10","num_nodes":"5","size_leaf_vector":"1"}},{"base_weights":[3.242148E-3,-9.6992743E-1,5.536229E-2,-5.5329353E-2,5.8508128E-2],"categories":[],"categories_nodes":[],"categories_segments":[],"categories_sizes":[],"default_left":[0,0,0,0,0],"id":35,"left_children":[1,3,-1,-1,-1],"loss_changes":[1.9430246E2,2.9407234E1,0E0,0E0,0E0],"parents":[2147483647,0,0,1,1],"right_children":[2,4,-1,-1,-1],"split_conditions":[4E0,6.805359E0,5.536229E-2,-5.5329353E-2,5.8508128E-2],"split_indices":[3,1,0,0,0],"split_type":[0,0,0,0,0],"sum_hessian":[1.7885071E2,9.51225E1,8.37282E1,8.9866806E1,5.2556953E0],"tree_param":{"num_deleted":"0","num_feature":"10","num_nodes":"5","size_leaf_vector":"1"}},{"base_weights":[-6.7025153E-3,-9.650232E-1,5.5006724E-2,-5.4952532E-2,5.690473E-2],"categories":[],"categories_nodes":[],"categories_segments":[],"categories_sizes":[],"default_left":[0,0,0,0,0],"id":36,"left_children":[1,3,-1,-1,-1],"loss_changes":[1.7921878E2,2.6775421E1,0E0,0E0,0E0],"parents":[2147483647,0,0,1,1],"right_children":[2,4,-1,-1,-1],"split_conditions":[4E0,6.632477E0,5.5006724E-2,-5.4952532E-2,5.690473E-2],"split_indices":[3,1,0,0,0],"split_type":[0,0,0,0,0],"sum_hessian":[1.6696107E2,8.9552734E1,7.740835E1,8.4636444E1,4.9162908E0],"tree_param":{"num_deleted":"0","num_feature":"10","num_nodes":"5","size_leaf_vector":"1"}},{"base_weights":[4.3203505E-3,-9.6711135E-1,5.470444E-2,-5.465449E-2,5.5229027E-2],"categories":[],"categories_nodes":[],"categories_segments":[],"categories_sizes":[],"default_left":[0,0,0,0,0],"id":37,"left_children":[1,3,-1,-1,-1],"loss_changes":[1.724122E2,2.3680824E1,0E0,0E0,0E0],"parents":[2147483647,0,0,1,1],"right_children":[2,4,-1,-1,-1],"split_conditions":[4E0,6.805359E0,5.470444E-2,-5.465449E-2,5.5229027E-2],"split_indices":[3,1,0,0,0],"split_type":[0,0,0,0,0],"sum_hessian":[1.6086316E2,8.510879E1,7.5754364E1,8.067533E1,4.4334574E0],"tree_param":{"num_deleted":"0","num_feature":"10","num_nodes":"5","size_leaf_vector":"1"}},{"base_weights":[1.5481371E-2,-9.4396234E-1,5.4372948E-2,-5.433773E-2,5.5179723E-2],"categories":[],"categories_nodes":[],"categories_segments":[],"categories_sizes":[],"default_left":[0,0,0,0,0],"id":38,"left_children":[1,3,-1,-1,-1],"loss_changes":[1.6003912E2,2.5209373E1,0E0,0E0,0E0],"parents":[2147483647,0,0,1,1],"right_children":[2,4,-1,-1,-1],"split_conditions":[4E0,6.805359E0,5.4372948E-2,-5.433773E-2,5.5179723E-2],"split_indices":[3,1,0,0,0],"split_type":[0,0,0,0,0],"sum_hessian":[1.53606E2,8.112064E1,7.248536E1,7.627091E1,4.849726E0],"tree_param":{"num_deleted":"0","num_feature":"10","num_nodes":"5","size_leaf_vector":"1"}},{"base_weights":[2.1924853E-2,-9.4215345E-1,5.409428E-2,-4.7504988E-2,-1.5160175E-2],"categories":[],"categories_nodes":[],"categories_segments":[],"categories_sizes":[],"default_left":[0,0,0,0,0],"id":39,"left_children":[1,3,-1,-1,-1],"loss_changes":[1.4784846E2,9.668732E-2,0E0,0E0,0E0],"parents":[2147483647,0,0,1,1],"right_children":[2,4,-1,-1,-1],"split_conditions":[4E0,1.312E3,5.409428E-2,-4.7504988E-2,-1.5160175E-2],"split_indices":[3,4,0,0,0],"split_type":[0,0,0,0,0],"sum_hessian":[1.4268463E2,7.4780136E1,6.7904495E1,7.338057E1,1.3995632E0],"tree_param":{"num_deleted":"0","num_feature":"10","num_nodes":"5","size_leaf_vector":"1"}},{"base_weights":[1.2690228E-2,-9.3119943E-1,5.377246E-2,-5.3765327E-2,5.4386713E-2],"categories":[],"categories_nodes":[],"categories_segments":[],"categories_sizes":[],"default_left":[0,0,0,0,0],"id":40,"left_children":[1,3,-1,-1,-1],"loss_changes":[1.4150525E2,2.2908134E1,0E0,0E0,0E0],"parents":[2147483647,0,0,1,1],"right_children":[2,4,-1,-1,-1],"split_conditions":[4E0,6.632477E0,5.377246E-2,-5.3765327E-2,5.4386713E-2],"split_indices":[3,1,0,0,0],"split_type":[0,0,0,0,0],"sum_hessian":[1.3906578E2,7.371742E1,6.534836E1,6.924244E1,4.474985E0],"tree_param":{"num_deleted":"0","num_feature":"10","num_nodes":"5","size_leaf_vector":"1"}},{"base_weights":[3.9697685E-3,-9.295311E-1,5.354116E-2,-5.3539794E-2,5.320813E-2],"categories":[],"categories_nodes":[],"categories_segments":[],"categories_sizes":[],"default_left":[0,0,0,0,0],"id":41,"left_children":[1,3,-1,-1,-1],"loss_changes":[1.3616838E2,2.1677608E1,0E0,0E0,0E0],"parents":[2147483647,0,0,1,1],"right_children":[2,4,-1,-1,-1],"split_conditions":[4E0,6.805359E0,5.354116E-2,-5.3539794E-2,5.320813E-2],"split_indices":[3,1,0,0,0],"split_type":[0,0,0,0,0],"sum_hessian":[1.3472832E2,7.192361E1,6.2804714E1,6.759688E1,4.3267245E0],"tree_param":{"num_deleted":"0","num_feature":"10","num_nodes":"5","size_leaf_vector":"1"}},{"base_weights":[-3.0904205E-3,-9.0848595E-1,5.3234555E-2,-5.329123E-2,5.342825E-2],"categories":[],"categories_nodes":[],"categories_segments":[],"categories_sizes":[],"default_left":[0,0,0,0,0],"id":42,"left_children":[1,3,-1,-1,-1],"loss_changes":[1.2681899E2,2.322007E1,0E0,0E0,0E0],"parents":[2147483647,0,0,1,1],"right_children":[2,4,-1,-1,-1],"split_conditions":[4E0,6.805359E0,5.3234555E-2,-5.329123E-2,5.342825E-2],"split_indices":[3,1,0,0,0],"split_type":[0,0,0,0,0],"sum_hessian":[1.2917827E2,6.998534E1,5.919293E1,6.525322E1,4.732114E0],"tree_param":{"num_deleted":"0","num_feature":"10","num_nodes":"5","size_leaf_vector":"1"}},{"base_weights":[-1.7071395E-3,-9.071135E-1,5.2957136E-2,-5.3042796E-2,5.2361574E-2],"categories":[],"categories_nodes":[],"categories_segments":[],"categories_sizes":[],"default_left":[0,0,0,0,0],"id":43,"left_children":[1,3,-1,-1,-1],"loss_changes":[1.2089257E2,2.1514442E1,0E0,0E0,0E0],"parents":[2147483647,0,0,1,1],"right_children":[2,4,-1,-1,-1],"split_conditions":[4E0,6.805359E0,5.2957136E-2,-5.3042796E-2,5.2361574E-2],"split_indices":[3,1,0,0,0],"split_type":[0,0,0,0,0],"sum_hessian":[1.2386391E2,6.690621E1,5.69577E1,6.2450592E1,4.4556165E0],"tree_param":{"num_deleted":"0","num_feature":"10","num_nodes":"5","size_leaf_vector":"1"}},{"base_weights":[-7.381426E-3,-9.1110796E-1,5.2704662E-2,-5.278905E-2,5.0446607E-2],"categories":[],"categories_nodes":[],"categories_segments":[],"categories_sizes":[],"default_left":[0,0,0,0,0],"id":44,"left_children":[1,3,-1,-1,-1],"loss_changes":[1.1264353E2,1.868214E1,0E0,0E0,0E0],"parents":[2147483647,0,0,1,1],"right_children":[2,4,-1,-1,-1],"split_conditions":[4E0,6.805359E0,5.2704662E-2,-5.278905E-2,5.0446607E-2],"split_indices":[3,1,0,0,0],"split_type":[0,0,0,0,0],"sum_hessian":[1.1542358E2,6.2420868E1,5.300271E1,5.8465664E1,3.9552028E0],"tree_param":{"num_deleted":"0","num_feature":"10","num_nodes":"5","size_leaf_vector":"1"}},{"base_weights":[4.919558E-4,-5.1959854E-1,5.1435143E-2,-5.430904E-1,-1.01841025E-1,-3.1686205E-2,-4.7475126E-1,-2.1690843E-1,8.83672E-3,-1.78797E-2,-2.5879446E-2,-3.396603E-3,-1.5127582E-2],"categories":[],"categories_nodes":[],"categories_segments":[],"categories_sizes":[],"default_left":[0,0,0,0,0,0,0,0,0,0,0,0,0],"id":45,"left_children":[1,3,-1,5,7,-1,9,11,-1,-1,-1,-1,-1],"loss_changes":[6.0799725E1,6.856804E-1,0E0,1.4047241E-1,2.066428E-1,0E0,3.879738E-2,3.258422E-2,0E0,0E0,0E0,0E0,0E0],"parents":[2147483647,0,0,1,1,3,3,4,4,6,6,7,7],"right_children":[2,4,-1,6,8,-1,10,12,-1,-1,-1,-1,-1],"split_conditions":[1E0,2E0,5.1435143E-2,3.6E1,3.42E2,-3.1686205E-2,4.6E1,2.03E2,8.83672E-3,-1.78797E-2,-2.5879446E-2,-3.396603E-3,-1.5127582E-2],"split_indices":[9,7,0,5,4,0,5,4,0,0,0,0,0],"split_type":[0,0,0,0,0,0,0,0,0,0,0,0,0],"sum_hessian":[1.1169524E2,7.450414E1,3.7191093E1,7.025355E1,4.250597E0,2.6644068E1,4.3609478E1,3.1647444E0,1.0858529E0,1.41789465E1,2.9430532E1,1.8097984E0,1.3549461E0],"tree_param":{"num_deleted":"0","num_feature":"10","num_nodes":"13","size_leaf_vector":"1"}},{"base_weights":[-7.1442616E-3,-9.0677375E-1,5.2500762E-2,-5.247577E-2,4.9690966E-2],"categories":[],"categories_nodes":[],"categories_segments":[],"categories_sizes":[],"default_left":[0,0,0,0,0],"id":46,"left_children":[1,3,-1,-1,-1],"loss_changes":[1.0672189E2,1.7488834E1,0E0,0E0,0E0],"parents":[2147483647,0,0,1,1],"right_children":[2,4,-1,-1,-1],"split_conditions":[4E0,6.805359E0,5.2500762E-2,-5.247577E-2,4.9690966E-2],"split_indices":[3,1,0,0,0],"split_type":[0,0,0,0,0],"sum_hessian":[1.1021346E2,5.9619915E1,5.059355E1,5.5871548E1,3.7483659E0],"tree_param":{"num_deleted":"0","num_feature":"10","num_nodes":"5","size_leaf_vector":"1"}},{"base_weights":[1.6714672E-2,-9.042552E-1,5.2276503E-2,-4.5651615E-2,-1.1495389E-2],"categories":[],"categories_nodes":[],"categories_segments":[],"categories_sizes":[],"default_left":[0,0,0,0,0],"id":47,"left_children":[1,3,-1,-1,-1],"loss_changes":[1.0104471E2,1.2320328E-1,0E0,0E0,0E0],"parents":[2147483647,0,0,1,1],"right_children":[2,4,-1,-1,-1],"split_conditions":[4E0,1.296E3,5.2276503E-2,-4.5651615E-2,-1.1495389E-2],"split_indices":[3,4,0,0,0],"split_type":[0,0,0,0,0],"sum_hessian":[1.0464478E2,5.5280308E1,4.9364475E1,5.4220634E1,1.0596715E0],"tree_param":{"num_deleted":"0","num_feature":"10","num_nodes":"5","size_leaf_vector":"1"}},{"base_weights":[3.913507E-2,-8.590522E-1,5.211931E-2,-8.7596697E-1,-3.5812795E-1,-4.46644E-2,-2.0356886E-2,-3.772836E-3,-2.3098968E-2],"categories":[],"categories_nodes":[],"categories_segments":[],"categories_sizes":[],"default_left":[0,0,0,0,0,0,0,0,0],"id":48,"left_children":[1,3,-1,5,7,-1,-1,-1,-1],"loss_changes":[9.4112656E1,1.5340805E-1,0E0,6.3762665E-2,6.7661464E-2,0E0,0E0,0E0,0E0],"parents":[2147483647,0,0,1,1,3,3,4,4],"right_children":[2,4,-1,6,8,-1,-1,-1,-1],"split_conditions":[4E0,2E0,5.211931E-2,3E0,3E0,-4.46644E-2,-2.0356886E-2,-3.772836E-3,-2.3098968E-2],"split_indices":[3,7,0,2,7,0,0,0,0],"split_type":[0,0,0,0,0,0,0,0,0],"sum_hessian":[1.0244737E2,5.4129887E1,4.8317486E1,5.163753E1,2.4923563E0,4.892463E1,2.7128987E0,1.1335502E0,1.3588061E0],"tree_param":{"num_deleted":"0","num_feature":"10","num_nodes":"9","size_leaf_vector":"1"}},{"base_weights":[3.881145E-2,-8.708402E-1,5.193305E-2,-8.9604723E-1,-2.8152198E-1,-4.5311164E-2,-1.0827173E-2,-3.2231167E-3,-1.9929035E-2],"categories":[],"categories_nodes":[],"categories_segments":[],"categories_sizes":[],"default_left":[0,0,0,0,0,0,0,0,0],"id":49,"left_children":[1,3,-1,5,7,-1,-1,-1,-1],"loss_changes":[9.082293E1,5.248184E-1,0E0,1.4747238E-1,6.587556E-2,0E0,0E0,0E0,0E0],"parents":[2147483647,0,0,1,1,3,3,4,4],"right_children":[2,4,-1,6,8,-1,-1,-1,-1],"split_conditions":[4E0,2E0,5.193305E-2,1.312E3,3E0,-4.5311164E-2,-1.0827173E-2,-3.2231167E-3,-1.9929035E-2],"split_indices":[3,7,0,4,7,0,0,0,0],"split_type":[0,0,0,0,0,0,0,0,0],"sum_hessian":[9.786415E1,5.1311012E1,4.655314E1,4.8707172E1,2.6038396E0,4.7659775E1,1.0473974E0,1.4555414E0,1.1482983E0],"tree_param":{"num_deleted":"0","num_feature":"10","num_nodes":"9","size_leaf_vector":"1"}},{"base_weights":[1.4744615E-2,-8.379179E-1,5.166861E-2,-5.1715948E-2,5.215494E-2],"categories":[],"categories_nodes":[],"categories_segments":[],"categories_sizes":[],"default_left":[0,0,0,0,0],"id":50,"left_children":[1,3,-1,-1,-1],"loss_changes":[8.295858E1,2.0290295E1,0E0,0E0,0E0],"parents":[2147483647,0,0,1,1],"right_children":[2,4,-1,-1,-1],"split_conditions":[4E0,6.632477E0,5.166861E-2,-5.1715948E-2,5.215494E-2],"split_indices":[3,1,0,0,0],"split_type":[0,0,0,0,0],"sum_hessian":[9.3517426E1,5.100232E1,4.2515102E1,4.6588085E1,4.4142337E0],"tree_param":{"num_deleted":"0","num_feature":"10","num_nodes":"5","size_leaf_vector":"1"}},{"base_weights":[6.8254974E-3,-8.4193325E-1,5.147895E-2,-5.1526345E-2,5.0677698E-2],"categories":[],"categories_nodes":[],"categories_segments":[],"categories_sizes":[],"default_left":[0,0,0,0,0],"id":51,"left_children":[1,3,-1,-1,-1],"loss_changes":[7.885394E1,1.8417313E1,0E0,0E0,0E0],"parents":[2147483647,0,0,1,1],"right_children":[2,4,-1,-1,-1],"split_conditions":[4E0,6.632477E0,5.147895E-2,-5.1526345E-2,5.0677698E-2],"split_indices":[3,1,0,0,0],"split_type":[0,0,0,0,0],"sum_hessian":[8.883956E1,4.8646107E1,4.019345E1,4.4561443E1,4.0846663E0],"tree_param":{"num_deleted":"0","num_feature":"10","num_nodes":"5","size_leaf_vector":"1"}},{"base_weights":[6.0240882E-3,-4.2225678E-2,5.128585E-2],"categories":[],"categories_nodes":[],"categories_segments":[],"categories_sizes":[],"default_left":[0,0,0],"id":52,"left_children":[1,-1,-1],"loss_changes":[7.6313E1,0E0,0E0],"parents":[2147483647,0,0],"right_children":[2,-1,-1],"split_conditions":[4E0,-4.2225678E-2,5.128585E-2],"split_indices":[3,0,0],"split_type":[0,0,0],"sum_hessian":[8.599168E1,4.6978317E1,3.901336E1],"tree_param":{"num_deleted":"0","num_feature":"10","num_nodes":"3","size_leaf_vector":"1"}},{"base_weights":[-6.824989E-3,-8.399059E-1,5.1076677E-2,-4.381483E-2,-4.663629E-1,4.5662414E-2,-3.9167464E-2,1.0370092E-2,-7.841687E-3],"categories":[],"categories_nodes":[],"categories_segments":[],"categories_sizes":[],"default_left":[0,0,0,0,0,0,0,0,0],"id":53,"left_children":[1,3,-1,-1,5,7,-1,-1,-1],"loss_changes":[7.250559E1,2.2684097E-1,0E0,0E0,1.0563214E0,1.4221887E-1,0E0,0E0,0E0],"parents":[2147483647,0,0,1,1,4,4,5,5],"right_children":[2,4,-1,-1,6,8,-1,-1,-1],"split_conditions":[4E0,6.3E1,5.1076677E-2,-4.381483E-2,7E1,6.5E1,-3.9167464E-2,1.0370092E-2,-7.841687E-3],"split_indices":[3,5,0,0,5,5,0,0,0],"split_type":[0,0,0,0,0,0,0,0,0],"sum_hessian":[8.26315E1,4.5751293E1,3.688021E1,4.0463432E1,5.2878613E0,2.3491876E0,2.9386737E0,1.2925583E0,1.0566293E0],"tree_param":{"num_deleted":"0","num_feature":"10","num_nodes":"9","size_leaf_vector":"1"}},{"base_weights":[1.6819822E-2,-7.9387534E-1,5.092472E-2,-8.1705326E-1,-3.2533336E-1,-4.7196027E-2,-6.926035E-1,-2.9692817E-3,-2.2897506E-2,-1.8752763E-2,-3.7939396E-2],"categories":[],"categories_nodes":[],"categories_segments":[],"categories_sizes":[],"default_left":[0,0,0,0,0,0,0,0,0,0,0],"id":54,"left_children":[1,3,-1,5,7,-1,9,-1,-1,-1,-1],"loss_changes":[6.6467636E1,2.2559166E-1,0E0,1.6548157E-2,1.0663447E-1,0E0,2.4477863E-1,0E0,0E0,0E0,0E0],"parents":[2147483647,0,0,1,1,3,3,4,4,6,6],"right_children":[2,4,-1,6,8,-1,10,-1,-1,-1,-1],"split_conditions":[4E0,2E0,5.092472E-2,3.8E1,3E0,-4.7196027E-2,1.42E2,-2.9692817E-3,-2.2897506E-2,-1.8752763E-2,-3.7939396E-2],"split_indices":[3,7,0,5,7,0,4,0,0,0,0],"split_type":[0,0,0,0,0,0,0,0,0,0,0],"sum_hessian":[7.985568E1,4.4249912E1,3.5605766E1,4.145537E1,2.794542E0,1.7267588E1,2.4187784E1,1.4115798E0,1.3829623E0,5.321656E0,1.8866127E1],"tree_param":{"num_deleted":"0","num_feature":"10","num_nodes":"11","size_leaf_vector":"1"}},{"base_weights":[2.1159786E-3,-8.3514756E-1,5.0720613E-2,-5.091378E-2,4.8871946E-2],"categories":[],"categories_nodes":[],"categories_segments":[],"categories_sizes":[],"default_left":[0,0,0,0,0],"id":55,"left_children":[1,3,-1,-1,-1],"loss_changes":[6.437593E1,1.4794733E1,0E0,0E0,0E0],"parents":[2147483647,0,0,1,1],"right_children":[2,4,-1,-1,-1],"split_conditions":[4E0,6.805359E0,5.0720613E-2,-5.091378E-2,4.8871946E-2],"split_indices":[3,1,0,0,0],"split_type":[0,0,0,0,0],"sum_hessian":[7.395498E1,4.0572628E1,3.338235E1,3.724766E1,3.3249633E0],"tree_param":{"num_deleted":"0","num_feature":"10","num_nodes":"5","size_leaf_vector":"1"}},{"base_weights":[9.711561E-3,-7.8934515E-1,5.050799E-2,-5.0728776E-2,5.052221E-2],"categories":[],"categories_nodes":[],"categories_segments":[],"categories_sizes":[],"default_left":[0,0,0,0,0],"id":56,"left_children":[1,3,-1,-1,-1],"loss_changes":[5.888023E1,1.7627148E1,0E0,0E0,0E0],"parents":[2147483647,0,0,1,1],"right_children":[2,4,-1,-1,-1],"split_conditions":[4E0,6.632477E0,5.050799E-2,-5.0728776E-2,5.052221E-2],"split_indices":[3,1,0,0,0],"split_type":[0,0,0,0,0],"sum_hessian":[7.165674E1,3.995541E1,3.1701326E1,3.5899174E1,4.056235E0],"tree_param":{"num_deleted":"0","num_feature":"10","num_nodes":"5","size_leaf_vector":"1"}},{"base_weights":[3.0378157E-2,-7.802238E-1,5.0406124E-2,-5.0547846E-2,4.9951278E-2],"categories":[],"categories_nodes":[],"categories_segments":[],"categories_sizes":[],"default_left":[0,0,0,0,0],"id":57,"left_children":[1,3,-1,-1,-1],"loss_changes":[5.6413784E1,1.6994822E1,0E0,0E0,0E0],"parents":[2147483647,0,0,1,1],"right_children":[2,4,-1,-1,-1],"split_conditions":[4E0,6.632477E0,5.0406124E-2,-5.0547846E-2,4.9951278E-2],"split_indices":[3,1,0,0,0],"split_type":[0,0,0,0,0],"sum_hessian":[6.918664E1,3.7936928E1,3.124971E1,3.396425E1,3.9726787E0],"tree_param":{"num_deleted":"0","num_feature":"10","num_nodes":"5","size_leaf_vector":"1"}},{"base_weights":[6.5388256E-3,-8.061063E-1,5.020404E-2,-5.043099E-2,4.752382E-2],"categories":[],"categories_nodes":[],"categories_segments":[],"categories_sizes":[],"default_left":[0,0,0,0,0],"id":58,"left_children":[1,3,-1,-1,-1],"loss_changes":[5.4576313E1,1.4158077E1,0E0,0E0,0E0],"parents":[2147483647,0,0,1,1],"right_children":[2,4,-1,-1,-1],"split_conditions":[4E0,6.805359E0,5.020404E-2,-5.043099E-2,4.752382E-2],"split_indices":[3,1,0,0,0],"split_type":[0,0,0,0,0],"sum_hessian":[6.532588E1,3.6104965E1,2.9220917E1,3.2754555E1,3.3504121E0],"tree_param":{"num_deleted":"0","num_feature":"10","num_nodes":"5","size_leaf_vector":"1"}},{"base_weights":[2.549293E-3,-7.531471E-1,4.9985047E-2,-5.027945E-2,4.9727924E-2],"categories":[],"categories_nodes":[],"categories_segments":[],"categories_sizes":[],"default_left":[0,0,0,0,0],"id":59,"left_children":[1,3,-1,-1,-1],"loss_changes":[4.957389E1,1.7512646E1,0E0,0E0,0E0],"parents":[2147483647,0,0,1,1],"right_children":[2,4,-1,-1,-1],"split_conditions":[4E0,6.632477E0,4.9985047E-2,-5.027945E-2,4.9727924E-2],"split_indices":[3,1,0,0,0],"split_type":[0,0,0,0,0],"sum_hessian":[6.378849E1,3.6426888E1,2.73616E1,3.220042E1,4.226467E0],"tree_param":{"num_deleted":"0","num_feature":"10","num_nodes":"5","size_leaf_vector":"1"}},{"base_weights":[1.7740844E-2,-7.733665E-1,4.9916472E-2,-5.010928E-2,4.768904E-2],"categories":[],"categories_nodes":[],"categories_segments":[],"categories_sizes":[],"default_left":[0,0,0,0,0],"id":60,"left_children":[1,3,-1,-1,-1],"loss_changes":[4.9289764E1,1.4858902E1,0E0,0E0,0E0],"parents":[2147483647,0,0,1,1],"right_children":[2,4,-1,-1,-1],"split_conditions":[4E0,6.632477E0,4.9916472E-2,-5.010928E-2,4.768904E-2],"split_indices":[3,1,0,0,0],"split_type":[0,0,0,0,0],"sum_hessian":[6.154288E1,3.417938E1,2.7363503E1,3.055154E1,3.627839E0],"tree_param":{"num_deleted":"0","num_feature":"10","num_nodes":"5","size_leaf_vector":"1"}},{"base_weights":[-5.548663E-4,-7.871316E-1,4.970893E-2,-5.0004836E-2,4.610425E-2],"categories":[],"categories_nodes":[],"categories_segments":[],"categories_sizes":[],"default_left":[0,0,0,0,0],"id":61,"left_children":[1,3,-1,-1,-1],"loss_changes":[4.7016483E1,1.3136509E1,0E0,0E0,0E0],"parents":[2147483647,0,0,1,1],"right_children":[2,4,-1,-1,-1],"split_conditions":[4E0,6.805359E0,4.970893E-2,-5.0004836E-2,4.610425E-2],"split_indices":[3,1,0,0,0],"split_type":[0,0,0,0,0],"sum_hessian":[5.808987E1,3.2555553E1,2.5534317E1,2.9317526E1,3.2380266E0],"tree_param":{"num_deleted":"0","num_feature":"10","num_nodes":"5","size_leaf_vector":"1"}},{"base_weights":[2.2682913E-2,-7.523743E-1,4.9547277E-2,-4.9810275E-2,4.6741594E-2],"categories":[],"categories_nodes":[],"categories_segments":[],"categories_sizes":[],"default_left":[0,0,0,0,0],"id":62,"left_children":[1,3,-1,-1,-1],"loss_changes":[4.319847E1,1.409083E1,0E0,0E0,0E0],"parents":[2147483647,0,0,1,1],"right_children":[2,4,-1,-1,-1],"split_conditions":[4E0,6.805359E0,4.9547277E-2,-4.9810275E-2,4.6741594E-2],"split_indices":[3,1,0,0,0],"split_type":[0,0,0,0,0],"sum_hessian":[5.5569267E1,3.0987736E1,2.4581533E1,2.7432768E1,3.5549679E0],"tree_param":{"num_deleted":"0","num_feature":"10","num_nodes":"5","size_leaf_vector":"1"}},{"base_weights":[2.7230548E-2,-7.504458E-1,4.9380317E-2,-4.957388E-2,4.5688454E-2],"categories":[],"categories_nodes":[],"categories_segments":[],"categories_sizes":[],"default_left":[0,0,0,0,0],"id":63,"left_children":[1,3,-1,-1,-1],"loss_changes":[4.0553677E1,1.2949137E1,0E0,0E0,0E0],"parents":[2147483647,0,0,1,1],"right_children":[2,4,-1,-1,-1],"split_conditions":[4E0,6.632477E0,4.9380317E-2,-4.957388E-2,4.5688454E-2],"split_indices":[3,1,0,0,0],"split_type":[0,0,0,0,0],"sum_hessian":[5.2306446E1,2.9023167E1,2.328328E1,2.5704557E1,3.3186088E0],"tree_param":{"num_deleted":"0","num_feature":"10","num_nodes":"5","size_leaf_vector":"1"}},{"base_weights":[8.028416E-3,-7.745715E-1,4.9195256E-2,-4.9501095E-2,4.3813344E-2],"categories":[],"categories_nodes":[],"categories_segments":[],"categories_sizes":[],"default_left":[0,0,0,0,0],"id":64,"left_children":[1,3,-1,-1,-1],"loss_changes":[3.966985E1,1.1122215E1,0E0,0E0,0E0],"parents":[2147483647,0,0,1,1],"right_children":[2,4,-1,-1,-1],"split_conditions":[4E0,6.805359E0,4.9195256E-2,-4.9501095E-2,4.3813344E-2],"split_indices":[3,1,0,0,0],"split_type":[0,0,0,0,0],"sum_hessian":[4.9944977E1,2.7831728E1,2.2113247E1,2.4972824E1,2.8589044E0],"tree_param":{"num_deleted":"0","num_feature":"10","num_nodes":"5","size_leaf_vector":"1"}},{"base_weights":[1.3009585E-2,-7.5028443E-1,4.9045656E-2,-4.9363013E-2,4.426107E-2],"categories":[],"categories_nodes":[],"categories_segments":[],"categories_sizes":[],"default_left":[0,0,0,0,0],"id":65,"left_children":[1,3,-1,-1,-1],"loss_changes":[3.7230427E1,1.1797509E1,0E0,0E0,0E0],"parents":[2147483647,0,0,1,1],"right_children":[2,4,-1,-1,-1],"split_conditions":[4E0,6.805359E0,4.9045656E-2,-4.9363013E-2,4.426107E-2],"split_indices":[3,1,0,0,0],"split_type":[0,0,0,0,0],"sum_hessian":[4.8397285E1,2.7184374E1,2.1212912E1,2.4090195E1,3.0941784E0],"tree_param":{"num_deleted":"0","num_feature":"10","num_nodes":"5","size_leaf_vector":"1"}},{"base_weights":[3.1918254E-2,-7.389904E-1,4.893566E-2,-4.9180888E-2,4.3940905E-2],"categories":[],"categories_nodes":[],"categories_segments":[],"categories_sizes":[],"default_left":[0,0,0,0,0],"id":66,"left_children":[1,3,-1,-1,-1],"loss_changes":[3.54305E1,1.1462839E1,0E0,0E0,0E0],"parents":[2147483647,0,0,1,1],"right_children":[2,4,-1,-1,-1],"split_conditions":[4E0,6.805359E0,4.893566E-2,-4.9180888E-2,4.3940905E-2],"split_indices":[3,1,0,0,0],"split_type":[0,0,0,0,0],"sum_hessian":[4.6551174E1,2.5779898E1,2.0771278E1,2.2734274E1,3.0456223E0],"tree_param":{"num_deleted":"0","num_feature":"10","num_nodes":"5","size_leaf_vector":"1"}},{"base_weights":[1.8273626E-2,-7.505982E-1,4.8766673E-2,-3.8906388E-2,-9.440514E-3],"categories":[],"categories_nodes":[],"categories_segments":[],"categories_sizes":[],"default_left":[0,0,0,0,0],"id":67,"left_children":[1,3,-1,-1,-1],"loss_changes":[3.4221184E1,2.5212097E-1,0E0,0E0,0E0],"parents":[2147483647,0,0,1,1],"right_children":[2,4,-1,-1,-1],"split_conditions":[4E0,2E0,4.8766673E-2,-3.8906388E-2,-9.440514E-3],"split_indices":[3,7,0,0,0],"split_type":[0,0,0,0,0],"sum_hessian":[4.451038E1,2.4801422E1,1.970896E1,2.327574E1,1.5256823E0],"tree_param":{"num_deleted":"0","num_feature":"10","num_nodes":"5","size_leaf_vector":"1"}},{"base_weights":[1.2455305E-2,-1.0570306E-1,4.432858E-2,-1.2991706E-1,7.881183E-2,-1.0313011E-2,-8.7573536E-2,-1.7353935E-3,7.6555805E-3,-1.7608706E-3,-7.2711776E-3],"categories":[],"categories_nodes":[],"categories_segments":[],"categories_sizes":[],"default_left":[0,0,0,0,0,0,0,0,0,0,0],"id":68,"left_children":[1,3,-1,5,7,-1,9,-1,-1,-1,-1],"loss_changes":[4.534091E0,1.8343917E-1,0E0,9.3936324E-2,4.8494857E-2,0E0,6.7641124E-2,0E0,0E0,0E0,0E0],"parents":[2147483647,0,0,1,1,3,3,4,4,6,6],"right_children":[2,4,-1,6,8,-1,10,-1,-1,-1,-1],"split_conditions":[6.805359E0,1E0,4.432858E-2,9.4E1,5E0,-1.0313011E-2,4.8E1,-1.7353935E-3,7.6555805E-3,-1.7608706E-3,-7.2711776E-3],"split_indices":[1,6,0,4,0,0,5,0,0,0,0],"split_type":[0,0,0,0,0,0,0,0,0,0,0],"sum_hessian":[4.199186E1,3.7765938E1,4.225923E0,3.36464E1,4.119538E0,1.0622848E1,2.3023552E1,1.8404512E0,2.2790864E0,1.2930136E1,1.0093417E1],"tree_param":{"num_deleted":"0","num_feature":"10","num_nodes":"11","size_leaf_vector":"1"}},{"base_weights":[-8.118913E-4,-4.0266025E-1,4.7024984E-2,-2.8071145E-2,4.2389806E-2],"categories":[],"categories_nodes":[],"categories_segments":[],"categories_sizes":[],"default_left":[0,0,0,0,0],"id":69,"left_children":[1,3,-1,-1,-1],"loss_changes":[1.6681856E1,6.611492E0,0E0,0E0,0E0],"parents":[2147483647,0,0,1,1],"right_children":[2,4,-1,-1,-1],"split_conditions":[1E0,6.632477E0,4.7024984E-2,-2.8071145E-2,4.2389806E-2],"split_indices":[9,1,0,0,0],"split_type":[0,0,0,0,0],"sum_hessian":[4.209988E1,2.9905415E1,1.2194465E1,2.7025217E1,2.8801973E0],"tree_param":{"num_deleted":"0","num_feature":"10","num_nodes":"5","size_leaf_vector":"1"}},{"base_weights":[2.280956E-2,-7.328352E-1,4.8538167E-2,-7.5890887E-1,-9.667738E-3,-3.9215237E-2,-8.94966E-3],"categories":[],"categories_nodes":[],"categories_segments":[],"categories_sizes":[],"default_left":[0,0,0,0,0,0,0],"id":70,"left_children":[1,3,-1,5,-1,-1,-1],"loss_changes":[3.116848E1,1.9407558E-1,0E0,1.9496346E-1,0E0,0E0,0E0],"parents":[2147483647,0,0,1,1,3,3],"right_children":[2,4,-1,6,-1,-1,-1],"split_conditions":[4E0,2E0,4.8538167E-2,3E0,-9.667738E-3,-3.9215237E-2,-8.94966E-3],"split_indices":[3,7,0,2,0,0,0],"split_type":[0,0,0,0,0,0,0],"sum_hessian":[4.1519028E1,2.3229204E1,1.8289824E1,2.1770283E1,1.4589221E0,2.0519249E1,1.2510339E0],"tree_param":{"num_deleted":"0","num_feature":"10","num_nodes":"7","size_leaf_vector":"1"}},{"base_weights":[9.279062E-3,-3.9050326E-1,4.6780556E-2,-2.7458766E-2,4.1729238E-2],"categories":[],"categories_nodes":[],"categories_segments":[],"categories_sizes":[],"default_left":[0,0,0,0,0],"id":71,"left_children":[1,3,-1,-1,-1],"loss_changes":[1.5527742E1,6.154914E0,0E0,0E0,0E0],"parents":[2147483647,0,0,1,1],"right_children":[2,4,-1,-1,-1],"split_conditions":[1E0,6.805359E0,4.6780556E-2,-2.7458766E-2,4.1729238E-2],"split_indices":[9,1,0,0,0],"split_type":[0,0,0,0,0],"sum_hessian":[3.9942764E1,2.8305319E1,1.1637444E1,2.5548084E1,2.757234E0],"tree_param":{"num_deleted":"0","num_feature":"10","num_nodes":"5","size_leaf_vector":"1"}},{"base_weights":[-9.3393616E-4,-3.8060975E-1,4.6450578E-2,-2.6979912E-2,4.146505E-2],"categories":[],"categories_nodes":[],"categories_segments":[],"categories_sizes":[],"default_left":[0,0,0,0,0],"id":72,"left_children":[1,3,-1,-1,-1],"loss_changes":[1.4330082E1,5.990973E0,0E0,0E0,0E0],"parents":[2147483647,0,0,1,1],"right_children":[2,4,-1,-1,-1],"split_conditions":[1E0,6.805359E0,4.6450578E-2,-2.6979912E-2,4.146505E-2],"split_indices":[9,1,0,0,0],"split_type":[0,0,0,0,0],"sum_hessian":[3.8584736E1,2.7817993E1,1.0766743E1,2.5076792E1,2.741201E0],"tree_param":{"num_deleted":"0","num_feature":"10","num_nodes":"5","size_leaf_vector":"1"}},{"base_weights":[3.1229446E-2,-6.834633E-1,4.8174966E-2,-4.8426192E-2,4.299344E-2],"categories":[],"categories_nodes":[],"categories_segments":[],"categories_sizes":[],"default_left":[0,0,0,0,0],"id":73,"left_children":[1,3,-1,-1,-1],"loss_changes":[2.6418455E1,1.0718227E1,0E0,0E0,0E0],"parents":[2147483647,0,0,1,1],"right_children":[2,4,-1,-1,-1],"split_conditions":[4E0,6.632477E0,4.8174966E-2,-4.8426192E-2,4.299344E-2],"split_indices":[3,1,0,0,0],"split_type":[0,0,0,0,0],"sum_hessian":[3.766196E1,2.1469776E1,1.6192184E1,1.843685E1,3.0329254E0],"tree_param":{"num_deleted":"0","num_feature":"10","num_nodes":"5","size_leaf_vector":"1"}},{"base_weights":[1.4463443E-2,-7.072036E-1,4.8019E-2,-4.8381455E-2,4.1459206E-2],"categories":[],"categories_nodes":[],"categories_segments":[],"categories_sizes":[],"default_left":[0,0,0,0,0],"id":74,"left_children":[1,3,-1,-1,-1],"loss_changes":[2.6259075E1,9.537463E0,0E0,0E0,0E0],"parents":[2147483647,0,0,1,1],"right_children":[2,4,-1,-1,-1],"split_conditions":[4E0,6.805359E0,4.8019E-2,-4.8381455E-2,4.1459206E-2],"split_indices":[3,1,0,0,0],"split_type":[0,0,0,0,0],"sum_hessian":[3.6472183E1,2.083155E1,1.5640632E1,1.8128817E1,2.7027338E0],"tree_param":{"num_deleted":"0","num_feature":"10","num_nodes":"5","size_leaf_vector":"1"}},{"base_weights":[2.5518823E-2,-6.990296E-1,4.786964E-2,-7.202768E-1,-8.299851E-3,-3.764115E-2,-1.6082354E-2],"categories":[],"categories_nodes":[],"categories_segments":[],"categories_sizes":[],"default_left":[0,0,0,0,0,0,0],"id":75,"left_children":[1,3,-1,5,-1,-1,-1],"loss_changes":[2.4784687E1,1.1454964E-1,0E0,1.1880875E-2,0E0,0E0,0E0],"parents":[2147483647,0,0,1,1,3,3],"right_children":[2,4,-1,6,-1,-1,-1],"split_conditions":[4E0,3E0,4.786964E-2,6.3E1,-8.299851E-3,-3.764115E-2,-1.6082354E-2],"split_indices":[3,2,0,5,0,0,0],"split_type":[0,0,0,0,0,0,0],"sum_hessian":[3.4716637E1,1.9671535E1,1.5045099E1,1.8579655E1,1.0918809E0,1.635576E1,2.2238955E0],"tree_param":{"num_deleted":"0","num_feature":"10","num_nodes":"7","size_leaf_vector":"1"}},{"base_weights":[2.7310446E-2,-3.15049E-1,4.548796E-2,-2.4399646E-2,4.1162588E-2],"categories":[],"categories_nodes":[],"categories_segments":[],"categories_sizes":[],"default_left":[0,0,0,0,0],"id":76,"left_children":[1,3,-1,-1,-1],"loss_changes":[1.0648621E1,5.412661E0,0E0,0E0,0E0],"parents":[2147483647,0,0,1,1],"right_children":[2,4,-1,-1,-1],"split_conditions":[1E0,6.805359E0,4.548796E-2,-2.4399646E-2,4.1162588E-2],"split_indices":[9,1,0,0,0],"split_type":[0,0,0,0,0],"sum_hessian":[3.3298244E1,2.4453947E1,8.844297E0,2.172459E1,2.7293565E0],"tree_param":{"num_deleted":"0","num_feature":"10","num_nodes":"5","size_leaf_vector":"1"}},{"base_weights":[5.582564E-3,-6.980953E-1,4.759377E-2,-4.80413E-2,4.0462863E-2],"categories":[],"categories_nodes":[],"categories_segments":[],"categories_sizes":[],"default_left":[0,0,0,0,0],"id":77,"left_children":[1,3,-1,-1,-1],"loss_changes":[2.3277714E1,8.71928E0,0E0,0E0,0E0],"parents":[2147483647,0,0,1,1],"right_children":[2,4,-1,-1,-1],"split_conditions":[4E0,6.805359E0,4.759377E-2,-4.80413E-2,4.0462863E-2],"split_indices":[3,1,0,0,0],"split_type":[0,0,0,0,0],"sum_hessian":[3.2959625E1,1.9053461E1,1.3906162E1,1.6534143E1,2.5193174E0],"tree_param":{"num_deleted":"0","num_feature":"10","num_nodes":"5","size_leaf_vector":"1"}},{"base_weights":[3.3666424E-2,-7.1797234E-1,4.753663E-2,-4.773476E-2,3.7921816E-2],"categories":[],"categories_nodes":[],"categories_segments":[],"categories_sizes":[],"default_left":[0,0,0,0,0],"id":78,"left_children":[1,3,-1,-1,-1],"loss_changes":[2.2705069E1,7.0597486E0,0E0,0E0,0E0],"parents":[2147483647,0,0,1,1],"right_children":[2,4,-1,-1,-1],"split_conditions":[4E0,6.805359E0,4.753663E-2,-4.773476E-2,3.7921816E-2],"split_indices":[3,1,0,0,0],"split_type":[0,0,0,0,0],"sum_hessian":[3.094892E1,1.7127834E1,1.3821085E1,1.5065625E1,2.0622094E0],"tree_param":{"num_deleted":"0","num_feature":"10","num_nodes":"5","size_leaf_vector":"1"}},{"base_weights":[1.6949443E-2,-7.0605046E-1,4.7216427E-2,-4.7559574E-2,3.7924044E-2],"categories":[],"categories_nodes":[],"categories_segments":[],"categories_sizes":[],"default_left":[0,0,0,0,0],"id":79,"left_children":[1,3,-1,-1,-1],"loss_changes":[2.1075926E1,7.0675926E0,0E0,0E0,0E0],"parents":[2147483647,0,0,1,1],"right_children":[2,4,-1,-1,-1],"split_conditions":[4E0,6.632477E0,4.7216427E-2,-4.7559574E-2,3.7924044E-2],"split_indices":[3,1,0,0,0],"split_type":[0,0,0,0,0],"sum_hessian":[2.943898E1,1.6676426E1,1.2762554E1,1.4585536E1,2.09089E0],"tree_param":{"num_deleted":"0","num_feature":"10","num_nodes":"5","size_leaf_vector":"1"}},{"base_weights":[3.781265E-2,-3.3446226E-2,4.709163E-2],"categories":[],"categories_nodes":[],"categories_segments":[],"categories_sizes":[],"default_left":[0,0,0],"id":80,"left_children":[1,-1,-1],"loss_changes":[1.9545738E1,0E0,0E0],"parents":[2147483647,0,0],"right_children":[2,-1,-1],"split_conditions":[4E0,-3.3446226E-2,4.709163E-2],"split_indices":[3,0,0],"split_type":[0,0,0],"sum_hessian":[2.8606495E1,1.6201038E1,1.2405457E1],"tree_param":{"num_deleted":"0","num_feature":"10","num_nodes":"3","size_leaf_vector":"1"}},{"base_weights":[2.5872562E-2,-6.447997E-1,4.6751395E-2,-4.7300905E-2,3.9916005E-2],"categories":[],"categories_nodes":[],"categories_segments":[],"categories_sizes":[],"default_left":[0,0,0,0,0],"id":81,"left_children":[1,3,-1,-1,-1],"loss_changes":[1.7959152E1,8.13315E0,0E0,0E0,0E0],"parents":[2147483647,0,0,1,1],"right_children":[2,4,-1,-1,-1],"split_conditions":[4E0,6.805359E0,4.6751395E-2,-4.7300905E-2,3.9916005E-2],"split_indices":[3,1,0,0,0],"split_type":[0,0,0,0,0],"sum_hessian":[2.746475E1,1.5972679E1,1.1492071E1,1.3499441E1,2.4732378E0],"tree_param":{"num_deleted":"0","num_feature":"10","num_nodes":"5","size_leaf_vector":"1"}},{"base_weights":[1.2728189E-2,-6.641254E-1,4.6625458E-2,-4.722278E-2,3.860638E-2],"categories":[],"categories_nodes":[],"categories_segments":[],"categories_sizes":[],"default_left":[0,0,0,0,0],"id":82,"left_children":[1,3,-1,-1,-1],"loss_changes":[1.791468E1,7.4080215E0,0E0,0E0,0E0],"parents":[2147483647,0,0,1,1],"right_children":[2,4,-1,-1,-1],"split_conditions":[4E0,6.805359E0,4.6625458E-2,-4.722278E-2,3.860638E-2],"split_indices":[3,1,0,0,0],"split_type":[0,0,0,0,0],"sum_hessian":[2.6781193E1,1.5588093E1,1.1193101E1,1.3328945E1,2.259148E0],"tree_param":{"num_deleted":"0","num_feature":"10","num_nodes":"5","size_leaf_vector":"1"}},{"base_weights":[9.984946E-3,-6.955276E-1,4.649084E-2,-4.7018383E-2,3.6059666E-2],"categories":[],"categories_nodes":[],"categories_segments":[],"categories_sizes":[],"default_left":[0,0,0,0,0],"id":83,"left_children":[1,3,-1,-1,-1],"loss_changes":[1.7787352E1,6.06156E0,0E0,0E0,0E0],"parents":[2147483647,0,0,1,1],"right_children":[2,4,-1,-1,-1],"split_conditions":[4E0,6.805359E0,4.649084E-2,-4.7018383E-2,3.6059666E-2],"split_indices":[3,1,0,0,0],"split_type":[0,0,0,0,0],"sum_hessian":[2.5412762E1,1.4519859E1,1.0892903E1,1.2666969E1,1.8528901E0],"tree_param":{"num_deleted":"0","num_feature":"10","num_nodes":"5","size_leaf_vector":"1"}},{"base_weights":[3.135238E-2,-6.498065E-1,4.620581E-2,-4.670201E-2,3.7190992E-2],"categories":[],"categories_nodes":[],"categories_segments":[],"categories_sizes":[],"default_left":[0,0,0,0,0],"id":84,"left_children":[1,3,-1,-1,-1],"loss_changes":[1.5768594E1,6.531631E0,0E0,0E0,0E0],"parents":[2147483647,0,0,1,1],"right_children":[2,4,-1,-1,-1],"split_conditions":[4E0,6.805359E0,4.620581E-2,-4.670201E-2,3.7190992E-2],"split_indices":[3,1,0,0,0],"split_type":[0,0,0,0,0],"sum_hessian":[2.3942852E1,1.373528E1,1.0207572E1,1.1682402E1,2.0528786E0],"tree_param":{"num_deleted":"0","num_feature":"10","num_nodes":"5","size_leaf_vector":"1"}},{"base_weights":[3.0019967E-2,-6.274241E-1,4.5956537E-2,-4.0719517E-2,-4.7457808E-1,-2.988929E-1,-2.9640341E-2,-2.0020925E-2,-5.380089E-3],"categories":[],"categories_nodes":[],"categories_segments":[],"categories_sizes":[],"default_left":[0,0,0,0,0,0,0,0,0],"id":85,"left_children":[1,3,-1,-1,5,7,-1,-1,-1],"loss_changes":[1.4704239E1,2.7555466E-2,0E0,0E0,3.8176775E-2,7.708508E-2,0E0,0E0,0E0],"parents":[2147483647,0,0,1,1,4,4,5,5],"right_children":[2,4,-1,-1,6,8,-1,-1,-1],"split_conditions":[4E0,3.4E1,4.5956537E-2,-4.0719517E-2,5.1E1,4.3E1,-2.9640341E-2,-2.0020925E-2,-5.380089E-3],"split_indices":[3,5,0,0,5,5,0,0,0],"split_type":[0,0,0,0,0,0,0,0,0],"sum_hessian":[2.3168646E1,1.3488807E1,9.679839E0,4.120412E0,9.368395E0,5.1876917E0,4.1807027E0,2.6748195E0,2.5128725E0],"tree_param":{"num_deleted":"0","num_feature":"10","num_nodes":"9","size_leaf_vector":"1"}},{"base_weights":[3.6842898E-2,-5.9673345E-1,4.5829188E-2,-3.8062185E-2,-4.2288786E-1,-1.5205473E-1,-5.034131E-1,-1.5307029E-2,5.4548276E-3,-2.7561406E-2,-6.8398304E-3],"categories":[],"categories_nodes":[],"categories_segments":[],"categories_sizes":[],"default_left":[0,0,0,0,0,0,0,0,0,0,0],"id":86,"left_children":[1,3,-1,-1,5,7,9,-1,-1,-1,-1],"loss_changes":[1.3968383E1,9.573889E-2,0E0,0E0,1.2737262E-1,1.7728332E-1,4.3350935E-2,0E0,0E0,0E0,0E0],"parents":[2147483647,0,0,1,1,4,4,5,5,6,6],"right_children":[2,4,-1,-1,6,8,10,-1,-1,-1,-1],"split_conditions":[4E0,3.8E1,4.5829188E-2,-3.8062185E-2,1.96E2,3E0,4.63E2,-1.5307029E-2,5.4548276E-3,-2.7561406E-2,-6.8398304E-3],"split_indices":[3,5,0,0,4,0,4,0,0,0,0],"split_type":[0,0,0,0,0,0,0,0,0,0,0],"sum_hessian":[2.307936E1,1.3603799E1,9.47556E0,5.2535295E0,8.350269E0,2.575682E0,5.7745876E0,1.511554E0,1.064128E0,4.6628876E0,1.1116998E0],"tree_param":{"num_deleted":"0","num_feature":"10","num_nodes":"11","size_leaf_vector":"1"}},{"base_weights":[-6.4475933E-4,-6.578175E-1,4.5493644E-2,-4.6318233E-2,3.556987E-2],"categories":[],"categories_nodes":[],"categories_segments":[],"categories_sizes":[],"default_left":[0,0,0,0,0],"id":87,"left_children":[1,3,-1,-1,-1],"loss_changes":[1.4049196E1,5.67303E0,0E0,0E0,0E0],"parents":[2147483647,0,0,1,1],"right_children":[2,4,-1,-1,-1],"split_conditions":[4E0,6.632477E0,4.5493644E-2,-4.6318233E-2,3.556987E-2],"split_indices":[3,1,0,0,0],"split_type":[0,0,0,0,0],"sum_hessian":[2.1478943E1,1.2636205E1,8.842738E0,1.083462E1,1.8015848E0],"tree_param":{"num_deleted":"0","num_feature":"10","num_nodes":"5","size_leaf_vector":"1"}},{"base_weights":[2.4761048E-3,-6.36746E-1,4.523003E-2,-4.6174105E-2,3.5953846E-2],"categories":[],"categories_nodes":[],"categories_segments":[],"categories_sizes":[],"default_left":[0,0,0,0,0],"id":88,"left_children":[1,3,-1,-1,-1],"loss_changes":[1.3099107E1,5.833562E0,0E0,0E0,0E0],"parents":[2147483647,0,0,1,1],"right_children":[2,4,-1,-1,-1],"split_conditions":[4E0,6.805359E0,4.523003E-2,-4.6174105E-2,3.5953846E-2],"split_indices":[3,1,0,0,0],"split_type":[0,0,0,0,0],"sum_hessian":[2.0716698E1,1.2297312E1,8.419386E0,1.0413823E1,1.8834894E0],"tree_param":{"num_deleted":"0","num_feature":"10","num_nodes":"5","size_leaf_vector":"1"}},{"base_weights":[3.4987863E-2,-5.809325E-1,4.5117967E-2,-4.594846E-2,3.778276E-2],"categories":[],"categories_nodes":[],"categories_segments":[],"categories_sizes":[],"default_left":[0,0,0,0,0],"id":89,"left_children":[1,3,-1,-1,-1],"loss_changes":[1.1951781E1,6.620792E0,0E0,0E0,0E0],"parents":[2147483647,0,0,1,1],"right_children":[2,4,-1,-1,-1],"split_conditions":[4E0,6.805359E0,4.5117967E-2,-4.594846E-2,3.778276E-2],"split_indices":[3,1,0,0,0],"split_type":[0,0,0,0,0],"sum_hessian":[2.0390665E1,1.2116779E1,8.273885E0,9.920287E0,2.1964915E0],"tree_param":{"num_deleted":"0","num_feature":"10","num_nodes":"5","size_leaf_vector":"1"}},{"base_weights":[2.5904493E-2,-2.7917224E-1,4.1695144E-2,-2.407828E-2,3.5993677E-2],"categories":[],"categories_nodes":[],"categories_segments":[],"categories_sizes":[],"default_left":[0,0,0,0,0],"id":90,"left_children":[1,3,-1,-1,-1],"loss_changes":[5.2493663E0,3.4852848E0,0E0,0E0,0E0],"parents":[2147483647,0,0,1,1],"right_children":[2,4,-1,-1,-1],"split_conditions":[1E0,6.6302547E0,4.1695144E-2,-2.407828E-2,3.5993677E-2],"split_indices":[9,1,0,0,0],"split_type":[0,0,0,0,0],"sum_hessian":[1.935105E1,1.4522329E1,4.828721E0,1.2506628E1,2.0157018E0],"tree_param":{"num_deleted":"0","num_feature":"10","num_nodes":"5","size_leaf_vector":"1"}},{"base_weights":[2.0251274E-2,-6.081798E-1,4.4756662E-2,-4.5650404E-2,3.5471898E-2],"categories":[],"categories_nodes":[],"categories_segments":[],"categories_sizes":[],"default_left":[0,0,0,0,0],"id":91,"left_children":[1,3,-1,-1,-1],"loss_changes":[1.1478135E1,5.5353074E0,0E0,0E0,0E0],"parents":[2147483647,0,0,1,1],"right_children":[2,4,-1,-1,-1],"split_conditions":[4E0,6.805359E0,4.4756662E-2,-4.5650404E-2,3.5471898E-2],"split_indices":[3,1,0,0,0],"split_type":[0,0,0,0,0],"sum_hessian":[1.8886639E1,1.1168853E1,7.7177863E0,9.31981E0,1.8490433E0],"tree_param":{"num_deleted":"0","num_feature":"10","num_nodes":"5","size_leaf_vector":"1"}},{"base_weights":[3.6782816E-2,-5.785332E-1,4.4521872E-2,-4.5358237E-2,3.5849687E-2],"categories":[],"categories_nodes":[],"categories_segments":[],"categories_sizes":[],"default_left":[0,0,0,0,0],"id":92,"left_children":[1,3,-1,-1,-1],"loss_changes":[1.05491705E1,5.6347866E0,0E0,0E0,0E0],"parents":[2147483647,0,0,1,1],"right_children":[2,4,-1,-1,-1],"split_conditions":[4E0,6.805359E0,4.4521872E-2,-4.5358237E-2,3.5849687E-2],"split_indices":[3,1,0,0,0],"split_type":[0,0,0,0,0],"sum_hessian":[1.8102697E1,1.0707207E1,7.39549E0,8.779831E0,1.9273763E0],"tree_param":{"num_deleted":"0","num_feature":"10","num_nodes":"5","size_leaf_vector":"1"}},{"base_weights":[5.2946698E-2,-5.5520016E-1,4.4246044E-2,-4.4998977E-2,3.5733737E-2],"categories":[],"categories_nodes":[],"categories_segments":[],"categories_sizes":[],"default_left":[0,0,0,0,0],"id":93,"left_children":[1,3,-1,-1,-1],"loss_changes":[9.680438E0,5.5059958E0,0E0,0E0,0E0],"parents":[2147483647,0,0,1,1],"right_children":[2,4,-1,-1,-1],"split_conditions":[4E0,6.805359E0,4.4246044E-2,-4.4998977E-2,3.5733737E-2],"split_indices":[3,1,0,0,0],"split_type":[0,0,0,0,0],"sum_hessian":[1.7161684E1,1.0106686E1,7.0549974E0,8.177677E0,1.9290084E0],"tree_param":{"num_deleted":"0","num_feature":"10","num_nodes":"5","size_leaf_vector":"1"}},{"base_weights":[1.2900878E-2,-5.957891E-1,4.3902185E-2,-4.501268E-2,3.390727E-2],"categories":[],"categories_nodes":[],"categories_segments":[],"categories_sizes":[],"default_left":[0,0,0,0,0],"id":94,"left_children":[1,3,-1,-1,-1],"loss_changes":[9.7755785E0,4.8419085E0,0E0,0E0,0E0],"parents":[2147483647,0,0,1,1],"right_children":[2,4,-1,-1,-1],"split_conditions":[4E0,6.805359E0,4.3902185E-2,-4.501268E-2,3.390727E-2],"split_indices":[3,1,0,0,0],"split_type":[0,0,0,0,0],"sum_hessian":[1.657004E1,9.909405E0,6.6606355E0,8.234682E0,1.6747226E0],"tree_param":{"num_deleted":"0","num_feature":"10","num_nodes":"5","size_leaf_vector":"1"}},{"base_weights":[1.0541684E-2,-6.2651294E-1,4.365039E-2,-4.464592E-2,3.1070128E-2],"categories":[],"categories_nodes":[],"categories_segments":[],"categories_sizes":[],"default_left":[0,0,0,0,0],"id":95,"left_children":[1,3,-1,-1,-1],"loss_changes":[9.577663E0,3.8912446E0,0E0,0E0,0E0],"parents":[2147483647,0,0,1,1],"right_children":[2,4,-1,-1,-1],"split_conditions":[4E0,6.805359E0,4.365039E-2,-4.464592E-2,3.1070128E-2],"split_indices":[3,1,0,0,0],"split_type":[0,0,0,0,0],"sum_hessian":[1.5436272E1,9.035697E0,6.4005756E0,7.6805267E0,1.3551698E0],"tree_param":{"num_deleted":"0","num_feature":"10","num_nodes":"5","size_leaf_vector":"1"}},{"base_weights":[1.807026E-2,-5.757396E-1,4.3307062E-2,-4.4503924E-2,3.3249784E-2],"categories":[],"categories_nodes":[],"categories_segments":[],"categories_sizes":[],"default_left":[0,0,0,0,0],"id":96,"left_children":[1,3,-1,-1,-1],"loss_changes":[8.646293E0,4.5375233E0,0E0,0E0,0E0],"parents":[2147483647,0,0,1,1],"right_children":[2,4,-1,-1,-1],"split_conditions":[4E0,6.805359E0,4.3307062E-2,-4.4503924E-2,3.3249784E-2],"split_indices":[3,1,0,0,0],"split_type":[0,0,0,0,0],"sum_hessian":[1.5178984E1,9.116694E0,6.062289E0,7.49936E0,1.6173341E0],"tree_param":{"num_deleted":"0","num_feature":"10","num_nodes":"5","size_leaf_vector":"1"}},{"base_weights":[2.718825E-2,-5.919588E-1,4.3256007E-2,-4.421673E-2,3.161206E-2],"categories":[],"categories_nodes":[],"categories_segments":[],"categories_sizes":[],"default_left":[0,0,0,0,0],"id":97,"left_children":[1,3,-1,-1,-1],"loss_changes":[8.595859E0,3.97885E0,0E0,0E0,0E0],"parents":[2147483647,0,0,1,1],"right_children":[2,4,-1,-1,-1],"split_conditions":[4E0,6.805359E0,4.3256007E-2,-4.421673E-2,3.161206E-2],"split_indices":[3,1,0,0,0],"split_type":[0,0,0,0,0],"sum_hessian":[1.4581525E1,8.554304E0,6.02722E0,7.129248E0,1.4250561E0],"tree_param":{"num_deleted":"0","num_feature":"10","num_nodes":"5","size_leaf_vector":"1"}},{"base_weights":[4.1895032E-2,-2.683853E-2,4.270256E-2],"categories":[],"categories_nodes":[],"categories_segments":[],"categories_sizes":[],"default_left":[0,0,0],"id":98,"left_children":[1,-1,-1],"loss_changes":[7.4065824E0,0E0,0E0],"parents":[2147483647,0,0],"right_children":[2,-1,-1],"split_conditions":[4E0,-2.683853E-2,4.270256E-2],"split_indices":[3,0,0],"split_type":[0,0,0],"sum_hessian":[1.3784347E1,8.247231E0,5.5371165E0],"tree_param":{"num_deleted":"0","num_feature":"10","num_nodes":"3","size_leaf_vector":"1"}},{"base_weights":[4.5557514E-2,-5.169348E-1,4.2436473E-2,-4.3634616E-2,3.3594288E-2],"categories":[],"categories_nodes":[],"categories_segments":[],"categories_sizes":[],"default_left":[0,0,0,0,0],"id":99,"left_children":[1,3,-1,-1,-1],"loss_changes":[6.969827E0,4.444991E0,0E0,0E0,0E0],"parents":[2147483647,0,0,1,1],"right_children":[2,4,-1,-1,-1],"split_conditions":[4E0,6.805359E0,4.2436473E-2,-4.3634616E-2,3.3594288E-2],"split_indices":[3,1,0,0,0],"split_type":[0,0,0,0,0],"sum_hessian":[1.345641E1,8.123555E0,5.332856E0,6.4571533E0,1.6664015E0],"tree_param":{"num_deleted":"0","num_feature":"10","num_nodes":"5","size_leaf_vector":"1"}},{"base_weights":[4.8079368E-2,-2.6251722E-2,4.243232E-2],"categories":[],"categories_nodes":[],"categories_segments":[],"categories_sizes":[],"default_left":[0,0,0],"id":100,"left_children":[1,-1,-1],"loss_changes":[6.994256E0,0E0,0E0],"parents":[2147483647,0,0],"right_children":[2,-1,-1],"split_conditions":[4E0,-2.6251722E-2,4.243232E-2],"split_indices":[3,0,0],"split_type":[0,0,0],"sum_hessian":[1.3273014E1,7.935955E0,5.3370585E0],"tree_param":{"num_deleted":"0","num_feature":"10","num_nodes":"3","size_leaf_vector":"1"}},{"base_weights":[4.850058E-2,-5.371047E-1,4.214474E-2,-4.312676E-2,3.144812E-2],"categories":[],"categories_nodes":[],"categories_segments":[],"categories_sizes":[],"default_left":[0,0,0,0,0],"id":101,"left_children":[1,3,-1,-1,-1],"loss_changes":[6.7418976E0,3.727473E0,0E0,0E0,0E0],"parents":[2147483647,0,0,1,1],"right_children":[2,4,-1,-1,-1],"split_conditions":[4E0,6.632477E0,4.214474E-2,-4.312676E-2,3.144812E-2],"split_indices":[3,1,0,0,0],"split_type":[0,0,0,0,0],"sum_hessian":[1.2519251E1,7.393126E0,5.1261253E0,5.983525E0,1.4096012E0],"tree_param":{"num_deleted":"0","num_feature":"10","num_nodes":"5","size_leaf_vector":"1"}},{"base_weights":[5.4550424E-2,-4.9610198E-1,4.1831538E-2,-4.3039843E-2,3.298753E-2],"categories":[],"categories_nodes":[],"categories_segments":[],"categories_sizes":[],"default_left":[0,0,0,0,0],"id":102,"left_children":[1,3,-1,-1,-1],"loss_changes":[6.1813617E0,4.144676E0,0E0,0E0,0E0],"parents":[2147483647,0,0,1,1],"right_children":[2,4,-1,-1,-1],"split_conditions":[4E0,6.805359E0,4.1831538E-2,-4.3039843E-2,3.298753E-2],"split_indices":[3,1,0,0,0],"split_type":[0,0,0,0,0],"sum_hessian":[1.2389639E1,7.485125E0,4.9045134E0,5.883905E0,1.6012203E0],"tree_param":{"num_deleted":"0","num_feature":"10","num_nodes":"5","size_leaf_vector":"1"}},{"base_weights":[9.347941E-3,-2.7818534E-1,3.695814E-2,-1.5970342E-2,1.7053523E-4],"categories":[],"categories_nodes":[],"categories_segments":[],"categories_sizes":[],"default_left":[0,0,0,0,0],"id":103,"left_children":[1,3,-1,-1,-1],"loss_changes":[2.8191652E0,1.1323357E-1,0E0,0E0,0E0],"parents":[2147483647,0,0,1,1],"right_children":[2,4,-1,-1,-1],"split_conditions":[1E0,6.3E1,3.695814E-2,-1.5970342E-2,1.7053523E-4],"split_indices":[9,5,0,0,0],"split_type":[0,0,0,0,0],"sum_hessian":[1.1454564E1,8.661087E0,2.7934773E0,7.438E0,1.2230872E0],"tree_param":{"num_deleted":"0","num_feature":"10","num_nodes":"5","size_leaf_vector":"1"}},{"base_weights":[5.1888183E-2,-4.9522582E-1,4.130714E-2,-2.7569333E-2,-1.0171403E-2],"categories":[],"categories_nodes":[],"categories_segments":[],"categories_sizes":[],"default_left":[0,0,0,0,0],"id":104,"left_children":[1,3,-1,-1,-1],"loss_changes":[5.726273E0,1.8607378E-2,0E0,0E0,0E0],"parents":[2147483647,0,0,1,1],"right_children":[2,4,-1,-1,-1],"split_conditions":[4E0,2.92E2,4.130714E-2,-2.7569333E-2,-1.0171403E-2],"split_indices":[3,4,0,0,0],"split_type":[0,0,0,0,0],"sum_hessian":[1.1552115E1,6.980117E0,4.5719986E0,5.107486E0,1.8726312E0],"tree_param":{"num_deleted":"0","num_feature":"10","num_nodes":"5","size_leaf_vector":"1"}},{"base_weights":[5.84531E-2,-4.7141114E-1,4.104684E-2,-4.239231E-2,3.2604884E-2],"categories":[],"categories_nodes":[],"categories_segments":[],"categories_sizes":[],"default_left":[0,0,0,0,0],"id":105,"left_children":[1,3,-1,-1,-1],"loss_changes":[5.3726773E0,3.900798E0,0E0,0E0,0E0],"parents":[2147483647,0,0,1,1],"right_children":[2,4,-1,-1,-1],"split_conditions":[4E0,6.632477E0,4.104684E-2,-4.239231E-2,3.2604884E-2],"split_indices":[3,1,0,0,0],"split_type":[0,0,0,0,0],"sum_hessian":[1.1340398E1,6.9160485E0,4.42435E0,5.3641367E0,1.5519117E0],"tree_param":{"num_deleted":"0","num_feature":"10","num_nodes":"5","size_leaf_vector":"1"}},{"base_weights":[6.884179E-2,-1.7361972E-1,3.55872E-2,-2.2460321E-2,3.3680245E-2],"categories":[],"categories_nodes":[],"categories_segments":[],"categories_sizes":[],"default_left":[0,0,0,0,0],"id":106,"left_children":[1,3,-1,-1,-1],"loss_changes":[1.9704688E0,2.4990761E0,0E0,0E0,0E0],"parents":[2147483647,0,0,1,1],"right_children":[2,4,-1,-1,-1],"split_conditions":[1E0,6.632477E0,3.55872E-2,-2.2460321E-2,3.3680245E-2],"split_indices":[9,1,0,0,0],"split_type":[0,0,0,0,0],"sum_hessian":[1.0848265E1,8.4074545E0,2.4408097E0,6.6983833E0,1.7090712E0],"tree_param":{"num_deleted":"0","num_feature":"10","num_nodes":"5","size_leaf_vector":"1"}},{"base_weights":[5.9630882E-2,-1.7798512E-1,3.5233725E-2,-2.1252353E-2,3.2361023E-2],"categories":[],"categories_nodes":[],"categories_segments":[],"categories_sizes":[],"default_left":[0,0,0,0,0],"id":107,"left_children":[1,3,-1,-1,-1],"loss_changes":[1.9238201E0,2.1860402E0,0E0,0E0,0E0],"parents":[2147483647,0,0,1,1],"right_children":[2,4,-1,-1,-1],"split_conditions":[1E0,6.805359E0,3.5233725E-2,-2.1252353E-2,3.2361023E-2],"split_indices":[9,1,0,0,0],"split_type":[0,0,0,0,0],"sum_hessian":[1.0733328E1,8.373015E0,2.360312E0,6.8169723E0,1.5560436E0],"tree_param":{"num_deleted":"0","num_feature":"10","num_nodes":"5","size_leaf_vector":"1"}},{"base_weights":[4.6517767E-2,-1.8038924E-1,3.4525704E-2,-2.1286799E-2,3.216637E-2],"categories":[],"categories_nodes":[],"categories_segments":[],"categories_sizes":[],"default_left":[0,0,0,0,0],"id":108,"left_children":[1,3,-1,-1,-1],"loss_changes":[1.8081309E0,2.1558785E0,0E0,0E0,0E0],"parents":[2147483647,0,0,1,1],"right_children":[2,4,-1,-1,-1],"split_conditions":[1E0,6.805359E0,3.4525704E-2,-2.1286799E-2,3.216637E-2],"split_indices":[9,1,0,0,0],"split_type":[0,0,0,0,0],"sum_hessian":[1.05212555E1,8.312354E0,2.2089014E0,6.776965E0,1.5353892E0],"tree_param":{"num_deleted":"0","num_feature":"10","num_nodes":"5","size_leaf_vector":"1"}},{"base_weights":[6.296286E-2,-4.6691975E-1,4.0455908E-2,-2.5264386E-2,-5.6758025E-3],"categories":[],"categories_nodes":[],"categories_segments":[],"categories_sizes":[],"default_left":[0,0,0,0,0],"id":109,"left_children":[1,3,-1,-1,-1],"loss_changes":[4.8811693E0,4.1549325E-2,0E0,0E0,0E0],"parents":[2147483647,0,0,1,1],"right_children":[2,4,-1,-1,-1],"split_conditions":[4E0,3.59E2,4.0455908E-2,-2.5264386E-2,-5.6758025E-3],"split_indices":[3,4,0,0,0],"split_type":[0,0,0,0,0],"sum_hessian":[1.0390146E1,6.294404E0,4.095742E0,5.2902794E0,1.0041243E0],"tree_param":{"num_deleted":"0","num_feature":"10","num_nodes":"5","size_leaf_vector":"1"}},{"base_weights":[7.458809E-2,-1.4337103E-1,3.4118596E-2,-1.4132475E-2,-6.356307E-2,7.7986526E-3,-1.2646064E-1,-2.4770936E-3,-1.0048321E-2],"categories":[],"categories_nodes":[],"categories_segments":[],"categories_sizes":[],"default_left":[0,0,0,0,0,0,0,0,0],"id":110,"left_children":[1,3,-1,-1,5,-1,7,-1,-1],"loss_changes":[1.5810316E0,8.282253E-2,0E0,0E0,1.1713461E-1,0E0,2.4633683E-2,0E0,0E0],"parents":[2147483647,0,0,1,1,4,4,6,6],"right_children":[2,4,-1,-1,6,-1,8,-1,-1],"split_conditions":[1E0,9.9E1,3.4118596E-2,-1.4132475E-2,1.7E2,7.7986526E-3,5.1E1,-2.4770936E-3,-1.0048321E-2],"split_indices":[9,4,0,0,4,0,5,0,0],"split_type":[0,0,0,0,0,0,0,0,0],"sum_hessian":[1.019632E1,8.067367E0,2.1289532E0,2.0128973E0,6.054469E0,1.0187736E0,5.0356956E0,3.2969296E0,1.738766E0],"tree_param":{"num_deleted":"0","num_feature":"10","num_nodes":"9","size_leaf_vector":"1"}},{"base_weights":[4.8247498E-2,-4.5455033E-1,3.9826687E-2,-4.160855E-2,3.1393524E-2],"categories":[],"categories_nodes":[],"categories_segments":[],"categories_sizes":[],"default_left":[0,0,0,0,0],"id":111,"left_children":[1,3,-1,-1,-1],"loss_changes":[4.509822E0,3.4778972E0,0E0,0E0,0E0],"parents":[2147483647,0,0,1,1],"right_children":[2,4,-1,-1,-1],"split_conditions":[4E0,6.805359E0,3.9826687E-2,-4.160855E-2,3.1393524E-2],"split_indices":[3,1,0,0,0],"split_type":[0,0,0,0,0],"sum_hessian":[1.0024329E1,6.2304397E0,3.7938898E0,4.790417E0,1.4400225E0],"tree_param":{"num_deleted":"0","num_feature":"10","num_nodes":"5","size_leaf_vector":"1"}},{"base_weights":[3.245738E-2,-4.9081346E-1,3.9602727E-2,-4.1388087E-2,2.9241437E-2],"categories":[],"categories_nodes":[],"categories_segments":[],"categories_sizes":[],"default_left":[0,0,0,0,0],"id":112,"left_children":[1,3,-1,-1,-1],"loss_changes":[4.593224E0,2.9779134E0,0E0,0E0,0E0],"parents":[2147483647,0,0,1,1],"right_children":[2,4,-1,-1,-1],"split_conditions":[4E0,6.805359E0,3.9602727E-2,-4.1388087E-2,2.9241437E-2],"split_indices":[3,1,0,0,0],"split_type":[0,0,0,0,0],"sum_hessian":[9.577955E0,5.8807073E0,3.697248E0,4.653449E0,1.2272583E0],"tree_param":{"num_deleted":"0","num_feature":"10","num_nodes":"5","size_leaf_vector":"1"}},{"base_weights":[5.472199E-2,-4.5250952E-1,3.921361E-2,-4.0842023E-2,2.9856343E-2],"categories":[],"categories_nodes":[],"categories_segments":[],"categories_sizes":[],"default_left":[0,0,0,0,0],"id":113,"left_children":[1,3,-1,-1,-1],"loss_changes":[4.1186585E0,3.0245996E0,0E0,0E0,0E0],"parents":[2147483647,0,0,1,1],"right_children":[2,4,-1,-1,-1],"split_conditions":[4E0,6.632477E0,3.921361E-2,-4.0842023E-2,2.9856343E-2],"split_indices":[3,1,0,0,0],"split_type":[0,0,0,0,0],"sum_hessian":[9.170948E0,5.633741E0,3.5372074E0,4.346759E0,1.2869818E0],"tree_param":{"num_deleted":"0","num_feature":"10","num_nodes":"5","size_leaf_vector":"1"}},{"base_weights":[6.5066405E-2,-1.253869E-1,3.244189E-2,-7.1891597E-3,-1.9820018E-3],"categories":[],"categories_nodes":[],"categories_segments":[],"categories_sizes":[],"default_left":[0,0,0,0,0],"id":114,"left_children":[1,3,-1,-1,-1],"loss_changes":[1.1940199E0,7.525414E-3,0E0,0E0,0E0],"parents":[2147483647,0,0,1,1],"right_children":[2,4,-1,-1,-1],"split_conditions":[6.805359E0,5E0,3.244189E-2,-7.1891597E-3,-1.9820018E-3],"split_indices":[1,0,0,0,0],"split_type":[0,0,0,0,0],"sum_hessian":[9.007666E0,7.3839054E0,1.6237599E0,5.522306E0,1.8615994E0],"tree_param":{"num_deleted":"0","num_feature":"10","num_nodes":"5","size_leaf_vector":"1"}},{"base_weights":[4.9706336E-2,-4.595476E-1,3.8937163E-2,-4.0639933E-2,2.9014772E-2],"categories":[],"categories_nodes":[],"categories_segments":[],"categories_sizes":[],"default_left":[0,0,0,0,0],"id":115,"left_children":[1,3,-1,-1,-1],"loss_changes":[4.0214033E0,2.836669E0,0E0,0E0,0E0],"parents":[2147483647,0,0,1,1],"right_children":[2,4,-1,-1,-1],"split_conditions":[4E0,6.805359E0,3.8937163E-2,-4.0639933E-2,2.9014772E-2],"split_indices":[3,1,0,0,0],"split_type":[0,0,0,0,0],"sum_hessian":[8.867707E0,5.4384437E0,3.4292634E0,4.2223797E0,1.216064E0],"tree_param":{"num_deleted":"0","num_feature":"10","num_nodes":"5","size_leaf_vector":"1"}},{"base_weights":[7.032145E-2,-1.4477971E-1,3.211581E-2,-1.3632341E-2,-3.1888377E-2,4.4733565E-3,-1.04508825E-1,2.9527722E-3,-9.40663E-3],"categories":[],"categories_nodes":[],"categories_segments":[],"categories_sizes":[],"default_left":[0,0,0,0,0,0,0,0,0],"id":116,"left_children":[1,3,-1,-1,5,-1,7,-1,-1],"loss_changes":[1.2635067E0,1.0288432E-1,0E0,0E0,5.550932E-2,0E0,6.2238645E-2,0E0,0E0],"parents":[2147483647,0,0,1,1,4,4,6,6],"right_children":[2,4,-1,-1,6,-1,8,-1,-1],"split_conditions":[1E0,3.8E1,3.211581E-2,-1.3632341E-2,4.7E1,4.4733565E-3,2.11E2,2.9527722E-3,-9.40663E-3],"split_indices":[9,5,0,0,5,0,4,0,0],"split_type":[0,0,0,0,0,0,0,0,0],"sum_hessian":[8.513519E0,6.7296796E0,1.7838395E0,2.4919875E0,4.2376924E0,1.499652E0,2.7380402E0,1.0256709E0,1.7123693E0],"tree_param":{"num_deleted":"0","num_feature":"10","num_nodes":"9","size_leaf_vector":"1"}},{"base_weights":[6.09839E-2,-4.5556408E-1,3.865814E-2,-4.0066432E-2,2.8027562E-2],"categories":[],"categories_nodes":[],"categories_segments":[],"categories_sizes":[],"default_left":[0,0,0,0,0],"id":117,"left_children":[1,3,-1,-1,-1],"loss_changes":[3.8114624E0,2.5851245E0,0E0,0E0,0E0],"parents":[2147483647,0,0,1,1],"right_children":[2,4,-1,-1,-1],"split_conditions":[4E0,6.632477E0,3.865814E-2,-4.0066432E-2,2.8027562E-2],"split_indices":[3,1,0,0,0],"split_type":[0,0,0,0,0],"sum_hessian":[8.403307E0,5.0794625E0,3.3238442E0,3.947563E0,1.1318998E0],"tree_param":{"num_deleted":"0","num_feature":"10","num_nodes":"5","size_leaf_vector":"1"}},{"base_weights":[6.7490615E-2,-4.3500078E-1,3.8237404E-2,-3.970259E-2,2.8221225E-2],"categories":[],"categories_nodes":[],"categories_segments":[],"categories_sizes":[],"default_left":[0,0,0,0,0],"id":118,"left_children":[1,3,-1,-1,-1],"loss_changes":[3.5242252E0,2.5766425E0,0E0,0E0,0E0],"parents":[2147483647,0,0,1,1],"right_children":[2,4,-1,-1,-1],"split_conditions":[4E0,6.632477E0,3.8237404E-2,-3.970259E-2,2.8221225E-2],"split_indices":[3,1,0,0,0],"split_type":[0,0,0,0,0],"sum_hessian":[8.10922E0,4.931424E0,3.1777954E0,3.779207E0,1.152217E0],"tree_param":{"num_deleted":"0","num_feature":"10","num_nodes":"5","size_leaf_vector":"1"}},{"base_weights":[2.5299571E-2,-4.704092E-1,3.7621062E-2,-3.987232E-2,2.6844442E-2],"categories":[],"categories_nodes":[],"categories_segments":[],"categories_sizes":[],"default_left":[0,0,0,0,0],"id":119,"left_children":[1,3,-1,-1,-1],"loss_changes":[3.5483434E0,2.3668442E0,0E0,0E0,0E0],"parents":[2147483647,0,0,1,1],"right_children":[2,4,-1,-1,-1],"split_conditions":[4E0,6.805359E0,3.7621062E-2,-3.987232E-2,2.6844442E-2],"split_indices":[3,1,0,0,0],"split_type":[0,0,0,0,0],"sum_hessian":[7.8624806E0,4.8851357E0,2.9773452E0,3.8450902E0,1.0400453E0],"tree_param":{"num_deleted":"0","num_feature":"10","num_nodes":"5","size_leaf_vector":"1"}},{"base_weights":[2.1119772E-2,-6.997706E-3,2.7926384E-2],"categories":[],"categories_nodes":[],"categories_segments":[],"categories_sizes":[],"default_left":[0,0,0],"id":120,"left_children":[1,-1,-1],"loss_changes":[8.1240875E-1,0E0,0E0],"parents":[2147483647,0,0],"right_children":[2,-1,-1],"split_conditions":[6.805359E0,-6.997706E-3,2.7926384E-2],"split_indices":[1,0,0],"split_type":[0,0,0],"sum_hessian":[7.4822125E0,6.3257966E0,1.1564157E0],"tree_param":{"num_deleted":"0","num_feature":"10","num_nodes":"3","size_leaf_vector":"1"}},{"base_weights":[4.6392825E-2,-4.7660124E-1,3.762249E-2,-3.8917184E-2,2.1523993E-2],"categories":[],"categories_nodes":[],"categories_segments":[],"categories_sizes":[],"default_left":[0,0,0,0,0],"id":121,"left_children":[1,3,-1,-1,-1],"loss_changes":[3.4739518E0,1.8291687E0,0E0,0E0,0E0],"parents":[2147483647,0,0,1,1],"right_children":[2,4,-1,-1,-1],"split_conditions":[4E0,5.843993E0,3.762249E-2,-3.8917184E-2,2.1523993E-2],"split_indices":[3,1,0,0,0],"split_type":[0,0,0,0,0],"sum_hessian":[7.4366107E0,4.4588275E0,2.9777832E0,3.4523282E0,1.0064992E0],"tree_param":{"num_deleted":"0","num_feature":"10","num_nodes":"5","size_leaf_vector":"1"}},{"base_weights":[7.222111E-2,-4.4047213E-1,3.750549E-2,-3.8560525E-2,2.3847168E-2],"categories":[],"categories_nodes":[],"categories_segments":[],"categories_sizes":[],"default_left":[0,0,0,0,0],"id":122,"left_children":[1,3,-1,-1,-1],"loss_changes":[3.2141452E0,1.9924673E0,0E0,0E0,0E0],"parents":[2147483647,0,0,1,1],"right_children":[2,4,-1,-1,-1],"split_conditions":[4E0,6.632477E0,3.750549E-2,-3.8560525E-2,2.3847168E-2],"split_indices":[3,1,0,0,0],"split_type":[0,0,0,0,0],"sum_hessian":[7.2973714E0,4.3543596E0,2.9430118E0,3.3176696E0,1.0366901E0],"tree_param":{"num_deleted":"0","num_feature":"10","num_nodes":"5","size_leaf_vector":"1"}},{"base_weights":[7.3268816E-2,-5.8346926E-3,2.969247E-2],"categories":[],"categories_nodes":[],"categories_segments":[],"categories_sizes":[],"default_left":[0,0,0],"id":123,"left_children":[1,-1,-1],"loss_changes":[8.7021345E-1,0E0,0E0],"parents":[2147483647,0,0],"right_children":[2,-1,-1],"split_conditions":[6.805359E0,-5.8346926E-3,2.969247E-2],"split_indices":[1,0,0],"split_type":[0,0,0],"sum_hessian":[7.0989766E0,5.7694955E0,1.3294812E0],"tree_param":{"num_deleted":"0","num_feature":"10","num_nodes":"3","size_leaf_vector":"1"}},{"base_weights":[7.022411E-2,-1.2660423E-1,2.921061E-2,-1.8137563E-2,2.7486304E-2],"categories":[],"categories_nodes":[],"categories_segments":[],"categories_sizes":[],"default_left":[0,0,0,0,0],"id":124,"left_children":[1,3,-1,-1,-1],"loss_changes":[8.852179E-1,1.2567705E0,0E0,0E0,0E0],"parents":[2147483647,0,0,1,1],"right_children":[2,4,-1,-1,-1],"split_conditions":[1E0,6.805359E0,2.921061E-2,-1.8137563E-2,2.7486304E-2],"split_indices":[9,1,0,0,0],"split_type":[0,0,0,0,0],"sum_hessian":[7.018928E0,5.620339E0,1.3985891E0,4.5094647E0,1.1108739E0],"tree_param":{"num_deleted":"0","num_feature":"10","num_nodes":"5","size_leaf_vector":"1"}},{"base_weights":[5.7177365E-2,-4.3926138E-1,3.6354914E-2,-3.7601035E-2,2.010766E-2],"categories":[],"categories_nodes":[],"categories_segments":[],"categories_sizes":[],"default_left":[0,0,0,0,0],"id":125,"left_children":[1,3,-1,-1,-1],"loss_changes":[2.8516905E0,1.61738E0,0E0,0E0,0E0],"parents":[2147483647,0,0,1,1],"right_children":[2,4,-1,-1,-1],"split_conditions":[4E0,4.6406016E0,3.6354914E-2,-3.7601035E-2,2.010766E-2],"split_indices":[3,1,0,0,0],"split_type":[0,0,0,0,0],"sum_hessian":[6.614242E0,3.9967763E0,2.617466E0,2.9911783E0,1.0055981E0],"tree_param":{"num_deleted":"0","num_feature":"10","num_nodes":"5","size_leaf_vector":"1"}},{"base_weights":[9.515328E-2,-3.7761185E-1,3.6682557E-2,-3.7981693E-2,2.7370293E-2],"categories":[],"categories_nodes":[],"categories_segments":[],"categories_sizes":[],"default_left":[0,0,0,0,0],"id":126,"left_children":[1,3,-1,-1,-1],"loss_changes":[2.6656446E0,2.255776E0,0E0,0E0,0E0],"parents":[2147483647,0,0,1,1],"right_children":[2,4,-1,-1,-1],"split_conditions":[4E0,6.805359E0,3.6682557E-2,-3.7981693E-2,2.7370293E-2],"split_indices":[3,1,0,0,0],"split_type":[0,0,0,0,0],"sum_hessian":[6.9129834E0,4.206755E0,2.7062283E0,3.1037364E0,1.1030186E0],"tree_param":{"num_deleted":"0","num_feature":"10","num_nodes":"5","size_leaf_vector":"1"}},{"base_weights":[5.641246E-2,-4.4985676E-1,3.605885E-2,-3.6832433E-2,1.5685478E-2],"categories":[],"categories_nodes":[],"categories_segments":[],"categories_sizes":[],"default_left":[0,0,0,0,0],"id":127,"left_children":[1,3,-1,-1,-1],"loss_changes":[2.7854016E0,1.2749674E0,0E0,0E0,0E0],"parents":[2147483647,0,0,1,1],"right_children":[2,4,-1,-1,-1],"split_conditions":[4E0,1.082662E0,3.605885E-2,-3.6832433E-2,1.5685478E-2],"split_indices":[3,1,0,0,0],"split_type":[0,0,0,0,0],"sum_hessian":[6.3123655E0,3.7668808E0,2.5454848E0,2.763991E0,1.0028895E0],"tree_param":{"num_deleted":"0","num_feature":"10","num_nodes":"5","size_leaf_vector":"1"}},{"base_weights":[7.049532E-2,-3.9444765E-1,3.5446443E-2,-3.7027393E-2,2.3192763E-2],"categories":[],"categories_nodes":[],"categories_segments":[],"categories_sizes":[],"default_left":[0,0,0,0,0],"id":128,"left_children":[1,3,-1,-1,-1],"loss_changes":[2.4231327E0,1.7755703E0,0E0,0E0,0E0],"parents":[2147483647,0,0,1,1],"right_children":[2,4,-1,-1,-1],"split_conditions":[4E0,6.632477E0,3.5446443E-2,-3.7027393E-2,2.3192763E-2],"split_indices":[3,1,0,0,0],"split_type":[0,0,0,0,0],"sum_hessian":[6.2211704E0,3.820808E0,2.4003627E0,2.8206217E0,1.0001861E0],"tree_param":{"num_deleted":"0","num_feature":"10","num_nodes":"5","size_leaf_vector":"1"}},{"base_weights":[7.410435E-2,-4.0110675E-1,3.5136517E-2,-3.6060676E-2,1.8408434E-2],"categories":[],"categories_nodes":[],"categories_segments":[],"categories_sizes":[],"default_left":[0,0,0,0,0],"id":129,"left_children":[1,3,-1,-1,-1],"loss_changes":[2.341301E0,1.3890879E0,0E0,0E0,0E0],"parents":[2147483647,0,0,1,1],"right_children":[2,4,-1,-1,-1],"split_conditions":[4E0,2.0054514E0,3.5136517E-2,-3.6060676E-2,1.8408434E-2],"split_indices":[3,1,0,0,0],"split_type":[0,0,0,0,0],"sum_hessian":[5.893953E0,3.5626736E0,2.3312793E0,2.5599272E0,1.0027463E0],"tree_param":{"num_deleted":"0","num_feature":"10","num_nodes":"5","size_leaf_vector":"1"}},{"base_weights":[9.507283E-2,-3.544389E-1,3.4985416E-2,-3.6239926E-2,2.3647962E-2],"categories":[],"categories_nodes":[],"categories_segments":[],"categories_sizes":[],"default_left":[0,0,0,0,0],"id":130,"left_children":[1,3,-1,-1,-1],"loss_changes":[2.1363726E0,1.7673899E0,0E0,0E0,0E0],"parents":[2147483647,0,0,1,1],"right_children":[2,4,-1,-1,-1],"split_conditions":[4E0,6.632477E0,3.4985416E-2,-3.6239926E-2,2.3647962E-2],"split_indices":[3,1,0,0,0],"split_type":[0,0,0,0,0],"sum_hessian":[5.947878E0,3.648916E0,2.298962E0,2.6062915E0,1.0426245E0],"tree_param":{"num_deleted":"0","num_feature":"10","num_nodes":"5","size_leaf_vector":"1"}},{"base_weights":[1.0655342E-1,-8.690714E-2,2.7513895E-2,-5.1649874E-3,-5.992223E-4],"categories":[],"categories_nodes":[],"categories_segments":[],"categories_sizes":[],"default_left":[0,0,0,0,0],"id":131,"left_children":[1,3,-1,-1,-1],"loss_changes":[6.1367667E-1,5.460441E-3,0E0,0E0,0E0],"parents":[2147483647,0,0,1,1],"right_children":[2,4,-1,-1,-1],"split_conditions":[6.632477E0,5E0,2.7513895E-2,-5.1649874E-3,-5.992223E-4],"split_indices":[1,0,0,0,0],"split_type":[0,0,0,0,0],"sum_hessian":[5.591713E0,4.453961E0,1.137752E0,3.3436422E0,1.1103188E0],"tree_param":{"num_deleted":"0","num_feature":"10","num_nodes":"5","size_leaf_vector":"1"}},{"base_weights":[7.562729E-2,-3.684228E-1,3.4457073E-2,-3.6113854E-2,2.2391388E-2],"categories":[],"categories_nodes":[],"categories_segments":[],"categories_sizes":[],"default_left":[0,0,0,0,0],"id":132,"left_children":[1,3,-1,-1,-1],"loss_changes":[2.096866E0,1.6451842E0,0E0,0E0,0E0],"parents":[2147483647,0,0,1,1],"right_children":[2,4,-1,-1,-1],"split_conditions":[4E0,6.6302547E0,3.4457073E-2,-3.6113854E-2,2.2391388E-2],"split_indices":[3,1,0,0,0],"split_type":[0,0,0,0,0],"sum_hessian":[5.764906E0,3.576088E0,2.188818E0,2.5749466E0,1.0011414E0],"tree_param":{"num_deleted":"0","num_feature":"10","num_nodes":"5","size_leaf_vector":"1"}},{"base_weights":[8.2986295E-2,-3.716478E-1,3.4076527E-2,-3.484979E-2,1.7339481E-2],"categories":[],"categories_nodes":[],"categories_segments":[],"categories_sizes":[],"default_left":[0,0,0,0,0],"id":133,"left_children":[1,3,-1,-1,-1],"loss_changes":[1.9943265E0,1.2428957E0,0E0,0E0,0E0],"parents":[2147483647,0,0,1,1],"right_children":[2,4,-1,-1,-1],"split_conditions":[4E0,2.9030209E0,3.4076527E-2,-3.484979E-2,1.7339481E-2],"split_indices":[3,1,0,0,0],"split_type":[0,0,0,0,0],"sum_hessian":[5.3980813E0,3.2832873E0,2.1147943E0,2.2804286E0,1.0028586E0],"tree_param":{"num_deleted":"0","num_feature":"10","num_nodes":"5","size_leaf_vector":"1"}},{"base_weights":[7.315663E-2,-3.717142E-1,3.3788756E-2,-3.4962542E-2,1.7667605E-2],"categories":[],"categories_nodes":[],"categories_segments":[],"categories_sizes":[],"default_left":[0,0,0,0,0],"id":134,"left_children":[1,3,-1,-1,-1],"loss_changes":[1.9596087E0,1.2709494E0,0E0,0E0,0E0],"parents":[2147483647,0,0,1,1],"right_children":[2,4,-1,-1,-1],"split_conditions":[4E0,3.9414237E0,3.3788756E-2,-3.4962542E-2,1.7667605E-2],"split_indices":[3,1,0,0,0],"split_type":[0,0,0,0,0],"sum_hessian":[5.3725986E0,3.311281E0,2.0613177E0,2.305441E0,1.00584E0],"tree_param":{"num_deleted":"0","num_feature":"10","num_nodes":"5","size_leaf_vector":"1"}},{"base_weights":[7.128969E-2,-3.7185752E-1,3.339554E-2,-3.4380883E-2,1.579886E-2],"categories":[],"categories_nodes":[],"categories_segments":[],"categories_sizes":[],"default_left":[0,0,0,0,0],"id":135,"left_children":[1,3,-1,-1,-1],"loss_changes":[1.8813018E0,1.1264944E0,0E0,0E0,0E0],"parents":[2147483647,0,0,1,1],"right_children":[2,4,-1,-1,-1],"split_conditions":[4E0,2.2417362E0,3.339554E-2,-3.4380883E-2,1.579886E-2],"split_indices":[3,1,0,0,0],"split_type":[0,0,0,0,0],"sum_hessian":[5.17621E0,3.1862862E0,1.9899237E0,2.184004E0,1.0022821E0],"tree_param":{"num_deleted":"0","num_feature":"10","num_nodes":"5","size_leaf_vector":"1"}},{"base_weights":[8.6564474E-2,-3.4563813E-1,3.297575E-2,-3.377406E-2,1.6623404E-2],"categories":[],"categories_nodes":[],"categories_segments":[],"categories_sizes":[],"default_left":[0,0,0,0,0],"id":136,"left_children":[1,3,-1,-1,-1],"loss_changes":[1.7100319E0,1.1343887E0,0E0,0E0,0E0],"parents":[2147483647,0,0,1,1],"right_children":[2,4,-1,-1,-1],"split_conditions":[4E0,7.5256944E-1,3.297575E-2,-3.377406E-2,1.6623404E-2],"split_indices":[3,1,0,0,0],"split_type":[0,0,0,0,0],"sum_hessian":[4.985035E0,3.0676825E0,1.9173524E0,2.0664132E0,1.0012693E0],"tree_param":{"num_deleted":"0","num_feature":"10","num_nodes":"5","size_leaf_vector":"1"}},{"base_weights":[8.848628E-2,-3.7005213E-3,2.2061417E-2],"categories":[],"categories_nodes":[],"categories_segments":[],"categories_sizes":[],"default_left":[0,0,0],"id":137,"left_children":[1,-1,-1],"loss_changes":[3.7214237E-1,0E0,0E0],"parents":[2147483647,0,0],"right_children":[2,-1,-1],"split_conditions":[6.6302547E0,-3.7005213E-3,2.2061417E-2],"split_indices":[1,0,0],"split_type":[0,0,0],"sum_hessian":[4.9227204E0,3.911162E0,1.0115587E0],"tree_param":{"num_deleted":"0","num_feature":"10","num_nodes":"3","size_leaf_vector":"1"}},{"base_weights":[6.999626E-2,-1.8081684E-2,3.246094E-2],"categories":[],"categories_nodes":[],"categories_segments":[],"categories_sizes":[],"default_left":[0,0,0],"id":138,"left_children":[1,-1,-1],"loss_changes":[1.684294E0,0E0,0E0],"parents":[2147483647,0,0],"right_children":[2,-1,-1],"split_conditions":[4E0,-1.8081684E-2,3.246094E-2],"split_indices":[3,0,0],"split_type":[0,0,0],"sum_hessian":[4.797832E0,2.9644299E0,1.8334023E0],"tree_param":{"num_deleted":"0","num_feature":"10","num_nodes":"3","size_leaf_vector":"1"}},{"base_weights":[7.810975E-2,-3.593579E-1,3.2584827E-2,-3.2940235E-2,1.2832137E-2],"categories":[],"categories_nodes":[],"categories_segments":[],"categories_sizes":[],"default_left":[0,0,0,0,0],"id":139,"left_children":[1,3,-1,-1,-1],"loss_changes":[1.6830348E0,8.922037E-1,0E0,0E0,0E0],"parents":[2147483647,0,0,1,1],"right_children":[2,4,-1,-1,-1],"split_conditions":[4E0,9.8256946E-1,3.2584827E-2,-3.2940235E-2,1.2832137E-2],"split_indices":[3,1,0,0,0],"split_type":[0,0,0,0,0],"sum_hessian":[4.773991E0,2.9202456E0,1.8537455E0,1.9182631E0,1.0019825E0],"tree_param":{"num_deleted":"0","num_feature":"10","num_nodes":"5","size_leaf_vector":"1"}},{"base_weights":[8.007905E-2,-3.056657E-1,3.149911E-2,-3.3623915E-2,2.0213079E-2],"categories":[],"categories_nodes":[],"categories_segments":[],"categories_sizes":[],"default_left":[0,0,0,0,0],"id":140,"left_children":[1,3,-1,-1,-1],"loss_changes":[1.4077346E0,1.3239588E0,0E0,0E0,0E0],"parents":[2147483647,0,0,1,1],"right_children":[2,4,-1,-1,-1],"split_conditions":[4E0,5.0254283E0,3.149911E-2,-3.3623915E-2,2.0213079E-2],"split_indices":[3,1,0,0,0],"split_type":[0,0,0,0,0],"sum_hessian":[4.7286344E0,3.0401695E0,1.6884646E0,2.0392559E0,1.0009136E0],"tree_param":{"num_deleted":"0","num_feature":"10","num_nodes":"5","size_leaf_vector":"1"}},{"base_weights":[8.803235E-2,-3.1114152E-1,3.1456634E-2,-3.2565907E-2,1.6509278E-2],"categories":[],"categories_nodes":[],"categories_segments":[],"categories_sizes":[],"default_left":[0,0,0,0,0],"id":141,"left_children":[1,3,-1,-1,-1],"loss_changes":[1.3922882E0,1.0565239E0,0E0,0E0,0E0],"parents":[2147483647,0,0,1,1],"right_children":[2,4,-1,-1,-1],"split_conditions":[4E0,3.2163658E0,3.1456634E-2,-3.2565907E-2,1.6509278E-2],"split_indices":[3,1,0,0,0],"split_type":[0,0,0,0,0],"sum_hessian":[4.5397086E0,2.8570354E0,1.6826732E0,1.8566442E0,1.0003912E0],"tree_param":{"num_deleted":"0","num_feature":"10","num_nodes":"5","size_leaf_vector":"1"}},{"base_weights":[7.2511636E-2,-1.6076645E-2,3.0801032E-2],"categories":[],"categories_nodes":[],"categories_segments":[],"categories_sizes":[],"default_left":[0,0,0],"id":142,"left_children":[1,-1,-1],"loss_changes":[1.3442597E0,0E0,0E0],"parents":[2147483647,0,0],"right_children":[2,-1,-1],"split_conditions":[4E0,-1.6076645E-2,3.0801032E-2],"split_indices":[3,0,0],"split_type":[0,0,0],"sum_hessian":[4.3518534E0,2.759573E0,1.5922801E0],"tree_param":{"num_deleted":"0","num_feature":"10","num_nodes":"3","size_leaf_vector":"1"}},{"base_weights":[8.319851E-2,-3.0894503E-1,3.07443E-2,-3.1656772E-2,1.4286974E-2],"categories":[],"categories_nodes":[],"categories_segments":[],"categories_sizes":[],"default_left":[0,0,0,0,0],"id":143,"left_children":[1,3,-1,-1,-1],"loss_changes":[1.2953479E0,8.974798E-1,0E0,0E0,0E0],"parents":[2147483647,0,0,1,1],"right_children":[2,4,-1,-1,-1],"split_conditions":[4E0,1.0319328E0,3.07443E-2,-3.1656772E-2,1.4286974E-2],"split_indices":[3,1,0,0,0],"split_type":[0,0,0,0,0],"sum_hessian":[4.301648E0,2.7168117E0,1.5848366E0,1.7164413E0,1.0003703E0],"tree_param":{"num_deleted":"0","num_feature":"10","num_nodes":"5","size_leaf_vector":"1"}},{"base_weights":[1.2622611E-1,-2.5967163E-1,3.0834764E-2,-3.1022057E-2,1.7166937E-2],"categories":[],"categories_nodes":[],"categories_segments":[],"categories_sizes":[],"default_left":[0,0,0,0,0],"id":144,"left_children":[1,3,-1,-1,-1],"loss_changes":[1.1491914E0,1.0023416E0,0E0,0E0,0E0],"parents":[2147483647,0,0,1,1],"right_children":[2,4,-1,-1,-1],"split_conditions":[4E0,1.0319328E0,3.0834764E-2,-3.1022057E-2,1.7166937E-2],"split_indices":[3,1,0,0,0],"split_type":[0,0,0,0,0],"sum_hessian":[4.225594E0,2.6282613E0,1.5973328E0,1.6263443E0,1.001917E0],"tree_param":{"num_deleted":"0","num_feature":"10","num_nodes":"5","size_leaf_vector":"1"}},{"base_weights":[6.493424E-2,-3.0935347E-1,2.9602904E-2,-3.090686E-2,1.2396934E-2],"categories":[],"categories_nodes":[],"categories_segments":[],"categories_sizes":[],"default_left":[0,0,0,0,0],"id":145,"left_children":[1,3,-1,-1,-1],"loss_changes":[1.1803851E0,7.7491844E-1,0E0,0E0,0E0],"parents":[2147483647,0,0,1,1],"right_children":[2,4,-1,-1,-1],"split_conditions":[4E0,7.5256944E-1,2.9602904E-2,-3.090686E-2,1.2396934E-2],"split_indices":[3,1,0,0,0],"split_type":[0,0,0,0,0],"sum_hessian":[4.0544868E0,2.6125546E0,1.4419322E0,1.6108419E0,1.0017128E0],"tree_param":{"num_deleted":"0","num_feature":"10","num_nodes":"5","size_leaf_vector":"1"}},{"base_weights":[7.101606E-2,-1.6084252E-2,2.9821197E-2],"categories":[],"categories_nodes":[],"categories_segments":[],"categories_sizes":[],"default_left":[0,0,0],"id":146,"left_children":[1,-1,-1],"loss_changes":[1.2135738E0,0E0,0E0],"parents":[2147483647,0,0],"right_children":[2,-1,-1],"split_conditions":[4E0,-1.6084252E-2,2.9821197E-2],"split_indices":[3,0,0],"split_type":[0,0,0],"sum_hessian":[3.9518821E0,2.4834447E0,1.4684374E0],"tree_param":{"num_deleted":"0","num_feature":"10","num_nodes":"3","size_leaf_vector":"1"}},{"base_weights":[7.322251E-2,-1.567964E-2,2.949828E-2],"categories":[],"categories_nodes":[],"categories_segments":[],"categories_sizes":[],"default_left":[0,0,0],"id":147,"left_children":[1,-1,-1],"loss_changes":[1.1575472E0,0E0,0E0],"parents":[2147483647,0,0],"right_children":[2,-1,-1],"split_conditions":[4E0,-1.567964E-2,2.949828E-2],"split_indices":[3,0,0],"split_type":[0,0,0],"sum_hessian":[3.86551E0,2.4355104E0,1.4299996E0],"tree_param":{"num_deleted":"0","num_feature":"10","num_nodes":"3","size_leaf_vector":"1"}},{"base_weights":[1.16049334E-1,-2.2308277E-1,2.8791279E-2,-3.0271655E-2,